//<![CDATA[

/**
 *
 * formerly ref
 * @type {number}
 */
var refinement = 19
//this defines some fibbonaci progrsessions for the learning size and duration.
//  it appears the learning size progression shows immediate improvements but then starts to drop off before
//  the accompanying iteration curve.
//
//  run train, and manually bump this up when you start to the training results waver.
//  the traces through the layers will be come progressivley finer nuance.
//  a constant level of learn/decay appears to run its course quickly.
//
//  there's no way for a webworker to track and update a counter without some help from the source code.
//  i tried. when training results taper off its time to bump the refinements
//

/**
 * using fibbonaci for iteration count has a sweet spot which
 * seems to be somewhere around an hour or less of training before the decay
 * induces indeterminant benefit.
 *
 * poorly named fibonacci constant for training
 * @type {number|*}
 */
var refib = fibonacci(refinement)

/**
 *
 * refinement 14 gives 372100 iterations
 * ref 15 gives  974169 iterations
 * 15 is an endurable background task length.
 * 17 starts to get into the millions of iterations.  the rate of decay and
 * modification seem to cause asymptotic training valleys after more than a few hundred thousand iterations
 * on a new refinement step.
 *
 * @type {number}
 */
var iterCieling = 15;
/** anything 7 and below runs the risk of overwhelming chrome and derailing the debugger if you pound
 * on the train button.  8 takes a few seconds to complete.
 *  @type {number} */
var iterFloor = 8;

console.log("refinement level is at " + refinement)

console.log("refib is " + refib)


// a few things don't have var in front of them - they update already existing variables the game needs
lanesSide = 6;
patchesAhead = 52;
patchesBehind = 9;
var temporal_window = 0;
var iterRefib = fibonacci(Math.max(iterFloor, Math.min(iterCieling, refinement)))

trainIterations = Math.pow(iterRefib, 2) // 1000 * Math.floor(Math.random() * 128) + 2;

/**
 * the number of other autonomous vehicles controlled by your network
 *
 * these don't behave like other cars.  would need temporal window to make this most effective.
 *
 * if the behavior involves predicting it's own behavior in other agents, this probably
 * will lead to spatial entrainment with them.
 *
 * @type {number}
 */
otherAgents = 0//Math.min(0, 10 - 100 * Math.floor(Math.random())); // max of 10


var num_inputs = (lanesSide * 2 + 1) * (patchesAhead + patchesBehind);
var num_actions = 5;
var network_size = num_inputs * temporal_window + num_actions * temporal_window + num_inputs;

var layer_defs = [];
layer_defs.push({
    type: 'input',
    out_sx: 1,
    out_sy: 1,
    out_depth: network_size
});

layer_defs.push({
        type: 'fc',
        num_neurons: 23,
        activation: 'relu'
    }
);
layer_defs.push({
        type: 'fc',
        num_neurons: 17,
        activation: 'tanh'
    }
);
layer_defs.push({
        type: 'fc',
        num_neurons: 19,
        activation: 'tanh'
    }
);
layer_defs.push({
        type: 'fc',
        num_neurons: 2,
        activation: 'tanh'
    }
);

layer_defs.push({
    type: 'regression',
    num_neurons: num_actions
});
// var refinement=self.refinement
var tdtrainer_options = {
    learning_rate: 1 / (refib),
    momentum: 0,
    batch_size: refinement,
    l2_decay: 1 / (refib)
};

var opt = {};
opt.temporal_window = temporal_window;
opt.experience_size = 3000;
opt.start_learn_threshold = 500;
opt.gamma = ((refib - 1) / 7) / (refib / 7);
opt.learning_steps_total = 10000;
opt.learning_steps_burnin = 1000;
opt.epsilon_min = 0.0;
opt.epsilon_test_time = 0.0;
opt.layer_defs = layer_defs;
opt.tdtrainer_options = tdtrainer_options;


brain = new deepqlearn.Brain(num_inputs, num_actions, opt);
learn = function (state, lastReward) {
    brain.backward(lastReward);
    var action = brain.forward(state);

    draw_net();
    draw_stats();

    return action;
}


//tools http://github.com/jnorthrup/deeptraffic


console.log(
    {
        "trainIter": trainIterations,
        trainOpts: tdtrainer_options,
        opt,
        defs: layer_defs
    }
)


var temporalSize = (num_inputs + num_actions)

// useage: splitTmporal(1,[1,1,1,1,1,1...])
function widenTemporalWithZeros(oldfilters) {
    //appears to initially cause less discord.
    for (var oldfilter of oldfilters) {
        oldfilter.depth = network_size// addThisManyNewOnes * temporalSize

        for (var j = num_inputs; j < network_size; j++) {
            oldfilter.w[j] = 0
        }
    }
    return oldfilters
};

// useage: splitTmporal(1,[1,1,1,1,1,1...])
function splitTemporal(oldfilters) {
    for (var oldfilter of oldfilters) {
        oldfilter.depth = network_size// addThisManyNewOnes * temporalSize

        for (var i = 0; i < temporal_window; i++) {
            var mark = num_inputs + i * temporalSize;
            for (var j = 0; j < num_inputs; j++) {
                oldfilter.w[(j + mark)] = oldfilter.w[j]
            }
            for (var j = 0; j < num_actions; j++) {
                oldfilter.w[j + mark + num_inputs] = 0
            }

        }
    }
    return oldfilters
};

/*usage: filter: bridge(21)*/
function widen(newSize, filterSize, old) {

    var ret = []
    for (var i = 0; i < filterSize; i++) {
        var l = {"sx": 1, "sy": 1, "depth": newSize, "w": {}}
        ret.push(l)
        for (var j = 0; j < newSize; j++) {
            if (old.size > i && j in old[i].w) {
                l.w [j] = old[i].w[j]
            }
            else {
                l.w [j] = .1
            }
        }
    }
    return ret;
};

/*usage: filter: bridge(21)*/
function bridge(n) {
    var ret = []

    for (var i = 0; i < n; i++) {
        var l = {"sx": 1, "sy": 1, "depth": n, "w": {}}
        ret.push(l)
        for (var j = 0; j < n; j++) {

            l.w [j] = (i == j ? 1 : 0)
        }

    }
    return ret;
};

function bias(n) {
    var ret = {"sx": 1, "sy": 1, "depth": n, "w": {}}

    for (var i = 0; i < n; i++)
        ret.w[i] = 1

    return ret;
}

if (typeof document != "undefined")
    document.getElementById("net_canvas").setAttribute("width", 5150);

function widenBias(newSize, oldBias) {
    console.log("widening bias", newSize, oldBias)
    oldBias.depth = newSize
    for (var i = 0; i < newSize; i++) {
        if (!(i in oldBias.w)) oldBias.w[i] = 0
    }
    console.log("widenbias returning", oldBias)
    return oldBias;
};


/**
 * filter is an array of objects with a w array-object
 *
 * @param newSize
 * @param filterSize
 * @param old
 * @returns {*}
 */
function widenFilter(newSize, filterSize, old) {
    console.log("widening old filter", newSize, filterSize, old)
    var ret
    var count = filterSize - old.length;
    var anies = Array(Math.max(0, count));
    var items = anies.fill({
        "sx": 1,
        "sy": 1,
        "w": {}
    });
    ret = old.concat(items);
    for (var f of ret) {
        for (var i = 0; i < newSize; i++)
            if (!(i in f.w)) f.w [i] = 0.001;
        f.depth = newSize
    }

    console.log("widen filter returning", ret)

    return ret;
};

function widenLayer(newDepth, oldFc, nextFc) {
    console.log("widen layer", newDepth, oldFc, nextFc)
    oldFc.out_depth = newDepth
    nextFc.num_inputs = newDepth

    oldFc.filters = widenFilter(oldFc.num_inputs, newDepth, oldFc.filters)
    oldFc.biases = widenBias(newDepth, oldFc.biases)
    nextFc.filters = widenFilter(newDepth, nextFc.filters.length, nextFc.filters)
    console.log("widen layer returning", oldFc, nextFc)
    return [oldFc, nextFc]
}

function widenLayerRandom(newDepth, oldFc, nextFc) {
    console.log("widen layerR", newDepth, oldFc, nextFc)
    oldFc.out_depth = newDepth
    nextFc.num_inputs = newDepth

    oldFc.filters = widenFilterRandom(oldFc.num_inputs, newDepth, oldFc.filters)
    oldFc.biases = widenBiasRandom(newDepth, oldFc.biases)
    nextFc.filters = widenFilterRandom(newDepth, nextFc.filters.length, nextFc.filters)
    console.log("widen layerR returning", oldFc, nextFc)
    return [oldFc, nextFc]
}

function widenBiasRandom(newSize, oldBias) {
    console.log("widening bias", newSize, oldBias)
    oldBias.depth = newSize
    for (var i = 0; i < newSize; i++) {
        if (!(i in oldBias.w)) oldBias.w[i] = 2 * Math.random() - 1
    }
    console.log("widenbias returning", oldBias)
    return oldBias;
};

/**
 * filter is an array of objects with a w array-object
 *
 * @param newSize
 * @param filterSize
 * @param old
 * @returns {*}
 */
function widenFilterRandom(newSize, filterSize, old) {
    console.log("widening old filter Rnd", newSize, filterSize, old)
    var ret
    var count = filterSize - old.length;
    var anies = Array(Math.max(0, count));
    var items = anies.fill({
        "sx": 1,
        "sy": 1,
        "w": {}
    });
    ret = old.concat(items);
    for (var f of ret) {
        for (var i = 0; i < newSize; i++)
            if (!(i in f.w)) f.w [i] = 2 * Math.random() - 1;
        f.depth = newSize
    }

    console.log("widen filter returning rnd", ret)

    return ret;
};

var tb;
if (brain) {
    var net = brain.value_net
    console.log(brain.value_net)
    tb = net.layers.slice(-2)[0]
    var w = tb
    console.log("do these biases need trimmming? ", //JSON.parse
        (JSON.stringify(w)))
}

function fibonacci(num) {
    var a = 1, b = 0, temp;

    while (num >= 0) {
        temp = a;
        a = a + b;
        b = temp;
        num--;
    }

    return b;
}

// /tools


//]]>
/*###########*/
if (brain) {
    var to23 = {
        "out_depth": 17,
        "out_sx": 1,
        "out_sy": 1,
        "layer_type": "fc",
        "num_inputs": 793,
        "l1_decay_mul": 0,
        "l2_decay_mul": 1,
        "filters": [{
            "sx": 1,
            "sy": 1,
            "depth": 793,
            "w": {
                "0": 0.02308390692552737,
                "1": -0.021880922655410827,
                "2": 0.01886367143910766,
                "3": 0.05066556921072318,
                "4": -0.04965830804053056,
                "5": -0.026317922399646997,
                "6": -0.0346798970206542,
                "7": 0.09758578475374517,
                "8": 0.04199769729081826,
                "9": -0.01585357812085993,
                "10": 0.08515506012777224,
                "11": -0.016560689295822963,
                "12": 0.10425517836463079,
                "13": -0.024330228740860528,
                "14": -0.04121151202769153,
                "15": -0.011719700490391399,
                "16": -0.03880210772629447,
                "17": -0.0964909612291259,
                "18": -0.02405947738457564,
                "19": -0.036381001861346844,
                "20": 0.07605731885101626,
                "21": 0.011155127560097795,
                "22": -0.0037560860545531845,
                "23": 0.004803806217272493,
                "24": -0.09137663827507596,
                "25": 0.09050464759960837,
                "26": -0.04458210892352726,
                "27": -0.05614633640060809,
                "28": 0.03320076074663551,
                "29": -0.05743644843149261,
                "30": -0.07781541820737828,
                "31": -0.04554061940791115,
                "32": -0.06239312129262183,
                "33": 0.05301406901252762,
                "34": -0.060326070067098725,
                "35": 0.04535845653740647,
                "36": 0.012826322191312876,
                "37": -0.056472935890976884,
                "38": 0.054157402508204076,
                "39": -0.02150623142548711,
                "40": -0.010398810986696295,
                "41": 0.0015293225060147443,
                "42": -0.043929642614368,
                "43": -0.07922164860140517,
                "44": -0.005383135619794884,
                "45": -0.04009640153848035,
                "46": 0.04378120976465281,
                "47": -0.0169612815676711,
                "48": 0.057838383300213236,
                "49": -0.00862672549084433,
                "50": 0.03638542540695051,
                "51": 0.06325879729602406,
                "52": -0.01607330950054347,
                "53": -0.009036543426028526,
                "54": 0.011412320155405232,
                "55": 0.0024285941059387778,
                "56": -0.06062343771304047,
                "57": 0.03840497506358904,
                "58": -0.01757003940610599,
                "59": 0.009194855130990633,
                "60": 0.0042945727845047675,
                "61": 0.05210192801904102,
                "62": 0.014652612475686602,
                "63": 0.042434707332023786,
                "64": 0.08620487648566784,
                "65": -0.02594775363219543,
                "66": -0.026217267169775283,
                "67": -0.00990477889019893,
                "68": -0.02355405045065208,
                "69": -0.027584900718605244,
                "70": 0.015288798388796557,
                "71": 0.034219798376370195,
                "72": 0.017585478108186958,
                "73": -0.01890670174740128,
                "74": 0.037410562617738743,
                "75": 0.03692939924078701,
                "76": 0.021559527729908358,
                "77": 0.02265166043578118,
                "78": -0.006094333806582141,
                "79": -0.02418835277981242,
                "80": -0.0360920654701527,
                "81": -0.03992133080468791,
                "82": -0.05011997997403983,
                "83": 0.08657941157800383,
                "84": 0.06123256084935722,
                "85": 0.06202951665493675,
                "86": -0.005562398112625594,
                "87": 0.04283671063375196,
                "88": 0.004547647345303178,
                "89": 0.008767903676222509,
                "90": 0.014036327013688689,
                "91": -0.0013827450628947546,
                "92": -0.06380094314019717,
                "93": -0.0320855152699232,
                "94": 0.003557539116229808,
                "95": -0.06730218504749104,
                "96": 0.05852345533815202,
                "97": 0.018431983749172952,
                "98": 0.0058111673618392624,
                "99": 0.026437662896967952,
                "100": 0.009295987454276657,
                "101": 0.002917699832287677,
                "102": 0.007050789155612387,
                "103": 0.010104109457698929,
                "104": 0.012040760087731443,
                "105": -0.022318798103884242,
                "106": -0.02922591809582005,
                "107": 0.021784316780408357,
                "108": -0.003204031140474018,
                "109": 0.027064574842278935,
                "110": 0.035526302952212485,
                "111": 0.0633655077559745,
                "112": 0.08441724705582584,
                "113": 0.027087577076778353,
                "114": 0.009517806925524275,
                "115": 0.008522077955980962,
                "116": -0.011236506954262575,
                "117": 0.012695789342745968,
                "118": 0.00037578395580162565,
                "119": -0.006199708963799825,
                "120": 0.06463189865179378,
                "121": -0.012445356196781722,
                "122": -0.0584215639599468,
                "123": -0.035531220909807176,
                "124": 0.13050344065560973,
                "125": 0.09174336651072022,
                "126": 0.04189477403685953,
                "127": -0.0046053342488899165,
                "128": 0.0507658802747044,
                "129": 0.02291279896410742,
                "130": 0.03132130006988647,
                "131": -0.009864304256355521,
                "132": 0.021181454692783534,
                "133": 0.04928060875466186,
                "134": -0.01934065200457923,
                "135": -0.054861003323433966,
                "136": -0.017951554603701972,
                "137": 0.13375064433578282,
                "138": 0.017285475892768992,
                "139": 0.029207972645732546,
                "140": -0.03098748123513324,
                "141": 0.09121641375013291,
                "142": 0.012916858024127368,
                "143": 0.04414851258744959,
                "144": -0.0013125732723337296,
                "145": -0.025667100782149236,
                "146": 0.039259892987291885,
                "147": 0.042267047274863495,
                "148": -0.0049913470815883985,
                "149": 0.012367599713643592,
                "150": 0.07312650524865268,
                "151": 0.07411198737327589,
                "152": 0.040972304599334285,
                "153": 0.004656324321269991,
                "154": 0.05601088056270756,
                "155": -0.004394830881649615,
                "156": -0.0007282757067054119,
                "157": -0.02803019624841357,
                "158": 0.02339470327701702,
                "159": -0.07083996084217396,
                "160": 0.03364894482831248,
                "161": -0.0029148367639472757,
                "162": 0.025063033748053333,
                "163": 0.08025238830870589,
                "164": 0.03422693415195187,
                "165": 0.04969611883387984,
                "166": -0.009235398194504203,
                "167": 0.06800220969641887,
                "168": -0.020468662834296887,
                "169": -0.0185788470423149,
                "170": -0.05274476235626525,
                "171": -0.018512249435656915,
                "172": -0.085922950917753,
                "173": -0.004006553952129023,
                "174": 0.02403215312194837,
                "175": 0.08187908014164223,
                "176": 0.044808190312602164,
                "177": 0.05964785382700362,
                "178": 0.037005484592466976,
                "179": 0.026991526825261236,
                "180": 0.059264087209101264,
                "181": -0.006661481704036893,
                "182": -0.012075602051961714,
                "183": -0.011715808551517742,
                "184": -0.015208268141007975,
                "185": -0.0731104364484949,
                "186": 0.033361639838363,
                "187": -0.034727015298660485,
                "188": 0.08334099334065738,
                "189": 0.04291156050848329,
                "190": 0.12202239291381553,
                "191": 0.049952144687565606,
                "192": -0.02122539608854813,
                "193": 0.030495579587599648,
                "194": 0.011819360658126285,
                "195": -0.014215207185008644,
                "196": -0.05182466207695975,
                "197": 0.03664509291720378,
                "198": -0.1250294481653493,
                "199": -0.026050879021923604,
                "200": -0.002637099740041503,
                "201": 0.08958051107089521,
                "202": 0.07931164101536582,
                "203": 0.054646476186689996,
                "204": 0.09815689213499898,
                "205": -0.004563339099893373,
                "206": 0.043574216286485334,
                "207": 0.0008187029776780558,
                "208": 0.011830459382803292,
                "209": -0.04377400682863787,
                "210": 0.001589486126571792,
                "211": -0.03522306692557271,
                "212": -0.06292742168906247,
                "213": 0.007086651849597792,
                "214": 0.07482711464053457,
                "215": 0.004557457077785627,
                "216": 0.08754664177608473,
                "217": 0.07800577847153257,
                "218": -0.0020244226353037494,
                "219": 0.059981778551927836,
                "220": 0.044126723327056375,
                "221": 0.036107863605946366,
                "222": 0.0015875788685851958,
                "223": 0.07313757540819633,
                "224": -0.029817738100140222,
                "225": -0.08157534450520128,
                "226": 0.03842697584942413,
                "227": 0.09318095716158886,
                "228": 0.015186115512798798,
                "229": 0.02699728446047138,
                "230": 0.028922518131199386,
                "231": -0.05571018053368427,
                "232": 0.11649960361162125,
                "233": -0.015407232134605944,
                "234": 0.015497651297404973,
                "235": 0.001494248411365793,
                "236": 0.031311801686371925,
                "237": -0.021724830362739717,
                "238": -0.042736170690597895,
                "239": 0.043384291871000194,
                "240": 0.02075499709326689,
                "241": 0.023970210313457294,
                "242": 0.030494466895548387,
                "243": -0.004391619757633671,
                "244": -0.04368098211397953,
                "245": 0.12045369243065154,
                "246": -0.006526979210951072,
                "247": 0.004946328513343281,
                "248": 0.031169940609435776,
                "249": 0.028959272208074975,
                "250": -0.04501316011944165,
                "251": -0.07627804092943034,
                "252": 0.012219952257102418,
                "253": 0.06441307873358684,
                "254": 0.017600760635649106,
                "255": 0.02398173637890035,
                "256": -0.04198418212644991,
                "257": 0.002153208961540566,
                "258": 0.10536024248921363,
                "259": 0.0056502784787541725,
                "260": 0.009851544351523535,
                "261": 0.06222956256131419,
                "262": -0.014605598939010301,
                "263": -0.09881052808637385,
                "264": -0.07041921116375964,
                "265": 0.02008412523228105,
                "266": 0.044899533108247944,
                "267": 0.07212062143055661,
                "268": -0.033937637256539595,
                "269": -0.024983756029301012,
                "270": 0.03195100638531943,
                "271": 0.10054955770984723,
                "272": 0.0015230858467897603,
                "273": 0.0043069098962341965,
                "274": 0.04074773565296945,
                "275": -0.025263615201194526,
                "276": -0.0607869285971108,
                "277": -0.04671969150921212,
                "278": 0.03917400319167144,
                "279": 0.04353444142695737,
                "280": 0.01803823147223781,
                "281": -0.014281565048488078,
                "282": -0.017658174130062133,
                "283": 0.08065256384342066,
                "284": 0.0531065067624042,
                "285": 0.00020775034727386318,
                "286": 0.011632045815121173,
                "287": 0.023575732256885355,
                "288": 0.005392129272829833,
                "289": -0.08521402549196783,
                "290": -0.11074965954434213,
                "291": 0.03834867775894367,
                "292": 0.07712833697802732,
                "293": 0.06573069203582228,
                "294": -0.026386528224575573,
                "295": -0.010302065860000103,
                "296": 0.067760532544387,
                "297": -0.006154486407095252,
                "298": -0.05123175723307743,
                "299": 0.04799197709412403,
                "300": 0.007315899883404763,
                "301": 0.013090120519889475,
                "302": -0.01549350259851577,
                "303": -0.05375467235028848,
                "304": 0.007093287504404451,
                "305": 0.029063167294754222,
                "306": 0.020589105013493217,
                "307": -0.0742246504468741,
                "308": -0.022593551285801105,
                "309": 0.061516578475447475,
                "310": -0.04334434670905654,
                "311": -0.046624687129197595,
                "312": 0.035354231274765446,
                "313": -0.019186391529204747,
                "314": 0.09031371629787478,
                "315": 0.037313709332042665,
                "316": -0.014525216974332535,
                "317": 0.0690304102714712,
                "318": 0.0029973734915240647,
                "319": 0.0472655434168916,
                "320": -0.05877790046085033,
                "321": -0.039894512476871244,
                "322": 0.038682894691085774,
                "323": -0.010625486587477025,
                "324": -0.07515251594632057,
                "325": 0.026028052533939694,
                "326": -0.0396057498631489,
                "327": 0.07414120438203398,
                "328": -0.03849364972129226,
                "329": 0.028612502869162802,
                "330": 0.07656934867515816,
                "331": -0.028190732010264535,
                "332": 0.03272763999692567,
                "333": -0.09319672560300679,
                "334": -0.02512406230577292,
                "335": 0.015057889625960563,
                "336": 0.00678857996787108,
                "337": -0.06333215052689416,
                "338": 0.00008221247823073601,
                "339": -0.04207594187389582,
                "340": 0.05755896306247799,
                "341": -0.014400715467182546,
                "342": 0.020424868778847166,
                "343": 0.014363932998673027,
                "344": -0.02062589588603796,
                "345": -0.001088307707771791,
                "346": -0.10974128865999946,
                "347": -0.03089423050002364,
                "348": 0.07498071363094502,
                "349": -0.019610161423645096,
                "350": -0.0576210322972224,
                "351": -0.01956485331209904,
                "352": -0.00022955888336106665,
                "353": 0.05546159962963613,
                "354": -0.11480894768928447,
                "355": -0.039332421031280686,
                "356": 0.05099605120681047,
                "357": -0.0283076395261515,
                "358": 0.03675946195265344,
                "359": 0.004218882714445662,
                "360": -0.004974944168457106,
                "361": 0.020377512645288674,
                "362": 0.014838701415973035,
                "363": -0.047869319486583926,
                "364": -0.012178158379205608,
                "365": 0.024495791560979675,
                "366": -0.02977019862477245,
                "367": -0.07860530862046428,
                "368": -0.027710099523181524,
                "369": -0.07164649609370469,
                "370": -0.03898694572334828,
                "371": -0.025051050324472305,
                "372": 0.0018260003423935267,
                "373": 0.018149015355275685,
                "374": -0.0065604238153525885,
                "375": 0.03526457457809462,
                "376": -0.01835306940179591,
                "377": 0.0017874310319790352,
                "378": -0.013695377334845094,
                "379": -0.06667718357240937,
                "380": -0.04969178969739065,
                "381": -0.022707493952883764,
                "382": -0.08770801127822725,
                "383": -0.07572418020741362,
                "384": -0.027960055253904666,
                "385": -0.013221020924998023,
                "386": 0.032002634771406774,
                "387": -0.003670101217571866,
                "388": 0.002001106375997412,
                "389": 0.03283101581082016,
                "390": 0.00346588513880572,
                "391": 0.011326433289882247,
                "392": 0.005308842040994114,
                "393": -0.0204554929025615,
                "394": -0.01598412660984957,
                "395": -0.027581792072349735,
                "396": -0.11374926441833748,
                "397": -0.0714250647275918,
                "398": 0.025918387141755924,
                "399": -0.03336199649351305,
                "400": -0.05126890802669206,
                "401": 0.04773354099987344,
                "402": 0.06652100928696962,
                "403": 0.005536046036642056,
                "404": 0.003490434517016398,
                "405": 0.01980110371888303,
                "406": 0.03148859266998328,
                "407": -0.007227808375225932,
                "408": -0.06662861044029292,
                "409": -0.1250726883831862,
                "410": -0.027103097848425822,
                "411": -0.09186591478024766,
                "412": -0.03549017863805348,
                "413": -0.04021314899423989,
                "414": -0.014654281447546555,
                "415": 0.06745575079963224,
                "416": -0.028792725693859503,
                "417": -0.03341176387689373,
                "418": 0.06324078170163887,
                "419": -0.024787524103404658,
                "420": -0.01933674588371048,
                "421": -0.005916368332639655,
                "422": -0.08950774840738385,
                "423": -0.019956765648969248,
                "424": -0.0380353472043968,
                "425": -0.07594378089975536,
                "426": 0.018868869577470946,
                "427": -0.021670613269601468,
                "428": 0.046122613406637425,
                "429": -0.046611966131762314,
                "430": 0.03845330442571777,
                "431": 0.07489302731794256,
                "432": -0.0014783922472352369,
                "433": 0.002280814848831687,
                "434": 0.003630434805063138,
                "435": -0.10740937180901235,
                "436": -0.034801321065052376,
                "437": -0.017760584510380772,
                "438": -0.06978299358815421,
                "439": 0.011339679909325702,
                "440": -0.04348568255046967,
                "441": 0.04919146785410684,
                "442": -0.012379202599807322,
                "443": 0.021362975583152217,
                "444": 0.03486531100599375,
                "445": 0.017658942951864084,
                "446": 0.023047965794673435,
                "447": 0.016889951195316444,
                "448": -0.09414405742918665,
                "449": -0.04132595087374442,
                "450": -0.01190482429023334,
                "451": 0.0061949858350903286,
                "452": 0.05579285517859714,
                "453": -0.02520183392806135,
                "454": 0.046343217175581194,
                "455": -0.046309137225174254,
                "456": -0.03578946278633494,
                "457": 0.025756808866634204,
                "458": 0.03710739002760556,
                "459": 0.037658655413733706,
                "460": -0.026410789077188117,
                "461": -0.07998280120071355,
                "462": -0.08713113477600813,
                "463": 0.02956412513476292,
                "464": -0.06695624597628921,
                "465": 0.04381993473100275,
                "466": 0.038889330737526526,
                "467": 0.007395165762748602,
                "468": -0.027335108944831467,
                "469": -0.020460069593747892,
                "470": 0.024771191074636788,
                "471": -0.004031912412781916,
                "472": 0.025393948533000584,
                "473": -0.06690794818984729,
                "474": -0.02632783704037469,
                "475": -0.08027519251895446,
                "476": -0.07402137378842572,
                "477": -0.038574954711471876,
                "478": -0.02328001219072654,
                "479": -0.001390813661757459,
                "480": 0.002044886166673675,
                "481": -0.011873200990558346,
                "482": -0.05112074194842892,
                "483": 0.02124408983781279,
                "484": 0.02751550109112023,
                "485": 0.0008982442304535459,
                "486": -0.0369770857852692,
                "487": -0.0909538729080598,
                "488": -0.06346757274013419,
                "489": -0.0755855626502923,
                "490": -0.017271951557289153,
                "491": -0.04016088028473815,
                "492": -0.018100436208397467,
                "493": -0.013086799162804922,
                "494": -0.025324317208319548,
                "495": -0.07034237892633617,
                "496": 0.031716073970609236,
                "497": -0.051726117779138076,
                "498": -0.0499451686170721,
                "499": -0.10197332243651921,
                "500": -0.16347021462373829,
                "501": -0.05591305450878876,
                "502": -0.03632501984076581,
                "503": -0.07999053724900378,
                "504": -0.04677234159902833,
                "505": 0.02232456795714628,
                "506": 0.012111546700958603,
                "507": -0.037610766392093146,
                "508": -0.027646220447705754,
                "509": 0.03797294424331405,
                "510": -0.0740064988288511,
                "511": -0.020964313218597205,
                "512": -0.031022296979141592,
                "513": -0.11628356933307393,
                "514": -0.10102799372047921,
                "515": 0.05455233894806611,
                "516": -0.01777611786831201,
                "517": -0.013441709174469523,
                "518": 0.06331155719873027,
                "519": 0.02361275614072916,
                "520": -0.012889663226029129,
                "521": -0.030727850273300206,
                "522": 0.05853703946894929,
                "523": -0.01696423243833691,
                "524": -0.04259043082993992,
                "525": -0.07308175227218197,
                "526": -0.21168008774586078,
                "527": -0.10879504873828476,
                "528": 0.061369614023561184,
                "529": 0.01821541922965334,
                "530": 0.013496543667085222,
                "531": 0.010362295609246031,
                "532": -0.000400328077692173,
                "533": 0.00425654028797715,
                "534": -0.009921245682497607,
                "535": 0.09320525897611431,
                "536": -0.07815311637675493,
                "537": -0.008227694727378115,
                "538": -0.057773088504255006,
                "539": -0.21376960214714236,
                "540": -0.05448892617655916,
                "541": 0.048491157230840375,
                "542": -0.012632533580580323,
                "543": 0.025209685684986025,
                "544": 0.0522093436870427,
                "545": 0.012347976928452877,
                "546": 0.025266566663688247,
                "547": -0.013589521814367945,
                "548": 0.09023963913651062,
                "549": -0.05544213702042872,
                "550": 0.017512989000724063,
                "551": 0.11843109973918432,
                "552": -0.09038603626045856,
                "553": -0.05626455641923136,
                "554": -0.0653150029397487,
                "555": 0.00002923032072233242,
                "556": 0.0019904169218699992,
                "557": 0.004100482103629827,
                "558": -0.008164017030307039,
                "559": 0.01342979027800411,
                "560": -0.0032435453515089344,
                "561": 0.05901804915881423,
                "562": 0.018511826394486473,
                "563": 0.02447769249296134,
                "564": -0.0016620527339386946,
                "565": -0.08665932414934958,
                "566": 0.03580711044971133,
                "567": -0.043459723259132416,
                "568": -0.022188033367831435,
                "569": -0.009500824617891621,
                "570": -0.030701778925260683,
                "571": -0.018894506030776796,
                "572": 0.013798362598078415,
                "573": 0.0021818201549320118,
                "574": 0.05710043806269747,
                "575": -0.0003411380555573875,
                "576": 0.0707948784927236,
                "577": -0.026778717772392012,
                "578": -0.15117431574744358,
                "579": -0.0494082921035226,
                "580": 0.03440064743841316,
                "581": -0.055704901923969825,
                "582": -0.03368227746258178,
                "583": -0.007033102227843235,
                "584": 0.008462347401317283,
                "585": 0.009171244323753078,
                "586": -0.0072382670547236,
                "587": 0.048421288207889254,
                "588": -0.049707583477029575,
                "589": 0.005064489947861741,
                "590": -0.02951834139029687,
                "591": -0.4211670274881837,
                "592": 0.217926105404648,
                "593": 0.018943751416618367,
                "594": -0.056795280450591415,
                "595": -0.017103578103606014,
                "596": -0.026065822831978155,
                "597": 0.026598523179928446,
                "598": -0.011737359340357453,
                "599": 0.018706726689362924,
                "600": 0.05436529392757375,
                "601": -0.07376341616983852,
                "602": -0.008400603625851571,
                "603": -0.2526900183680164,
                "604": -0.3863860785527986,
                "605": 0.09205495179739548,
                "606": 0.08046218910547201,
                "607": -0.03253375858575058,
                "608": -0.0010442639318909478,
                "609": -0.012238159546812056,
                "610": -0.01314124558463871,
                "611": 0.016914198164364604,
                "612": 0.017402717069053907,
                "613": 0.028699684395357285,
                "614": -0.10866863976029484,
                "615": -0.11925262692650267,
                "616": -0.2164681247678178,
                "617": -0.4478336584507628,
                "618": -0.0908515315475372,
                "619": 0.06827773877799913,
                "620": -0.06657054261006523,
                "621": -0.035496862453863964,
                "622": 0.022055575219748907,
                "623": 0.005583097936588887,
                "624": -0.01002467843961486,
                "625": 0.004979634378041014,
                "626": -0.024498576810113804,
                "627": -0.1254015480440361,
                "628": -0.13569671838188915,
                "629": -0.16340198686422255,
                "630": -0.36311609761517133,
                "631": -0.006669148793197718,
                "632": 0.025011836266772277,
                "633": -0.026660342191567477,
                "634": 0.012696783740196654,
                "635": 0.031018006760832086,
                "636": 0.0703676262216645,
                "637": -0.0022019454563199274,
                "638": 0.016257432909833534,
                "639": -0.04123828066481987,
                "640": -0.06305427192056501,
                "641": -0.05023508836900908,
                "642": -0.22087989792881013,
                "643": 0.024657184914373974,
                "644": -0.2472402742757093,
                "645": 0.03213223107114127,
                "646": -0.06979258537813747,
                "647": -0.016118488373134246,
                "648": 0.01150930045306716,
                "649": 0.04607308697830189,
                "650": 0.01426887418991733,
                "651": 0.024400960306439647,
                "652": -0.06033449552089776,
                "653": -0.0875809429573335,
                "654": -0.0494723773955609,
                "655": -0.2017012832259743,
                "656": -0.011324779759847801,
                "657": -0.19160948739397177,
                "658": 0.05116083935374072,
                "659": -0.028117194022032364,
                "660": -0.05349113628436034,
                "661": -0.0018248309115486865,
                "662": 0.06429008415726938,
                "663": 0.018303282217954773,
                "664": -0.009885939144013301,
                "665": -0.026389627097173362,
                "666": -0.06743990672526616,
                "667": 0.025904353840539608,
                "668": -0.20982154313098653,
                "669": 0.009794537081986247,
                "670": -0.14190201501880448,
                "671": 0.04761183030367155,
                "672": 0.02466300756114408,
                "673": -0.04635055233408226,
                "674": -0.022265237315116895,
                "675": 0.07017715690725664,
                "676": 0.0009247672267263957,
                "677": 0.01983423201573623,
                "678": 0.04598002152774829,
                "679": -0.041516308315942795,
                "680": -0.04397832161652035,
                "681": -0.08694334818373464,
                "682": -0.0332781301290236,
                "683": -0.02849901195690366,
                "684": 0.039094726053523175,
                "685": 0.020905835245300777,
                "686": -0.07799008960338741,
                "687": 0.030061390899720066,
                "688": 0.02748576973908656,
                "689": -0.005788800144811866,
                "690": -0.013025959398244554,
                "691": 0.01909548448361396,
                "692": -0.10372982200887342,
                "693": -0.07536149889977749,
                "694": -0.03156699850627256,
                "695": -0.0332781301290236,
                "696": -0.12690495284843847,
                "697": 0.06492000198017146,
                "698": 0.060282796827851946,
                "699": -0.04223450869552091,
                "700": 0.09670716170560857,
                "701": 0.004192788343602201,
                "702": -0.020191354346689838,
                "703": -0.010405221538587897,
                "704": 0.02240136065193191,
                "705": -0.09362967385972915,
                "706": 0.011372208371765892,
                "707": -0.03739930126247273,
                "708": -0.0332781301290236,
                "709": -0.04138564752736665,
                "710": 0.04125325280175957,
                "711": 0.008336473769299513,
                "712": -0.007023959863607718,
                "713": 0.09827909782521108,
                "714": 0.004041885289840522,
                "715": -0.0021505382672387893,
                "716": 0.00437794732459241,
                "717": 0.05394728717641428,
                "718": -0.07483857451470341,
                "719": 0.013057542351941563,
                "720": -0.10215972710331177,
                "721": -0.0332781301290236,
                "722": 0.1074968096663078,
                "723": 0.05989825871147284,
                "724": -0.02021840452548468,
                "725": 0.021874150529223244,
                "726": 0.09847833119891462,
                "727": 0.018747784628137604,
                "728": -0.031149158301393705,
                "729": 0.028675409051643532,
                "730": 0.07562669029451666,
                "731": 0.00719488867840936,
                "732": 0.046191834322983884,
                "733": -0.009065171534600243,
                "734": 0.047858161501047075,
                "735": 0.09270759927705674,
                "736": 0.09196887922120983,
                "737": -0.019302826930774935,
                "738": 0.026028910868814693,
                "739": 0.11264809913249388,
                "740": 0.03727818382220568,
                "741": -0.06693921507451701,
                "742": 0.05449894003765233,
                "743": 0.09885605100586385,
                "744": -0.03782871980451438,
                "745": 0.04840412944125625,
                "746": 0.004082640714789269,
                "747": 0.04486945746547994,
                "748": 0.14851462684374978,
                "749": 0.07206978613777257,
                "750": -0.04426257479435743,
                "751": 0.04483621883524613,
                "752": 0.06722804399263546,
                "753": 0.019037949284198257,
                "754": -0.07167111219429244,
                "755": 0.029075141811449007,
                "756": 0.08488522143713123,
                "757": 0.02893473422660615,
                "758": -0.03795283608387897,
                "759": 0.04254906791994201,
                "760": 0.04098555718806316,
                "761": 0.09342364521331623,
                "762": 0.070272481174537,
                "763": 0.015235852977832216,
                "764": 0.012006054265472006,
                "765": 0.07867045231065303,
                "766": 0.0042541655970308335,
                "767": -0.0817782378483711,
                "768": 0.03916535567769382,
                "769": 0.05036172956977889,
                "770": -0.011510335003704774,
                "771": -0.009625056132155278,
                "772": 0.047593777828998145,
                "773": -0.09996001501561208,
                "774": 0.010000319138802368,
                "775": 0.022693519422737535,
                "776": 0.05624456412206504,
                "777": 0.029094908490611044,
                "778": 0.06169288449412597,
                "779": 0.0028392642500633712,
                "780": -0.025171798637532973,
                "781": -0.006912825011864605,
                "782": 0.013430441221526835,
                "783": -0.08479070418378373,
                "784": -0.017864773779442258,
                "785": -0.02844378344782308,
                "786": -0.17451082807444687,
                "787": 0.09533621493326132,
                "788": 0.03864403152903374,
                "789": -0.001620042038622511,
                "790": 0.01171218543907562,
                "791": 0.08533013720708851,
                "792": -0.031991884478754215
            }
        }, {
            "sx": 1,
            "sy": 1,
            "depth": 793,
            "w": {
                "0": -0.09061516937055966,
                "1": -0.084279523650586,
                "2": -0.0019344396593363742,
                "3": 0.04767175204568634,
                "4": 0.0012838970843375762,
                "5": 0.07630445524013557,
                "6": 0.04465272408712773,
                "7": 0.1083741956830856,
                "8": -0.0558324648996355,
                "9": 0.09602206078550948,
                "10": -0.012528771716324825,
                "11": -0.0828490320055549,
                "12": -0.035831717930920944,
                "13": -0.0006799402282898007,
                "14": 0.002577357458148623,
                "15": 0.09029083965898958,
                "16": 0.10666358843464321,
                "17": 0.05047615749238161,
                "18": 0.05472741205336953,
                "19": 0.03479800517311167,
                "20": 0.13041264533021416,
                "21": 0.06194001392036478,
                "22": 0.05540516005638133,
                "23": 0.046983983018161736,
                "24": -0.019242534409350334,
                "25": -0.09650449516828828,
                "26": -0.03612724819326844,
                "27": 0.037989658667980125,
                "28": 0.01101847202185942,
                "29": 0.07599997649419567,
                "30": 0.04407341780542775,
                "31": 0.10690095597271981,
                "32": 0.06275059936712409,
                "33": 0.10076734044965488,
                "34": -0.003550036635018124,
                "35": 0.03991760754293487,
                "36": 0.11526276852023293,
                "37": 0.008671778055737328,
                "38": -0.049553825337912874,
                "39": -0.07850522682525155,
                "40": -0.09487882102804143,
                "41": 0.0069910809404942695,
                "42": 0.13440421749511325,
                "43": 0.009048105246182837,
                "44": 0.040805821542314644,
                "45": -0.010005220170219884,
                "46": 0.0464191738233675,
                "47": 0.011601107488342127,
                "48": 0.026311119020064347,
                "49": 0.05659255487157466,
                "50": -0.03917085230957181,
                "51": -0.025404570283706556,
                "52": -0.05085460994181469,
                "53": -0.029700592342370494,
                "54": -0.09312318770613662,
                "55": 0.05041516655778751,
                "56": -0.01861074087326735,
                "57": -0.061967626173778434,
                "58": -0.041592500485262446,
                "59": -0.07551706511783278,
                "60": 0.07797590018958994,
                "61": 0.08012296153178966,
                "62": 0.04773039948650702,
                "63": -0.10849981715031143,
                "64": -0.01747222857073884,
                "65": -0.0715182317256277,
                "66": -0.008190025300772785,
                "67": 0.004370202348409331,
                "68": -0.09111711576902472,
                "69": 0.0625512531491426,
                "70": 0.04743867260938788,
                "71": -0.03130011068460935,
                "72": 0.04589939938479068,
                "73": 0.09532364748871713,
                "74": 0.1036841884240864,
                "75": 0.03845739852353169,
                "76": -0.017697391084981428,
                "77": 0.07767569876998986,
                "78": -0.03669867753168943,
                "79": 0.006917570226477113,
                "80": 0.04602247493651532,
                "81": 0.02905395114160095,
                "82": 0.06480659991539987,
                "83": -0.0005799839762503983,
                "84": 0.024824441635289976,
                "85": 0.04060174539219788,
                "86": 0.11255497365084949,
                "87": 0.00006657816666182003,
                "88": 0.061438517324891556,
                "89": -0.03630401702699238,
                "90": -0.0019252522007797792,
                "91": -0.009957054638975369,
                "92": 0.03577085837730082,
                "93": 0.04520804009164769,
                "94": -0.007009590237233732,
                "95": 0.03903306053276649,
                "96": 0.028475390294362544,
                "97": 0.0068010713773146,
                "98": 0.04044141996887103,
                "99": 0.015685011758041763,
                "100": -0.07516483399589126,
                "101": 0.024307198139443976,
                "102": -0.03765656842339753,
                "103": 0.025932242388454103,
                "104": -0.005368561515825042,
                "105": -0.05703482289815221,
                "106": 0.02532552799150174,
                "107": -0.006122730315076155,
                "108": 0.07996471742272449,
                "109": -0.023927721316833107,
                "110": 0.036834938256051775,
                "111": 0.0418355727893788,
                "112": -0.036305450565044174,
                "113": -0.04277806675612657,
                "114": -0.06825807082757132,
                "115": 0.0026813359700577303,
                "116": 0.00030971529936037493,
                "117": -0.0011887461096106423,
                "118": -0.06936400497766713,
                "119": 0.03856986374745478,
                "120": 0.03830580674421204,
                "121": 0.04941680197311356,
                "122": -0.03769058498728748,
                "123": -0.010984405407386176,
                "124": 0.020941536806557772,
                "125": -0.06573321261950128,
                "126": 0.015345725002906176,
                "127": -0.06692205617754407,
                "128": 0.028230783987708084,
                "129": -0.023945948991578717,
                "130": 0.05713459573473361,
                "131": -0.061468045632481344,
                "132": 0.041178499788342995,
                "133": 0.017907962490000342,
                "134": 0.01694903096852548,
                "135": 0.03725562644202152,
                "136": -0.058548085662130385,
                "137": 0.06310992988766115,
                "138": 0.05482830271002969,
                "139": 0.03105252812420802,
                "140": 0.0022140338913562378,
                "141": -0.029992224245684818,
                "142": 0.030530880588139356,
                "143": -0.0058841212571416265,
                "144": -0.06648181962774968,
                "145": -0.024882944517856803,
                "146": -0.024911119321806174,
                "147": 0.026018782922203918,
                "148": -0.059670523064525804,
                "149": -0.001982419040517713,
                "150": 0.03566121143627109,
                "151": 0.07709467448585253,
                "152": 0.1575618908161278,
                "153": 0.04647649662879081,
                "154": -0.06377534563486442,
                "155": 0.013995070893741088,
                "156": -0.015122167619062566,
                "157": -0.011104541072009552,
                "158": 0.07589584826092956,
                "159": 0.023364405123253062,
                "160": -0.012855281357377549,
                "161": -0.025298800544044046,
                "162": -0.08389972266104372,
                "163": 0.04654170770181321,
                "164": 0.013514226047211834,
                "165": 0.11204172461412014,
                "166": 0.032077518375251766,
                "167": 0.01462325090970583,
                "168": 0.03813424334142212,
                "169": -0.04146290107915633,
                "170": -0.06411520007249658,
                "171": -0.02470648005059276,
                "172": 0.03741476328280216,
                "173": -0.05961252699303244,
                "174": -0.006197954210695138,
                "175": -0.005306393876489802,
                "176": 0.0027525548078418333,
                "177": 0.013955672351753679,
                "178": -0.030212295950468808,
                "179": 0.06725218506528642,
                "180": -0.13672409450014822,
                "181": -0.022944683394726516,
                "182": -0.06967267676118538,
                "183": -0.01840549619721776,
                "184": -0.11044051000965921,
                "185": 0.017449733261232968,
                "186": -0.03801752263451689,
                "187": -0.047036075646472414,
                "188": 0.08273183494180138,
                "189": -0.07115867057110872,
                "190": 0.0034851420991744947,
                "191": 0.06205728857229211,
                "192": 0.01679910070636221,
                "193": -0.10633902050497562,
                "194": -0.0017614259013358894,
                "195": 0.004995623959185478,
                "196": -0.024278802116818803,
                "197": -0.03678333108451356,
                "198": -0.01778603116267902,
                "199": -0.011030058288312218,
                "200": 0.013949800533442806,
                "201": -0.047674725924158536,
                "202": 0.06754276613737592,
                "203": 0.06271469523422576,
                "204": -0.06436742432213152,
                "205": -0.0005152524757720921,
                "206": -0.05079652842739746,
                "207": -0.008818813322233854,
                "208": -0.05123443660425751,
                "209": -0.04641410131087708,
                "210": -0.09854963525337156,
                "211": 0.012553969533124716,
                "212": -0.019909077769098383,
                "213": 0.029525018413679348,
                "214": -0.0085745858655387,
                "215": 0.03382256986019326,
                "216": -0.04591452551322189,
                "217": -0.07895941758739682,
                "218": 0.04673111067926342,
                "219": -0.01863956651766409,
                "220": -0.029303028078542074,
                "221": 0.04011670976591232,
                "222": 0.0022401095957083725,
                "223": -0.033719358259484924,
                "224": 0.029970292736269645,
                "225": 0.08521204892074474,
                "226": -0.029595517138338835,
                "227": -0.012170297333789664,
                "228": 0.01824266763905228,
                "229": 0.05253220306934721,
                "230": 0.04518518216939571,
                "231": 0.0005698772012806926,
                "232": 0.07409942863776757,
                "233": 0.001044298236156524,
                "234": -0.0004321623877619815,
                "235": -0.08405486065167292,
                "236": 0.003934411681567263,
                "237": 0.017880979951384206,
                "238": 0.01764730453159507,
                "239": -0.04183188133537062,
                "240": -0.11242547682197726,
                "241": 0.01037899381125975,
                "242": -0.09229330027087523,
                "243": 0.0444454149905545,
                "244": 0.07688275449746249,
                "245": 0.09366081071839316,
                "246": -0.02594934706672397,
                "247": -0.03563189949640528,
                "248": -0.016707178050987335,
                "249": -0.012888866206011542,
                "250": 0.031481981731153554,
                "251": 0.033718397755524314,
                "252": -0.027789299801951207,
                "253": -0.01843443647861084,
                "254": 0.034018220904309435,
                "255": -0.06353550612319113,
                "256": -0.003072955971879602,
                "257": 0.018331119202365333,
                "258": 0.06321319138808357,
                "259": 0.01006851331771777,
                "260": 0.0015466215581557005,
                "261": -0.0037123741150271116,
                "262": 0.0794050785973107,
                "263": 0.08815194710963078,
                "264": -0.04996972109602118,
                "265": 0.004344169869213961,
                "266": -0.0326588686733462,
                "267": -0.023812203461537333,
                "268": 0.03169097246308248,
                "269": -0.007353789515766876,
                "270": -0.0073338623551791,
                "271": 0.06350597780262066,
                "272": 0.026183224754591675,
                "273": -0.016918551252056675,
                "274": -0.04812603524182984,
                "275": 0.06970723453840952,
                "276": 0.07846166498190568,
                "277": -0.07761481625109933,
                "278": 0.0019741871386160497,
                "279": -0.027262784089757443,
                "280": -0.04200861846052964,
                "281": -0.05289434878352293,
                "282": -0.07908443669449523,
                "283": 0.030135281839720356,
                "284": 0.02216561013679508,
                "285": 0.09213679700173133,
                "286": 0.017505718858677174,
                "287": -0.061306040147921945,
                "288": 0.09367150557635828,
                "289": 0.04640395939521618,
                "290": 0.01592288325053791,
                "291": 0.05057372065665843,
                "292": 0.04881487574285828,
                "293": -0.03654961498323305,
                "294": -0.024803511358324384,
                "295": -0.05334325758311125,
                "296": -0.00996217273215613,
                "297": 0.014069065124491166,
                "298": 0.04657837773028485,
                "299": -0.023859089938659185,
                "300": -0.041802846780975365,
                "301": 0.07106061903645006,
                "302": 0.0772199770532224,
                "303": 0.024725384937023573,
                "304": 0.030939670882061898,
                "305": -0.042967183913381495,
                "306": -0.055689499533602714,
                "307": 0.03538918340082614,
                "308": -0.02744389948511692,
                "309": -0.04305802980946467,
                "310": 0.10782699553446198,
                "311": -0.001633097400690458,
                "312": -0.05079483180786795,
                "313": -0.10146069562198068,
                "314": 0.025000582482055257,
                "315": 0.03103348790927599,
                "316": -0.023657188944500373,
                "317": -0.039676825901561234,
                "318": -0.06323401443982282,
                "319": -0.058454410008203034,
                "320": -0.01672459073631988,
                "321": -0.006581436432624436,
                "322": 0.002793462305550596,
                "323": 0.024981489349694172,
                "324": 0.025918309499359065,
                "325": -0.08849007126387161,
                "326": -0.01937529596498693,
                "327": 0.012537766582120077,
                "328": 0.017261596526099224,
                "329": -0.08873851783357802,
                "330": -0.013632292086828552,
                "331": -0.09380890715666756,
                "332": -0.032650749431635956,
                "333": -0.13061136975964635,
                "334": 0.0033563872851726214,
                "335": -0.0018863643356297364,
                "336": 0.054614210845126535,
                "337": -0.014042183914401643,
                "338": -0.08574370980515952,
                "339": -0.003286908051817584,
                "340": -0.06813380956981535,
                "341": -0.027544119367431886,
                "342": 0.005887176257537935,
                "343": 0.08063238004213528,
                "344": -0.11543506665812141,
                "345": -0.06245936563216472,
                "346": -0.04107039008575761,
                "347": 0.005541004041271574,
                "348": -0.058521167631782195,
                "349": 0.09249344966083893,
                "350": 0.023165656116792898,
                "351": 0.015772733360219535,
                "352": -0.00840678770295443,
                "353": 0.009571065444810501,
                "354": -0.028674378174613692,
                "355": 0.03126386266486502,
                "356": 0.04209626992393073,
                "357": -0.044980604439216886,
                "358": -0.10755149263812055,
                "359": -0.07034052142989278,
                "360": 0.034805812381159554,
                "361": -0.0383792904705206,
                "362": 0.05624007249793448,
                "363": 0.020921424229610023,
                "364": -0.010603329240605102,
                "365": -0.05171839375283709,
                "366": -0.04807052304110771,
                "367": -0.03687173941179238,
                "368": 0.09763845229725293,
                "369": -0.029878317717103576,
                "370": -0.03527148537946892,
                "371": -0.1473447208418111,
                "372": -0.04735600589949861,
                "373": 0.01928425813811764,
                "374": 0.05091193602720886,
                "375": 0.03668033622848447,
                "376": -0.07717317206041295,
                "377": 0.028295167071208115,
                "378": 0.004491567420023192,
                "379": -0.05338548349315044,
                "380": -0.012957837392925735,
                "381": 0.06448544916557257,
                "382": -0.05170847028394174,
                "383": -0.020719137039694736,
                "384": -0.13288077527728392,
                "385": -0.0446165505717302,
                "386": -0.027150370653953745,
                "387": 0.003440668369263149,
                "388": -0.03558624612015853,
                "389": -0.09978026711792616,
                "390": 0.02111797545142852,
                "391": -0.008305809549801587,
                "392": -0.027832745749781347,
                "393": -0.022228201702963635,
                "394": -0.06990629719009589,
                "395": -0.07492130424033686,
                "396": -0.09187882168918571,
                "397": -0.1503631048326864,
                "398": -0.10835007239122811,
                "399": -0.06162009749071782,
                "400": 0.07095384574527229,
                "401": -0.024862729718946208,
                "402": -0.02431497142864314,
                "403": -0.08056733368895803,
                "404": 0.00925650188113068,
                "405": -0.03284168533176278,
                "406": -0.028490679682794864,
                "407": 0.029073990835953245,
                "408": -0.06712988311949489,
                "409": -0.1654306324178771,
                "410": -0.17237161397588796,
                "411": -0.11554237465969344,
                "412": -0.0019176821841366996,
                "413": 0.09514592329747007,
                "414": -0.012893114441745061,
                "415": -0.02326394664195727,
                "416": -0.06215681780362638,
                "417": 0.029440175988433157,
                "418": 0.04886607367752105,
                "419": 0.02690832944414175,
                "420": -0.029163671020116518,
                "421": -0.03169012111724833,
                "422": -0.16538850852167417,
                "423": -0.1755446564727,
                "424": -0.08890263664661435,
                "425": -0.10003973313225996,
                "426": 0.04092457277875498,
                "427": -0.0029291401534517394,
                "428": 0.03791148559312136,
                "429": -0.09685985963578458,
                "430": -0.0712587038588455,
                "431": -0.009967242989549818,
                "432": 0.03518266473622815,
                "433": -0.060327171587171956,
                "434": -0.03824133875283845,
                "435": -0.0958725719956355,
                "436": -0.2593431135258209,
                "437": -0.09926425148661694,
                "438": -0.0011985443209550015,
                "439": 0.01858616951239626,
                "440": 0.05437638186204344,
                "441": 0.027546824507991688,
                "442": -0.1334837297042242,
                "443": -0.022859589581007922,
                "444": 0.002354040845947353,
                "445": 0.06222394669905137,
                "446": 0.06217449896726641,
                "447": -0.06882449944068764,
                "448": 0.025507243004116113,
                "449": -0.22959151186077495,
                "450": -0.04828045451297558,
                "451": -0.0011069311374527814,
                "452": 0.024036416072410003,
                "453": -0.06576071462912945,
                "454": -0.04944520585444529,
                "455": -0.06373871242912821,
                "456": -0.0992184960430293,
                "457": -0.024436601578723887,
                "458": 0.05841145498940624,
                "459": -0.022280012725009336,
                "460": -0.02176435687420796,
                "461": -0.0038934795635656876,
                "462": -0.20726939306793607,
                "463": -0.07428269991981494,
                "464": -0.04268662487812118,
                "465": 0.01616946350462031,
                "466": -0.0346033531413708,
                "467": -0.012291766172542722,
                "468": -0.06099544108680703,
                "469": -0.04713786421677031,
                "470": -0.06642357990526829,
                "471": 0.00330259686979045,
                "472": -0.019828779125407613,
                "473": 0.010053981363005463,
                "474": 0.035194790150964717,
                "475": -0.23082184866688668,
                "476": -0.09968692451217076,
                "477": 0.03595058346843839,
                "478": -0.010748103139759555,
                "479": -0.04274936286089206,
                "480": -0.03220591796812934,
                "481": -0.05974644894326755,
                "482": -0.03465787127904975,
                "483": 0.0006135511259335489,
                "484": -0.0072507856834474775,
                "485": 0.01565611821369563,
                "486": 0.05609825922267222,
                "487": 0.16822237720189168,
                "488": -0.25838283345704177,
                "489": -0.10147872868720911,
                "490": 0.0007336946639296563,
                "491": 0.00761492357250201,
                "492": -0.011065564596619339,
                "493": 0.004367666307268154,
                "494": -0.0503943790580486,
                "495": -0.0425702465384885,
                "496": -0.038890817439243,
                "497": -0.044765468638879674,
                "498": 0.03766455156023528,
                "499": -0.018325778986330362,
                "500": 0.27173906815179016,
                "501": -0.11969057058631269,
                "502": -0.11071848379984901,
                "503": 0.03193221885651508,
                "504": -0.004269193025159483,
                "505": 0.07016870675406836,
                "506": -0.0007550330411274487,
                "507": -0.0823649077185415,
                "508": -0.012656135946377496,
                "509": -0.055844420277922406,
                "510": 0.03294542732626486,
                "511": 0.021673282891827097,
                "512": 0.042781128657665334,
                "513": 0.34956326917262304,
                "514": -0.1561778101635998,
                "515": -0.14488270384126165,
                "516": -0.0157284098081798,
                "517": 0.013555226847773426,
                "518": -0.02988404115170437,
                "519": 0.003059922205213341,
                "520": -0.07091108231802293,
                "521": -0.07550062480150205,
                "522": -0.01906691856238507,
                "523": -0.07759216238447053,
                "524": 0.022637552763562073,
                "525": 0.021138475898959015,
                "526": 0.5172986046299004,
                "527": -0.10509771449783253,
                "528": -0.11100542666666012,
                "529": 0.01097003503276762,
                "530": 0.0435045887835907,
                "531": -0.0025676164211359837,
                "532": 0.02897119438434543,
                "533": -0.06375250692295036,
                "534": -0.021739754413952945,
                "535": -0.022786714005134955,
                "536": -0.03654563892872256,
                "537": 0.03153713474292223,
                "538": -0.0884931587798618,
                "539": 0.7777347487018079,
                "540": -0.19405314116353764,
                "541": -0.17713676740889409,
                "542": -0.06896023037361734,
                "543": 0.009281958433450076,
                "544": -0.009505836283896245,
                "545": -0.033835884474535394,
                "546": -0.07280079855639075,
                "547": -0.05934428381329256,
                "548": -0.058140581080041984,
                "549": 0.0642231895108729,
                "550": 0.03534973943960451,
                "551": 0.13546247689538118,
                "552": 0.8183714916006118,
                "553": -0.16672585481003027,
                "554": -0.13928710601543057,
                "555": -0.10949327219510356,
                "556": 0.050596937604360945,
                "557": 0.017567545771763952,
                "558": -0.04596059421382008,
                "559": 0.012222887792608375,
                "560": -0.055005697496861974,
                "561": -0.005847313898772006,
                "562": 0.005820421981538161,
                "563": 0.020820506613520074,
                "564": 0.08225137526581457,
                "565": 0.9187798038181276,
                "566": -0.25851988353081246,
                "567": -0.19380974019708833,
                "568": -0.13817556634179845,
                "569": 0.013594790702415396,
                "570": 0.04537111571130469,
                "571": -0.006021130684886587,
                "572": 0.016580569384356918,
                "573": -0.0173156790309053,
                "574": -0.02406950847023418,
                "575": 0.13173421094433863,
                "576": 0.03429610512130736,
                "577": 0.18320212157285823,
                "578": 0.875721641722745,
                "579": -0.029885441601859998,
                "580": -0.2067253788460475,
                "581": -0.09209871248310744,
                "582": -0.07489761028674952,
                "583": 0.01351071593869015,
                "584": -0.007045845503605092,
                "585": -0.03533573428027142,
                "586": -0.03212140782204845,
                "587": 0.02361969734080467,
                "588": 0.07808130698164725,
                "589": -0.048176619967829896,
                "590": -0.0656691082698055,
                "591": 1.0948974098531996,
                "592": -0.44118573756301166,
                "593": -0.06738294053260412,
                "594": -0.011694041354628995,
                "595": 0.012164345221375852,
                "596": 0.05894647719574709,
                "597": 0.005143318229060359,
                "598": -0.0036948255628507063,
                "599": -0.020456691508846516,
                "600": 0.10526482118418608,
                "601": 0.04456746255567112,
                "602": 0.000988396018557413,
                "603": -0.07972130241558846,
                "604": 0.8357777116605313,
                "605": -0.39907343821724905,
                "606": -0.123221016430422,
                "607": -0.05812948637785589,
                "608": 0.009595203978693515,
                "609": -0.04433794108596635,
                "610": 0.039098454966973895,
                "611": -0.05486714446949402,
                "612": -0.06292935011463886,
                "613": 0.01334200500989812,
                "614": -0.019628281660497307,
                "615": -0.0382148991963177,
                "616": 0.015786686011404115,
                "617": 0.756172667826925,
                "618": -0.31680162800610867,
                "619": -0.11305725467306912,
                "620": 0.11152390441590884,
                "621": -0.00603859754314495,
                "622": -0.06076350152953917,
                "623": 0.03295155628017493,
                "624": -0.06618087775631111,
                "625": -0.06805846029213973,
                "626": 0.0321552324204857,
                "627": -0.031490197412543296,
                "628": -0.0030607059053088027,
                "629": -0.12033125774073193,
                "630": 0.9287766205164502,
                "631": -0.43834169826007713,
                "632": -0.14150375461739997,
                "633": 0.032340968343881234,
                "634": -0.054522588820559756,
                "635": -0.02613548880862128,
                "636": -0.017074764166266965,
                "637": 0.026560356664221192,
                "638": -0.0916617758081392,
                "639": 0.018093412146705786,
                "640": 0.023859911627792278,
                "641": -0.0030245320108301735,
                "642": 0.0410982153263388,
                "643": 0.229736924537693,
                "644": 0.0061850864361426405,
                "645": -0.035574860922999586,
                "646": 0.05523983261811985,
                "647": -0.08087215917283475,
                "648": -0.14474207265886713,
                "649": 0.030554478837207313,
                "650": -0.0067306984307148815,
                "651": -0.07139011512652801,
                "652": -0.03388511699118778,
                "653": -0.04911395474267881,
                "654": -0.04648643708123879,
                "655": -0.16537470248940186,
                "656": 0.2981584971338507,
                "657": -0.17400113934826153,
                "658": -0.0595450614956209,
                "659": 0.025953850335470163,
                "660": -0.058855008075372785,
                "661": -0.021867094099534037,
                "662": 0.04410535625089171,
                "663": 0.013888591600264294,
                "664": -0.06343605223015214,
                "665": 0.029255318377406313,
                "666": -0.010537788686143985,
                "667": -0.08066288089563003,
                "668": -0.20513521340190619,
                "669": 0.30849415235938044,
                "670": -0.24722560376177932,
                "671": -0.19421675271896324,
                "672": 0.021391222077957878,
                "673": -0.04535551496285157,
                "674": 0.03188070190532019,
                "675": 0.02771736582176253,
                "676": -0.030027215083494038,
                "677": -0.08684771107454488,
                "678": 0.011309680897717835,
                "679": -0.015099748392138991,
                "680": -0.08492950947779425,
                "681": -0.38305061971651144,
                "682": 0.22835539773746763,
                "683": -0.2350973765651247,
                "684": -0.026156584125514717,
                "685": 0.06346656404517488,
                "686": 0.04142928724757206,
                "687": -0.02776123235824197,
                "688": 0.05083047711499507,
                "689": -0.03404740603888914,
                "690": -0.03153919343622231,
                "691": 0.04270837030056601,
                "692": 0.006205819927649276,
                "693": 0.02184125201759271,
                "694": -0.0732848202165657,
                "695": 0.22835539773746763,
                "696": 0.0014903768338615311,
                "697": -0.03763333525675456,
                "698": -0.08880102132640189,
                "699": 0.04228765592244769,
                "700": -0.006068943303077033,
                "701": 0.09227454408404233,
                "702": -0.017078484869633166,
                "703": -0.03509908753385454,
                "704": -0.0173527254434358,
                "705": 0.041013687479963576,
                "706": 0.006159783001090783,
                "707": -0.153207927693014,
                "708": 0.22835539773746763,
                "709": -0.072010319947893,
                "710": 0.003450549684294946,
                "711": 0.005438422183526413,
                "712": 0.03826066377234087,
                "713": 0.002069665204038887,
                "714": 0.044710275591351205,
                "715": -0.07519648903533434,
                "716": -0.03277021686433416,
                "717": -0.007464151524414866,
                "718": 0.04014075041089756,
                "719": -0.012931673730941664,
                "720": -0.2488054118108784,
                "721": 0.22835539773746763,
                "722": 0.11328291414077664,
                "723": 0.04390540394273328,
                "724": -0.01375940301071713,
                "725": 0.004366745599057476,
                "726": -0.011421632076974922,
                "727": 0.022567475599372527,
                "728": -0.04023567657533036,
                "729": -0.03292436429727214,
                "730": 0.02741500510047082,
                "731": 0.0007105186015144683,
                "732": -0.017241596287822458,
                "733": -0.09169614618669834,
                "734": -0.03710693358827821,
                "735": 0.09511921677132013,
                "736": -0.014415882716254751,
                "737": -0.01478876624617135,
                "738": 0.09257319027197443,
                "739": -0.010513507371764758,
                "740": -0.014492877144697623,
                "741": -0.0511957725000563,
                "742": -0.00845804438000727,
                "743": -0.007593233590692269,
                "744": 0.09858744490674494,
                "745": -0.00892578986986314,
                "746": -0.2139671697123497,
                "747": -0.03034988516992339,
                "748": 0.03982943413683211,
                "749": -0.06699794648361068,
                "750": 0.02112288204499602,
                "751": 0.007255438436686116,
                "752": 0.02890182765135607,
                "753": -0.03997399511649629,
                "754": -0.03488615273568867,
                "755": -0.03053342255695398,
                "756": 0.01008572091012625,
                "757": 0.057623331522830105,
                "758": -0.009311228995300014,
                "759": -0.15840140809226624,
                "760": -0.017489763369190215,
                "761": 0.04231334461300344,
                "762": -0.0798684532472325,
                "763": -0.0056967492433140565,
                "764": -0.02304888567836815,
                "765": -0.01688710508455178,
                "766": -0.03658436650508593,
                "767": -0.06119626691424735,
                "768": -0.023589994696996124,
                "769": -0.027203692865987165,
                "770": 0.06297181482552912,
                "771": 0.04469651732645126,
                "772": 0.04534164484279237,
                "773": 0.5624780091070831,
                "774": 0.01080380948604254,
                "775": 0.0548946818935807,
                "776": -0.08804524786984025,
                "777": 0.006269506849649159,
                "778": 0.04570305618999947,
                "779": -0.08742509371778123,
                "780": -0.023181677161786395,
                "781": -0.06916850342429495,
                "782": -0.06016022962932297,
                "783": -0.048626714412167864,
                "784": 0.0131435784960188,
                "785": -0.11472550681325118,
                "786": 0.5491078060726572,
                "787": -0.008184856208160588,
                "788": 0.05161185796981801,
                "789": -0.06978298670697028,
                "790": 0.006110914683786338,
                "791": -0.05939412696897991,
                "792": -0.03656560600060432
            }
        }, {
            "sx": 1,
            "sy": 1,
            "depth": 793,
            "w": {
                "0": 0.00762727470350093,
                "1": 0.018092783975954475,
                "2": 0.036033329505587304,
                "3": -0.007208081564070799,
                "4": -0.021953357491690136,
                "5": 0.048061838828600746,
                "6": 0.051087472781464034,
                "7": 0.018576451633372675,
                "8": 0.08468957164342855,
                "9": -0.049845229469938475,
                "10": 0.02283210584672282,
                "11": 0.011799885336599578,
                "12": 0.0021837769808068673,
                "13": -0.010466614823188647,
                "14": 0.028156608554321186,
                "15": 0.031270528719278795,
                "16": -0.04776903335850163,
                "17": -0.11171663091718956,
                "18": 0.08409073349427383,
                "19": 0.04531121956405669,
                "20": 0.0002708489545957427,
                "21": 0.03452346022836157,
                "22": -0.07689452340861527,
                "23": -0.03209686784994889,
                "24": 0.002486229149842638,
                "25": -0.001429857001965043,
                "26": -0.014172941773502923,
                "27": -0.01732465272564903,
                "28": 0.07220461686175603,
                "29": -0.07130410249418799,
                "30": 0.004702430578369053,
                "31": 0.06630503528371547,
                "32": 0.08049137585149232,
                "33": 0.010405762661954492,
                "34": 0.01693840224301404,
                "35": -0.02542573399335964,
                "36": 0.0026519728235514938,
                "37": -0.008000521735921492,
                "38": -0.004136899509255942,
                "39": 0.03217370989438196,
                "40": -0.003451926885577325,
                "41": 0.042652253414595415,
                "42": -0.018954424671136057,
                "43": 0.016787728211573587,
                "44": 0.0831101813837967,
                "45": 0.035272193752645606,
                "46": 0.02053987376503529,
                "47": -0.040014139779865114,
                "48": -0.03693534965733372,
                "49": 0.031140194044856098,
                "50": -0.0009176147525787104,
                "51": -0.007181609162653029,
                "52": 0.012991339088467826,
                "53": 0.0013107774327708558,
                "54": 0.04884921424246453,
                "55": 0.008554412700686126,
                "56": -0.04771225358738027,
                "57": 0.025311505025313114,
                "58": 0.05358205134907837,
                "59": 0.018415012890662285,
                "60": -0.007321320974829257,
                "61": -0.033841289675723064,
                "62": -0.016390218560645813,
                "63": 0.0021435876985544176,
                "64": -0.010300340127249475,
                "65": -0.00791214361397686,
                "66": -0.03515410946951608,
                "67": 0.02337342083405451,
                "68": 0.04890804001303398,
                "69": 0.041030049119233136,
                "70": -0.02357087668935889,
                "71": 0.052496614349631,
                "72": -0.03423674230877185,
                "73": -0.01753829734665867,
                "74": -0.002837017804519159,
                "75": 0.01723673353175318,
                "76": 0.00813101434850406,
                "77": -0.012421039635293714,
                "78": -0.02045524223111429,
                "79": -0.008659660486040882,
                "80": 0.020337942311849752,
                "81": 0.050235684628500296,
                "82": -0.0019598345788904114,
                "83": -0.03605729568630535,
                "84": -0.011440627282523461,
                "85": -0.007031751011168032,
                "86": -0.0169881926453804,
                "87": -0.011137973039775956,
                "88": -0.014864171543094787,
                "89": -0.006666186897413035,
                "90": -0.007404971973835312,
                "91": -0.045790176424514994,
                "92": -0.04264280309773602,
                "93": 0.003897275454121416,
                "94": 0.041234529248217765,
                "95": 0.004794802129767412,
                "96": -0.061314659719733676,
                "97": -0.021894020717000008,
                "98": 0.03364774182394138,
                "99": 0.05697686898355321,
                "100": 0.016554166413069497,
                "101": -0.026752677393137886,
                "102": -0.018165428210130043,
                "103": -0.01736694497629581,
                "104": -0.031813196620440944,
                "105": 0.016923800552418405,
                "106": -0.05014806647837873,
                "107": 0.0019099063812216108,
                "108": 0.058554859865863555,
                "109": -0.020185734811727814,
                "110": -0.02361277190176511,
                "111": 0.03654735811124098,
                "112": -0.025154183961266407,
                "113": 0.054596821904161215,
                "114": 0.029986928268561305,
                "115": -0.02352325010230962,
                "116": -0.015948375853973223,
                "117": 0.016512894358142335,
                "118": 0.02785852434944903,
                "119": -0.05983396081004316,
                "120": 0.006936071336636041,
                "121": -0.01793296176863658,
                "122": -0.03329954894544419,
                "123": -0.06017208783888883,
                "124": 0.08526160367936358,
                "125": -0.023391928805029306,
                "126": 0.06572066852011023,
                "127": 0.04986553384850078,
                "128": -0.027127460251985133,
                "129": -0.00863473695171766,
                "130": 0.034621395579165055,
                "131": 0.02373646676885706,
                "132": -0.09723063786084869,
                "133": -0.012709556575608327,
                "134": 0.009664937016254337,
                "135": 0.006554060547518624,
                "136": -0.14805933779245928,
                "137": 0.013747232132236201,
                "138": -0.0013931700002263406,
                "139": 0.04629115906437855,
                "140": -0.0038763661908801984,
                "141": -0.012645456068741562,
                "142": -0.010450193509861922,
                "143": 0.03462795672362181,
                "144": 0.028424463300709954,
                "145": -0.07883077975222456,
                "146": -0.07623223330446226,
                "147": -0.06537575097262859,
                "148": 0.015369200199364755,
                "149": -0.08254209871777445,
                "150": -0.0026806845209963325,
                "151": -0.02829535977855206,
                "152": 0.0739040391502254,
                "153": -0.0050412990873535644,
                "154": -0.019007985098641256,
                "155": -0.008275264823110095,
                "156": -0.0004651894969145257,
                "157": -0.058630928452970965,
                "158": 0.00220482183692096,
                "159": -0.019055574948223943,
                "160": -0.07736688809002217,
                "161": 0.025613706928046584,
                "162": -0.05015483815353554,
                "163": 0.03584469422586732,
                "164": 0.028974149543678725,
                "165": 0.054850306675811006,
                "166": -0.02193160122115732,
                "167": -0.043170530625826264,
                "168": -0.011976382075580867,
                "169": -0.009898165703457482,
                "170": -0.027779983804098997,
                "171": 0.00586760918117103,
                "172": -0.058498827486622135,
                "173": -0.04320553154400943,
                "174": 0.06636712498574768,
                "175": -0.027156049703385098,
                "176": -0.001808622862734957,
                "177": 0.0436916354134678,
                "178": 0.04621025856610488,
                "179": -0.07777533393528914,
                "180": -0.0366631806239414,
                "181": -0.019723164849441418,
                "182": 0.018734472189506114,
                "183": -0.015849442208678403,
                "184": 0.010413990149343416,
                "185": -0.02914422354242779,
                "186": -0.01296258224913273,
                "187": 0.045441998510219524,
                "188": -0.0027821555740262355,
                "189": 0.03138289407377541,
                "190": 0.004545265900922241,
                "191": 0.03364627402782957,
                "192": 0.01056043780253745,
                "193": -0.04014656978757154,
                "194": -0.024634734789395908,
                "195": -0.009663509819219318,
                "196": -0.043099897477881906,
                "197": 0.047872282229100706,
                "198": -0.01391142748265652,
                "199": 0.011837228678187752,
                "200": -0.036701123108956624,
                "201": -0.01944492859099553,
                "202": -0.029621103002450667,
                "203": 0.06584967711272341,
                "204": 0.04085684801675904,
                "205": 0.02434209720377458,
                "206": -0.028195588545580894,
                "207": -0.02084585350611238,
                "208": 0.055652341850742866,
                "209": 0.004732787249695104,
                "210": 0.01946644735718316,
                "211": -0.013179309403221475,
                "212": 0.0441863148113182,
                "213": -0.04881524210897835,
                "214": -0.07964790263863145,
                "215": -0.03332224770860682,
                "216": 0.09365182480195328,
                "217": 0.08517310648329936,
                "218": -0.02988088403385286,
                "219": -0.009767174900188327,
                "220": -0.012065667994320687,
                "221": 0.005999740842900171,
                "222": 0.005128514858584209,
                "223": 0.03246582114815806,
                "224": -0.016529008486624364,
                "225": 0.012330338111023804,
                "226": -0.026536189518660065,
                "227": -0.09562235920031478,
                "228": -0.005757169384943898,
                "229": 0.04876592717577618,
                "230": 0.04033072220347146,
                "231": 0.04386994440194619,
                "232": -0.00022919365237822066,
                "233": -0.003897313843178989,
                "234": -0.002854561631486705,
                "235": 0.0023305319385651412,
                "236": -0.019573414449977535,
                "237": 0.030794019867204123,
                "238": 0.020059785086610257,
                "239": -0.0431796908471642,
                "240": -0.02400646164427909,
                "241": 0.007636773597315612,
                "242": 0.08752812468212161,
                "243": 0.018175040216734804,
                "244": -0.014120563218891526,
                "245": -0.01951854884294702,
                "246": -0.0011747621552851677,
                "247": 0.015742556336357686,
                "248": -0.016190420067758695,
                "249": -0.017116587446628414,
                "250": 0.04335047203963702,
                "251": 0.027124796050500617,
                "252": 0.035828452542731544,
                "253": -0.06794433266531058,
                "254": 0.06367380647196641,
                "255": 0.0065656283668868295,
                "256": 0.017228607822780267,
                "257": -0.032288599891850664,
                "258": -0.0301156316653201,
                "259": -0.004897813741405407,
                "260": 0.0052154611004681245,
                "261": 0.014764585737685864,
                "262": -0.039206705197542636,
                "263": 0.08482797018349456,
                "264": 0.040995545367207516,
                "265": 0.031422039753471784,
                "266": -0.001097249191519179,
                "267": -0.01872820540562532,
                "268": -0.03371261032316676,
                "269": 0.0046881707239858125,
                "270": 0.02598024148723732,
                "271": -0.02458530219003122,
                "272": -0.013706272278339203,
                "273": 0.02567504964231582,
                "274": -0.002933726617481297,
                "275": -0.01754170805695653,
                "276": 0.13137596895586168,
                "277": 0.046653853724631315,
                "278": 0.046562365937527106,
                "279": -0.03188854068627973,
                "280": -0.00861483421729108,
                "281": 0.057820786931559204,
                "282": -0.020398225102650127,
                "283": -0.0033379243521856694,
                "284": -0.03902817711987157,
                "285": -0.015964038703751814,
                "286": 0.0273997244644907,
                "287": -0.0023454878910087818,
                "288": 0.005981443602118957,
                "289": 0.07131505464776043,
                "290": -0.04216320853459979,
                "291": -0.013410618790124612,
                "292": -0.05278380329065818,
                "293": -0.026481534265123594,
                "294": -0.0007866866930979761,
                "295": 0.04737473063712017,
                "296": 0.037771421817396685,
                "297": -0.019830427198981527,
                "298": -0.01042644845661136,
                "299": 0.0875926919368016,
                "300": 0.04027161862516443,
                "301": 0.006241328437071389,
                "302": 0.027102245604811847,
                "303": -0.02582784138050324,
                "304": -0.016823580128833462,
                "305": -0.05409902093078867,
                "306": -0.013254759851026632,
                "307": -0.008440765695443848,
                "308": -0.018395838910439354,
                "309": 0.038728680443420156,
                "310": -0.01804979633206981,
                "311": -0.01013770251322364,
                "312": 0.040233074494275343,
                "313": 0.0037988681144956993,
                "314": -0.008925976195122117,
                "315": -0.01101915328124452,
                "316": -0.04344074425345472,
                "317": -0.0024739395445559633,
                "318": -0.08785428321403124,
                "319": 0.03844413651996815,
                "320": -0.006969066953904406,
                "321": -0.01595512347652081,
                "322": 0.059327082429167635,
                "323": -0.041548499874804155,
                "324": -0.0027531027773462584,
                "325": 0.04412354681392974,
                "326": -0.026785056008048133,
                "327": -0.03223897898215645,
                "328": -0.03752929054962726,
                "329": -0.003171395428017493,
                "330": -0.04103711360728128,
                "331": -0.07262139841439504,
                "332": -0.044524392459104986,
                "333": -0.05381541954389016,
                "334": 0.03523951947428446,
                "335": 0.020963504545603116,
                "336": -0.036746694031215235,
                "337": -0.003723802819216959,
                "338": 0.005577008492777818,
                "339": -0.06856770897452319,
                "340": 0.008433263268633646,
                "341": 0.0071940070973856825,
                "342": 0.0410372592681901,
                "343": -0.01652524482579804,
                "344": -0.06735683142636506,
                "345": 0.006477102798074292,
                "346": -0.0014858073442388115,
                "347": -0.005395120717239252,
                "348": -0.0013828527455893274,
                "349": -0.019395402445352948,
                "350": -0.007801891958643691,
                "351": -0.05507608485067777,
                "352": -0.055820341992956976,
                "353": -0.012544167743780194,
                "354": -0.018029904755145217,
                "355": 0.08324443712992317,
                "356": 0.015850956071765416,
                "357": -0.042051435660991385,
                "358": -0.0167158488795343,
                "359": -0.016557144523477233,
                "360": -0.004759663395240693,
                "361": -0.016273608946303416,
                "362": -0.008460387921562144,
                "363": 0.0006328332062420937,
                "364": -0.023593287057826734,
                "365": -0.06940148828027973,
                "366": 0.024679722381405762,
                "367": 0.014567335740256154,
                "368": 0.03953069921196233,
                "369": 0.07665529732221243,
                "370": -0.05087651712841522,
                "371": 0.03655815958841315,
                "372": -0.015005029476932047,
                "373": -0.004276053741971418,
                "374": -0.06194072611050291,
                "375": 0.01731501397052824,
                "376": -0.00967247204524113,
                "377": -0.025716659847335153,
                "378": -0.08185996890261847,
                "379": 0.04590454158029324,
                "380": 0.035734525130333074,
                "381": 0.05009980411697878,
                "382": 0.08185853187798878,
                "383": -0.03807957187231038,
                "384": 0.06990296428734011,
                "385": -0.00791116411255021,
                "386": -0.018149314269772343,
                "387": -0.028242647972009767,
                "388": 0.02549131168507326,
                "389": -0.011497389065595222,
                "390": -0.014545384377492938,
                "391": -0.03630993610532552,
                "392": 0.02319070038440872,
                "393": 0.035397503262439074,
                "394": 0.06464155672308966,
                "395": 0.11562713479897666,
                "396": -0.0681763112904371,
                "397": 0.029793076864430022,
                "398": -0.052999627969289496,
                "399": -0.046807904298304996,
                "400": -0.026407595674081137,
                "401": 0.004534067079003727,
                "402": -0.01077550889534326,
                "403": -0.0068263419184043965,
                "404": -0.06743474376120319,
                "405": 0.01197274132581985,
                "406": 0.11842807105630072,
                "407": 0.0526907020631239,
                "408": 0.08313066037489039,
                "409": -0.08750863438176817,
                "410": 0.05340611537425685,
                "411": -0.022974091587244908,
                "412": -0.04495412970470484,
                "413": -0.002372219842858686,
                "414": -0.03498771577227316,
                "415": -0.01719068234028076,
                "416": -0.028572313469030202,
                "417": -0.020390064120682456,
                "418": -0.01130942619624066,
