
//<![CDATA[

// a few things don't have var in front of them - they update already existing variables the game needs
lanesSide = 6;
patchesAhead = 52;
patchesBehind = 5;
trainIterations = 100000;

// the number of other autonomous vehicles controlled by your network
otherAgents = 0; // max of 10

var num_inputs = (lanesSide * 2 + 1) * (patchesAhead + patchesBehind);
var num_actions = 5;
var temporal_window = 0;
var network_size = num_inputs * temporal_window + num_actions * temporal_window + num_inputs;

var layer_defs = [];
layer_defs.push({
    type: 'input',
    out_sx: 1,
    out_sy: 1,
    out_depth: network_size
});


      layer_defs.push({
        type: 'fc',
        num_neurons: 21,
        activation: 'tanh'
        // drop_prob:.01*cc
    }
    );
      layer_defs.push({
        type: 'fc',
        num_neurons: 21,
        activation: 'tanh'
        // drop_prob:.01*cc
    }
    );
       layer_defs.push({
        type: 'fc',
        num_neurons: 39,
        activation: 'tanh'
        // drop_prob:.01*cc
    }
    );


layer_defs.push({
    type: 'regression',
    num_neurons: num_actions
});

var tdtrainer_options = {
    learning_rate: 0.001,
    momentum: 0.0,
    batch_size: 256,
    l1_decay: 0.001
};

var opt = {};
opt.temporal_window = temporal_window;
opt.experience_size = 50000;
opt.start_learn_threshold = 250;
opt.gamma = 0.990;
opt.learning_steps_total = 50000;
opt.learning_steps_burnin = 500;
//opt.epsilon_min = 0.05;
//opt.epsilon_test_time = 0.05;
opt.layer_defs = layer_defs;
opt.tdtrainer_options = tdtrainer_options;
// opt.random_action_distribution = [0.5, 0.40, 0.05, 0.25, 0.25]

brain = new deepqlearn.Brain(num_inputs, num_actions, opt);

learn = function (state, lastReward) {
    brain.backward(lastReward);
    var action = brain.forward(state);

    draw_net();
    draw_stats();

    return action;
}

function bridge(n) {
    var ret=[]

    for (var i = 0; i < n; i++) {
        var l ={"sx":1,"sy":1,"depth":n,"w":{}}
        ret.push(l)
        for(var j =0;j<n;j++){

            l.w [j]=( i==j?1:0)
        }

    }
    return ret;
}
function bridge(n) {
    var ret=[]

    for (var i = 0; i < n; i++) {
        var l ={"sx":1,"sy":1,"depth":n,"w":{}}
        ret.push(l)
        for(var j =0;j<n;j++){

            l.w [j]=( i==j?1:0)
        }

    }
    return ret;
};

function bias(n) {
    var ret={"sx":1,"sy":1,"depth":n,"w":{}}

   for(var i=0;i<n;i++)
    ret.    w[i]=1

    return ret;
}

// console.log(    JSON.stringify(bridge(21)))

//]]>


/*###########*/
if (brain) {
brain.value_net.fromJSON({"layers":[{"out_depth":741,"out_sx":1,"out_sy":1,"layer_type":"input"},{"out_depth":21,"out_sx":1,"out_sy":1,"layer_type":"fc","num_inputs":741,"l1_decay_mul":0,"l2_decay_mul":1,"filters":[{"sx":1,"sy":1,"depth":741,"w":{"0":-0.012240773730528702,"1":-0.009283574299706323,"2":-0.07271124677207944,"3":-0.04967954233927536,"4":0.029325933024778275,"5":-0.02037766474427247,"6":-0.03853634156321484,"7":-0.03560578147056553,"8":-0.007296187158488621,"9":0.04624913156817405,"10":0.0020791254559585663,"11":-0.060689886209213444,"12":0.012007195523860169,"13":0.0957491170007411,"14":-0.042981073133849634,"15":0.028780817478406294,"16":0.03705745574777759,"17":-0.0333559370901874,"18":0.04712140822225073,"19":0.012809064442549069,"20":-0.04205459705117292,"21":0.03750783935396044,"22":-0.08488293002484174,"23":-0.04247700231838788,"24":-0.005144214322924332,"25":0.04868207503760267,"26":-0.07420121105607293,"27":-0.08011165148454603,"28":0.023730314626237984,"29":0.030381451466576028,"30":0.01019292581282537,"31":0.005779225865065395,"32":-0.014021426149657136,"33":-0.024960716183505673,"34":-0.09477360860880453,"35":0.04117301920036334,"36":0.004649315903321312,"37":0.025025016751825863,"38":0.003993349507610698,"39":0.08512451013236808,"40":0.013506582750237391,"41":0.02517500197746093,"42":-0.012541858115133055,"43":0.030028331067363318,"44":0.0019338520189521313,"45":0.027693970722720167,"46":-0.010848330868793641,"47":-0.03267324995092508,"48":0.04377336503788568,"49":-0.040375599433432365,"50":-0.03126067992343834,"51":-0.0699705664148492,"52":0.04941940503411792,"53":0.03477455720612804,"54":0.014602735460316332,"55":-0.009381638826088204,"56":-0.0001326075180891725,"57":0.02017439814451668,"58":0.015671334524619968,"59":-0.039145471523250375,"60":0.010707716989180865,"61":-0.04277891094028705,"62":-0.016172251811849506,"63":0.014348076838597349,"64":-0.0030672869613715945,"65":0.006741082173778818,"66":0.0572176065967287,"67":0.009231306915669233,"68":0.0030072258422936884,"69":0.01573866156304681,"70":0.0349966105338385,"71":-0.03710492581233215,"72":-0.020398940071046055,"73":0.029071546619257694,"74":-0.01619370292131223,"75":0.05972247031255152,"76":0.01609027553496157,"77":0.001677579038305892,"78":0.0049528660986335364,"79":-0.021754558316092593,"80":0.04315728768743653,"81":0.05891426084345792,"82":-0.04390650851207206,"83":0.06067303811097025,"84":0.04863358073461145,"85":0.04449227137389413,"86":0.03680806986919968,"87":0.009921433289398002,"88":0.01790881317162499,"89":0.10147137303779308,"90":-0.05232695595491207,"91":-0.03596252829515154,"92":-0.0262193884413911,"93":0.037896090159993887,"94":0.05001227055792012,"95":-0.020315970908760726,"96":0.0876563355074352,"97":0.028736854315094075,"98":-0.009154832503862509,"99":0.02448062583615729,"100":0.008026190354326113,"101":0.00945973333175626,"102":0.05700655673416468,"103":0.021786574284489515,"104":0.005904702468186349,"105":0.014416981927069803,"106":0.046064062792418065,"107":0.027845227111204934,"108":0.12709469329578577,"109":0.08595089914015361,"110":-0.010290614943614785,"111":0.05804917243899723,"112":0.012031284698292325,"113":0.025624092421395097,"114":0.056031769675853944,"115":-0.044630066528843444,"116":-0.007754670612507938,"117":0.07892107290963786,"118":-0.04843006832900263,"119":0.025702075422325183,"120":-0.009443369525235171,"121":-0.0008203784963030212,"122":0.04013507053052765,"123":-0.02593354327054013,"124":0.02342823920094509,"125":0.001510327383976421,"126":0.0024549333962191142,"127":0.028522139069201764,"128":-0.012207615762821445,"129":0.008146550451846571,"130":-0.018662790453600038,"131":0.04045485809903613,"132":-0.021267009344475646,"133":0.01864130457642949,"134":-0.06782452738578315,"135":-0.000224460815210387,"136":0.021445827585212716,"137":-0.001878301388503723,"138":0.015698358344248573,"139":0.002235501615306137,"140":0.03904481337386044,"141":-0.02573848159766784,"142":0.01725246154470426,"143":0.03818396267774143,"144":-0.025865931712700307,"145":0.02385986475948717,"146":-0.015893368040898075,"147":0.07580615122130584,"148":-0.016381159274171987,"149":0.012165668832159965,"150":-0.03167520175076766,"151":-0.02722811546145036,"152":-0.011550995408617823,"153":-0.011236511171932652,"154":0.05177629995916834,"155":-0.026278573562331962,"156":0.034834525480266054,"157":0.015260531018446245,"158":-0.05875443851152417,"159":-0.01842912962100446,"160":0.08747982438446317,"161":0.015737580473317095,"162":0.05074269377629319,"163":0.008890077495830043,"164":-0.03402313735849977,"165":0.013778168537627563,"166":0.010748594506808633,"167":-0.022513405216599138,"168":-0.0215705894619276,"169":0.006891616175153825,"170":0.04825923357047337,"171":0.008367925563657775,"172":0.05255657589822763,"173":0.07392130400619748,"174":0.025289352866701465,"175":0.050272476038227695,"176":-0.013030751911712529,"177":0.005053982020018636,"178":-0.033464869482295705,"179":0.0021202831467002775,"180":0.005396183907025723,"181":0.014695180552826832,"182":0.0025948763388897148,"183":-0.023083725748381672,"184":0.022602189155777688,"185":0.006445505803811499,"186":0.04955821700001754,"187":0.012008332619393798,"188":-0.04834972167447304,"189":0.03608224198538588,"190":-0.0019039026140310936,"191":-0.032541514551982544,"192":-0.0021208221445625968,"193":-0.005265077515980044,"194":-0.010811139260866593,"195":-0.06869401746362154,"196":0.036347551717468396,"197":0.03127072772544705,"198":0.0401978273036573,"199":0.008206619172020478,"200":0.05715940240543175,"201":-0.043769094016481366,"202":0.06894848773408668,"203":0.01874685161235013,"204":0.0011174560720373537,"205":0.10320842384510746,"206":-0.038921524596350766,"207":0.02834062033421526,"208":0.03493595508215883,"209":0.003996895527130339,"210":0.03843083413579833,"211":0.03826503971954772,"212":0.00387344966184102,"213":0.018899410413993047,"214":0.008448923347038464,"215":-0.00993929057962163,"216":0.032874631260671354,"217":0.022270621908409883,"218":0.0277205954033336,"219":0.00637624099919622,"220":0.043821125230126726,"221":-0.02052025522536249,"222":-0.05387171595688824,"223":0.019596146522556975,"224":-0.006694536806531122,"225":0.044427508435477825,"226":0.004383351518003783,"227":-0.0042535827846732766,"228":0.007943126766399503,"229":-0.016512091465551916,"230":0.06862238825695692,"231":0.057974886289435555,"232":-0.025650107772964486,"233":0.008978618308375512,"234":-0.038413372702888596,"235":-0.026981725127782002,"236":-0.026630117009856184,"237":-0.024932840762235727,"238":0.007124380104649114,"239":0.04062760154396531,"240":0.03567259319097393,"241":0.027214172409111455,"242":-0.0595835914751294,"243":-0.02902032554971752,"244":0.0900475732695756,"245":-0.05417515532914547,"246":-0.028038437860664237,"247":0.00980483877563601,"248":0.028503979185300735,"249":0.017958780311657895,"250":-0.002648240489416179,"251":0.01538040537231038,"252":0.022635573332327675,"253":-0.031182250952738792,"254":-0.00505750464147518,"255":0.029673314093766664,"256":0.04905800928837288,"257":0.07023957222530969,"258":-0.04140379447212735,"259":0.03543950660798887,"260":0.02260874304603716,"261":0.010827939996596894,"262":0.026127368378570163,"263":-0.022660450199613602,"264":-0.00022164915348376092,"265":0.0030043623295649474,"266":0.08197125948656028,"267":0.0012307126160661893,"268":0.040913088785331016,"269":0.008412451155264416,"270":0.042104704894081565,"271":0.02648227123591575,"272":0.008776116651420638,"273":0.025412133878345282,"274":-0.007635129324936003,"275":0.01661011780084371,"276":0.04553683724546066,"277":0.014721089315293685,"278":-0.008715331441839247,"279":0.026356928864198107,"280":0.03713080294822792,"281":0.004917040378200194,"282":0.05702086049140316,"283":0.0030045501125337735,"284":0.015375603500916457,"285":0.045617384681503635,"286":0.026743858278462776,"287":0.010988285433009688,"288":-0.012230229574690289,"289":-0.02802059866261033,"290":0.04340111765033477,"291":-0.0050676071053843575,"292":0.04427258145571416,"293":0.0019690300211481554,"294":0.07283936597057578,"295":0.0617874910935532,"296":0.0045484430109585675,"297":0.01506507285652651,"298":0.004302011802363853,"299":-0.004713714288721384,"300":-0.026128879176402803,"301":-0.020226198875071346,"302":0.062458823040663435,"303":0.07688431666051486,"304":0.05397834642964411,"305":-0.01720955862591693,"306":0.08923330812275143,"307":0.045099467543595055,"308":0.06159061419872766,"309":-0.029559864937582014,"310":-0.03695374164669234,"311":0.011787843481878956,"312":-0.06790189611288369,"313":-0.05224017403792579,"314":0.0661894243126761,"315":-0.00402482764152246,"316":-0.03895328498193421,"317":-0.040547139899382065,"318":0.06606667995682096,"319":-0.010777253677479582,"320":0.006301900454880583,"321":-0.01923689582281964,"322":-0.009081589320935467,"323":0.03593718874702562,"324":-0.030289299976916144,"325":0.032470734176544495,"326":-0.059806550603601606,"327":-0.006789836596912975,"328":0.06649650558922172,"329":-0.0005699862324457537,"330":0.030554133810179854,"331":0.017491122784786154,"332":0.0031135832120654937,"333":0.03542007513750456,"334":-0.09236855610044983,"335":-0.010606672812645374,"336":-0.0014869542934716471,"337":-0.04198561525411919,"338":-0.036457758442523004,"339":0.03406339683315686,"340":-0.024984140981701968,"341":0.016764282987861753,"342":0.04237085924356288,"343":0.034049044064996585,"344":-0.02451045647016309,"345":0.0009349026062696804,"346":0.028368788827849406,"347":0.047810025015180425,"348":-0.03413686036032012,"349":-0.045011235655252925,"350":-0.0578065825718823,"351":0.0052233782182119215,"352":0.04839672158875026,"353":0.05121333983620974,"354":-0.00608266969915198,"355":-0.03900216664916627,"356":-0.06526709015496227,"357":0.06367367156382327,"358":-0.021739438906122076,"359":-0.0640689287092192,"360":0.04008130935931197,"361":0.06113016713199013,"362":0.0069901868356474035,"363":0.030086889360633428,"364":-0.04111259492134038,"365":-0.0007663375366256725,"366":0.001080692017114506,"367":-0.005929884957338421,"368":0.03663652317429923,"369":-0.04688534046508402,"370":0.00012024786629909545,"371":0.019324898832970547,"372":0.01453253200206583,"373":0.08029797902460134,"374":0.003529988310579847,"375":-0.018046729918308028,"376":0.047934829895927844,"377":-0.00018284469828301413,"378":0.029369330258954714,"379":-0.042424763067159185,"380":0.00678438682524987,"381":0.0006816926939596748,"382":0.01273140390618949,"383":0.004765071618878088,"384":0.020529907466249425,"385":0.018624079087537236,"386":0.018514032578199117,"387":-0.03955736737984306,"388":-0.02375926230337301,"389":-0.03713841312312092,"390":0.03184146953847474,"391":0.06710095494749815,"392":-0.029969099950304102,"393":-0.006318282853155186,"394":0.009504535739797575,"395":-0.03302738160443064,"396":0.008798724355330181,"397":-0.06924094084398837,"398":0.058867987090775765,"399":0.03496485658411222,"400":0.00284322482841514,"401":-0.019442129937400413,"402":0.06229825900641516,"403":-0.03626287053281782,"404":-0.053132919555734376,"405":0.0016056976449190929,"406":-0.014911631327735202,"407":0.046349196069014546,"408":0.0070291743995289455,"409":0.03152877277468373,"410":-0.018152222798066532,"411":-0.018905229144349108,"412":-0.050804133708625465,"413":0.008695985153776589,"414":-0.02859190454277519,"415":0.004424772471782207,"416":0.00012091824727510328,"417":0.019262326188766374,"418":-0.02372838255854205,"419":0.017874921446334763,"420":-0.018154412890418466,"421":-0.011742515204375427,"422":-0.0572556674525596,"423":0.046396998438199916,"424":0.08280917006306401,"425":-0.0078067996239002575,"426":0.0798074588734489,"427":0.028662184734319304,"428":0.0403064938442786,"429":-0.0025093640331300534,"430":-0.017275555809649738,"431":-0.002183154823326067,"432":-0.03049211931851582,"433":0.040180718100627,"434":0.07787120259533702,"435":0.01033344347146336,"436":0.021796984795726032,"437":-0.021531480498054326,"438":0.05119812032698935,"439":-0.03292273813156312,"440":0.0044986051842733615,"441":-0.0018478305749169875,"442":0.04360340792848435,"443":0.036725728797110835,"444":0.02368621643916418,"445":0.031674556874349426,"446":-0.004581459117040207,"447":-0.054638702907791575,"448":0.009953487959041314,"449":0.006001577489424321,"450":-0.03084167853196481,"451":-0.028061096945547502,"452":0.02993139422869129,"453":0.01868556066049707,"454":-0.012406027469416913,"455":-0.02078826645843067,"456":0.03480585105374978,"457":0.05957006666565881,"458":0.021023976603698362,"459":0.04626091640091285,"460":-0.0015271287953965273,"461":0.009973839182026706,"462":0.04755273399157508,"463":-0.017387843111701693,"464":-0.03899900502223615,"465":-0.028155157303722575,"466":0.02404194582748932,"467":-0.06666195157786585,"468":-0.006251684982247527,"469":-0.003419167919407963,"470":-0.020540185001444715,"471":-0.01180067048804847,"472":0.01841179158469701,"473":0.008340393228892696,"474":-0.044110507605826355,"475":-0.07572771750989626,"476":-0.040276506947972274,"477":0.01750793134538476,"478":0.002964536367990308,"479":-0.002514709352068652,"480":-0.025632498595204535,"481":-0.0482941488267019,"482":0.03618578206213837,"483":-0.00668959562126498,"484":-0.0027163662882008204,"485":0.0657923335006007,"486":0.016280915743716574,"487":0.0070727245909358565,"488":0.004642132027354667,"489":0.005695021064677556,"490":-0.03669909481758702,"491":0.0008736389797361537,"492":0.05246106442158477,"493":0.025221804596471796,"494":-0.005844579174090089,"495":0.029718166938964036,"496":-0.02058532254645038,"497":-0.013791108613567993,"498":0.03366795872539617,"499":-0.029845735520898007,"500":0.005814535850156467,"501":-0.025218874563859125,"502":0.08598066250623905,"503":-0.028440857470189363,"504":-0.062271040751181284,"505":0.014659045036614889,"506":0.06555720855715004,"507":0.02563787910812355,"508":0.031356498276081224,"509":0.03259509585588142,"510":0.035464228089382974,"511":0.025356088750939858,"512":0.060769380469546705,"513":0.019333190924983673,"514":0.01323935180792206,"515":0.003066967571419889,"516":-0.01017684716630006,"517":0.022116308373325254,"518":0.047505800356742636,"519":-0.025451878464536254,"520":-0.036161838991312256,"521":0.018246878580891614,"522":-0.027865583204192492,"523":0.04360323970760947,"524":0.05234800269005578,"525":-0.0006647029913969382,"526":0.03850308908765689,"527":-0.001952473049490234,"528":-0.015355847110730037,"529":0.023481886464752938,"530":0.02311503391930135,"531":0.012928663184336149,"532":-0.05018224875793732,"533":0.002645503355917726,"534":-0.02304695000343665,"535":0.017534147609376435,"536":0.01565397654874607,"537":0.03237338546606033,"538":-0.014269920918085308,"539":0.06013910041767001,"540":0.010766896636605844,"541":-0.010602819520807966,"542":0.08922696597011372,"543":-0.040623246434879696,"544":-0.028741560353022697,"545":-0.02106505866463461,"546":-0.01463867639777166,"547":0.02323602658740456,"548":-0.009151531422662637,"549":0.0012089201225630062,"550":0.017008417186903647,"551":0.002015118925170882,"552":0.01792991051361992,"553":-0.013565922116571295,"554":0.0009412843272656791,"555":0.021284920127806098,"556":0.010014962967428908,"557":0.06129506865370685,"558":-0.025709666061302025,"559":-0.013510416394500676,"560":-0.022751780180611247,"561":0.023909847067388044,"562":-0.023031124056827522,"563":0.06290970251538686,"564":-0.006237382096039903,"565":-0.010682198846140885,"566":0.02057539175217018,"567":-0.00887968451117156,"568":-0.020565226023219453,"569":0.036326899939401976,"570":0.04357845910428042,"571":-0.015014912947116547,"572":0.01837150146809929,"573":0.028739382263683864,"574":-0.015473967062842249,"575":0.009576321941436925,"576":0.005176257972551471,"577":0.016597451944987133,"578":-0.008425164444412958,"579":-0.0027359114987319444,"580":0.056292312126232875,"581":-0.036612265932204804,"582":-0.030118578160480185,"583":0.05431551553191296,"584":-0.01902581752559214,"585":0.06143399520553365,"586":0.049651503781805474,"587":0.028112411962169927,"588":-0.0572311885075391,"589":0.03195439891323195,"590":0.022523626885076864,"591":-0.020597350196375746,"592":0.02118775065492502,"593":0.04844680972168172,"594":-0.010563608270851987,"595":-0.039426017121096175,"596":0.02580175799953786,"597":0.03421780218127357,"598":0.05573262954106583,"599":0.022510807537032954,"600":0.01408803763507954,"601":0.014663695952488107,"602":0.013239840007408962,"603":-0.004978015933667426,"604":0.023580223513876463,"605":0.03185676378344999,"606":-0.00771080380042264,"607":-0.07185194438573622,"608":-0.04878302074999664,"609":0.03371849127567451,"610":-0.05924678741173194,"611":0.07083968264491285,"612":0.029902651204833024,"613":-0.007659327331124468,"614":0.0043856886943809785,"615":-0.020898632982429298,"616":-0.022593316356456675,"617":0.028210040503449024,"618":0.04771708718722967,"619":-0.02830770310859424,"620":-0.023263128895300477,"621":0.01735830736452328,"622":0.021757352481550033,"623":-0.06108313220217837,"624":-0.05186269666405829,"625":0.033442091528810385,"626":-0.0008568090958826398,"627":-0.004672411432427495,"628":0.049737171074357385,"629":0.04113238528496041,"630":0.08210818170837902,"631":0.02615839571970428,"632":0.0011520592424544094,"633":0.045788592119096604,"634":-0.0032243999799691754,"635":-0.0834641290598018,"636":-0.005562166438270003,"637":0.05827948759732676,"638":-0.0014956772551314105,"639":0.03984015128527069,"640":0.024729816125495244,"641":0.049157538737759306,"642":0.04459318832318984,"643":0.10047249512126176,"644":-0.03189188581074076,"645":0.053306628228421735,"646":0.005510934167627299,"647":0.00751582306629874,"648":-0.029806440832288433,"649":0.09168462389414031,"650":-0.005011090244016566,"651":0.014898812732254197,"652":0.004653739633371599,"653":0.03609521547567465,"654":0.01688722873019282,"655":0.048232152546600765,"656":0.0283134462541692,"657":0.004891049495332403,"658":0.036766005815516464,"659":0.07031486269660989,"660":0.04060850366440486,"661":-0.006688426380889685,"662":0.015737150148819882,"663":0.017982541407854893,"664":0.08008840380410513,"665":-0.04916408525688744,"666":0.006947075125565398,"667":0.005112991710911357,"668":0.01560211237621036,"669":0.015391377412421279,"670":0.009426045446670464,"671":-0.00643109328378976,"672":0.005084798280083992,"673":-0.008980414661665508,"674":0.03837708276443796,"675":0.07849196852562314,"676":-0.006382044087990389,"677":0.029323419097223635,"678":-0.06568759226667692,"679":-0.014373858458016017,"680":-0.10979781060863514,"681":0.02233682627452982,"682":0.015350608966286568,"683":0.0031987090724461815,"684":0.06644639324737268,"685":0.033424412560759224,"686":-0.004877868225329235,"687":-0.0044585383858910515,"688":0.015578393607867873,"689":-0.02719255081153047,"690":-0.015183769608036263,"691":0.05581553544818707,"692":-0.03094239910336682,"693":0.037983947553109514,"694":0.0030155678930284765,"695":-0.014918865318963463,"696":0.030641548805063142,"697":-0.009629366653585842,"698":0.0038578775430772707,"699":0.01915985338704869,"700":0.012485632528743077,"701":-0.022327186452889003,"702":0.08612335787639104,"703":0.03620049606684814,"704":0.012134514221649021,"705":0.0014826561695317844,"706":0.016889818964187814,"707":0.06419002745464901,"708":-0.02566573996029149,"709":-0.041380459946976186,"710":0.03695251018651777,"711":-0.007062609182501824,"712":0.00634681563798835,"713":-0.025458872668621686,"714":-0.01541816257143502,"715":0.03703406320203676,"716":0.0022308028365226264,"717":0.011176429604762152,"718":-0.07212447288656856,"719":0.03455546999842815,"720":-0.054453314824747946,"721":-0.051726466168871825,"722":-0.03200533205793321,"723":-0.014185359228437366,"724":-0.02793308120766768,"725":0.06054095743689937,"726":-0.036454101992681884,"727":-0.02772229946565769,"728":-0.008985832036705589,"729":0.025688091753634963,"730":0.019284842770835135,"731":0.05480282535038864,"732":0.09916517941422213,"733":-0.009997686902496878,"734":0.043773607742951255,"735":-0.0011933346290245279,"736":0.01225598661230489,"737":-0.04291577834783771,"738":-0.00394558013703073,"739":-0.04071421060305294,"740":0.029097621649785528}},{"sx":1,"sy":1,"depth":741,"w":{"0":-0.006969376371402038,"1":-0.016163537351912033,"2":0.022177427130114353,"3":-0.02828433179268566,"4":0.06526043157110024,"5":0.025617074211513696,"6":0.009866459606971831,"7":0.02999600182639548,"8":0.05846942762318874,"9":-0.004161842128187688,"10":0.004591814882922348,"11":0.005376821362318052,"12":0.015304303916731418,"13":0.00647880879970767,"14":0.02151082913741328,"15":0.0191743785909874,"16":0.01990700028068435,"17":0.027380574757858614,"18":0.006312185836581488,"19":0.015571368272913685,"20":0.023870802733860472,"21":0.013386761914058305,"22":0.0484151102550868,"23":-0.013906039275062001,"24":-0.003879814901236318,"25":-0.05591890641691986,"26":0.05244360645935635,"27":0.052673964261070794,"28":0.020875451416022643,"29":0.02715827125872397,"30":0.042604875619302394,"31":0.05484835715085357,"32":-0.01383965678997308,"33":-0.0024604128000439963,"34":-0.07855585151806672,"35":0.01104844812796112,"36":-0.010746310787850951,"37":0.0011648913708024278,"38":0.0459474303255051,"39":0.03935479467942449,"40":0.008400102717711449,"41":0.038690852286585024,"42":0.04093066190193247,"43":0.014650079541969408,"44":0.01357870515478754,"45":-0.02396993889013818,"46":-0.004857693267359602,"47":-0.004302310568173691,"48":-0.021382897774660327,"49":0.052055347781571476,"50":0.04573414481032278,"51":0.092294751815579,"52":-0.0010577836809232176,"53":-0.015614002858175872,"54":0.056550715241862386,"55":-0.02451522649378081,"56":-0.0018577738949639396,"57":0.031926815933515366,"58":0.056554181742899376,"59":-0.03638515026038922,"60":0.03451003786141164,"61":0.05612287283440253,"62":-0.007568605864619735,"63":0.06038608410704199,"64":0.014655134082072767,"65":-0.0324102667783989,"66":-0.0518558965264,"67":0.0491706891965039,"68":-0.04193514172885414,"69":0.012836385063446497,"70":-0.05637134531080788,"71":0.009907323856394892,"72":0.037179688684219954,"73":-0.051174861809338994,"74":0.03740854880429825,"75":-0.018753187942173833,"76":-0.05196549169068893,"77":0.04784290313351943,"78":0.10852549297100936,"79":-0.0007729070574521928,"80":-0.043996220179389214,"81":0.023332159784330314,"82":-0.02860882352673052,"83":-0.007551987680348987,"84":-0.010951416969023355,"85":-0.026014363317398728,"86":0.06012963764422255,"87":-0.02404315273077621,"88":0.01066470371745504,"89":0.029080064208348667,"90":-0.04186144098765483,"91":-0.04286931787827026,"92":-0.020477705746794802,"93":0.0437268611060346,"94":0.006980322540734744,"95":0.03231677546379148,"96":0.021250775427510398,"97":-0.10436527880759632,"98":-0.0018797114604816993,"99":0.05186371241116264,"100":-0.00640485058871907,"101":0.009416803330334003,"102":0.01950915664451063,"103":-0.04892801111473292,"104":0.016168835537931064,"105":0.03195137661961639,"106":0.07890463826952891,"107":-0.011322902262086525,"108":-0.04232988041935251,"109":0.03193406294421661,"110":0.10401348359182944,"111":-0.003447288466466735,"112":-0.04002225192005886,"113":0.08568258508779557,"114":-0.016257963854968655,"115":0.0749471146174882,"116":-0.017444544650411606,"117":0.055634347554380716,"118":0.03815843673164245,"119":-0.00563157253975906,"120":0.06038287314949358,"121":0.05034745588016863,"122":-0.018954449973103565,"123":0.06698289961919991,"124":0.05122395987412327,"125":0.010547263709984647,"126":0.06232564746722054,"127":-0.045477676740948755,"128":0.06153520587959952,"129":-0.012913943188761046,"130":0.0028763938049775474,"131":0.10786453711626119,"132":-0.047569819413459564,"133":0.004109368639310403,"134":0.03847061061709441,"135":0.027503150858836936,"136":-0.010944276551993789,"137":0.03665117229576834,"138":-0.03406149532435232,"139":0.05677124013523076,"140":-0.02162896603915513,"141":-0.00988121203709012,"142":0.011290403436773714,"143":-0.08829026128988887,"144":0.015110147087960886,"145":-0.03025659957614853,"146":0.0036966033363203775,"147":0.005107833686260959,"148":0.013050697905942845,"149":-0.0004821953208006553,"150":-0.011599150448726512,"151":0.03293285302961029,"152":-0.03111500198580531,"153":0.033961123811082045,"154":0.03848062050333573,"155":0.061091964944980294,"156":-0.030534959056456378,"157":0.0352431083712836,"158":-0.021404509980587197,"159":0.043564183261086076,"160":-0.046800569683337054,"161":-0.00235694320104044,"162":0.08354716176984434,"163":-0.02122000529846959,"164":0.031000740865386647,"165":0.01539184787191508,"166":-0.005126307602627904,"167":0.005121782348212379,"168":-0.02453435104281107,"169":-0.06391852136749017,"170":-0.031999602536978776,"171":-0.005514275978738961,"172":-0.0020618282061062167,"173":0.030071919376846584,"174":0.055036636626313494,"175":-0.02397785770458237,"176":-0.0025374834425514,"177":-0.01576821601540296,"178":-0.02957659548304346,"179":0.03594234022842208,"180":0.09127571831571106,"181":0.05909234455962061,"182":-0.02689119685999287,"183":-0.016770776272538347,"184":0.004388720037787856,"185":0.006158947821097368,"186":0.018853793892040116,"187":0.012290989366576584,"188":0.005133546207475461,"189":0.019318984119929217,"190":0.03642339043439905,"191":0.016457023620374402,"192":-0.06976631440386545,"193":-0.013903190066887398,"194":-0.05822380959352316,"195":0.04014807664110197,"196":0.017948307504415933,"197":0.03200063750698447,"198":0.05638414624930183,"199":0.025729605075309577,"200":-0.014357055295243604,"201":0.08144306177588304,"202":0.022884454689783455,"203":0.026345169937166974,"204":0.04118400086901217,"205":-0.013557872088943851,"206":0.029463305231659305,"207":0.021458705976900912,"208":-0.015237144358212263,"209":0.026156078520846334,"210":0.06064206790326975,"211":0.07248971526303219,"212":0.012107680328331745,"213":-0.022401556784853113,"214":0.019656573487782304,"215":0.04014383993234825,"216":-0.0025557397623408025,"217":0.03607166639062018,"218":0.013571429478779292,"219":0.03921128212138009,"220":-0.02329368408489082,"221":0.024431278627365154,"222":-0.0065999320843681325,"223":0.006958339707126037,"224":0.09936005949117689,"225":0.050058516426478905,"226":0.012731985462991076,"227":0.055410680064272674,"228":0.03672813233055435,"229":-0.020979076868737494,"230":-0.02613565217947508,"231":0.014851576232068548,"232":-0.014245534080258361,"233":0.011065755664180991,"234":0.07397892051278813,"235":0.009670964581065622,"236":0.0370755249426733,"237":0.019290092300935435,"238":0.0335507353275264,"239":0.05493481782616725,"240":0.06801386519448607,"241":0.011634618203256198,"242":0.006053424206707321,"243":-0.017212278256999648,"244":0.05983741197374389,"245":0.01200241396151613,"246":0.01731038466027436,"247":0.042610537875105006,"248":-0.00005174946005212275,"249":0.011316103607932674,"250":-0.022469554584670436,"251":-0.025515994439759583,"252":0.0682133390376247,"253":0.023907643952849528,"254":0.03566331690953841,"255":0.05117405248212244,"256":0.009809145335950712,"257":-0.005680269617298836,"258":0.04333032858622592,"259":0.04468125522382177,"260":0.004643550586805664,"261":0.009839869766032634,"262":0.018422637383432323,"263":0.009530657697316904,"264":0.04233537509863493,"265":-0.02489215578523378,"266":0.03018545362015176,"267":-0.00391652704269866,"268":0.053182278948033686,"269":-0.016828251598750857,"270":-0.015059553933607379,"271":0.008402208913321907,"272":-0.027290083170760572,"273":0.006614593256385777,"274":-0.06994409615966028,"275":0.011526888703178117,"276":0.08774338451303718,"277":-0.0026912766210901943,"278":0.03301389969217721,"279":0.03962663818312651,"280":-0.02479314783904822,"281":0.014062131197274168,"282":0.05085036467549859,"283":0.016940172399190823,"284":-0.001476415063963074,"285":-0.02306909807572594,"286":0.017021702186996678,"287":-0.003115821189676862,"288":0.06240492018321159,"289":-0.021417909668667336,"290":0.05526020595934287,"291":-0.035985509092648825,"292":0.05176632842066876,"293":0.006414563948635762,"294":-0.006514878069709075,"295":-0.00994737307831419,"296":0.07312081064294651,"297":-0.012591324505873438,"298":-0.00205292619496121,"299":0.039201423955758534,"300":-0.062413948257481956,"301":0.008628522836183615,"302":-0.009113571596761197,"303":0.02978296429163469,"304":0.04421442574949651,"305":-0.016872774235320014,"306":-0.038652033823156136,"307":0.023995484163583786,"308":-0.00871124761910306,"309":0.025487865436562153,"310":0.06943481286827921,"311":-0.01882862564639397,"312":-0.037258644385544284,"313":0.010748954870301008,"314":0.03998170951388654,"315":0.07745179928463011,"316":-0.026499235848862907,"317":0.05858985320352207,"318":0.016956609187791467,"319":-0.02660549955328095,"320":-0.033913671158741235,"321":0.03437375481475963,"322":0.0002107983376151713,"323":0.006250591829550755,"324":0.011335765548761388,"325":0.008917121152631616,"326":0.005781310625205683,"327":0.0075097144005141035,"328":-0.0059473461954671755,"329":0.02313508027328553,"330":-0.048931126473316953,"331":0.06484536359838541,"332":-0.019061040352896408,"333":0.06073868171034347,"334":-0.04251762645804024,"335":-0.0008769895743337281,"336":0.007977616703206842,"337":0.02377889225527999,"338":-0.06581384769805634,"339":0.016099062369736728,"340":-0.04727606090302756,"341":0.04684867086631269,"342":0.0032184267768463276,"343":0.03941188733418611,"344":-0.013219767148667268,"345":-0.0075684114962733615,"346":-0.017170522557172448,"347":0.0284461053312716,"348":-0.012311800218753577,"349":0.04376827570273221,"350":0.0460795159782927,"351":-0.05522241548416472,"352":0.017548702734487526,"353":0.1125378230042915,"354":-0.07846912795288405,"355":0.0337427530556584,"356":-0.042034019439081714,"357":0.05353989313858001,"358":0.03127587810735637,"359":-0.035154934359673484,"360":-0.039168637561877724,"361":0.01286143557724901,"362":0.01394287625586549,"363":-0.040291887940736536,"364":0.025893404267648964,"365":-0.03621340023500577,"366":-0.005101707752489664,"367":0.0009923815965796777,"368":0.04181001542417127,"369":-0.023170826081405853,"370":-0.0348871682904312,"371":0.03277849592538513,"372":0.010340412996568994,"373":0.009142101630831111,"374":0.05799404618744864,"375":0.0019294705659816485,"376":-0.053377795437213896,"377":-0.012607273954263573,"378":0.0052785725679556075,"379":0.020367287420423954,"380":0.0036345764417119483,"381":-0.0022600279070942517,"382":-0.028598800918120847,"383":0.06597648967026082,"384":0.012749753790615258,"385":0.05508228773305237,"386":0.03936933686988979,"387":0.012616117733874766,"388":-0.005802682888738606,"389":0.028780293129991856,"390":0.01141451739687355,"391":0.005911322134290235,"392":-0.033085716176630635,"393":-0.017794089904912255,"394":-0.01891212399887479,"395":0.06259179873937706,"396":-0.005536204585904475,"397":0.006521376800915816,"398":0.0457127261253217,"399":-0.002148704285419851,"400":0.011098524602903212,"401":0.02221781963423429,"402":-0.059649026376954996,"403":0.047258509432187845,"404":-0.04330154166347672,"405":-0.013281843873812668,"406":-0.021541610839284218,"407":-0.05286268906977432,"408":0.003396842684826311,"409":0.058177457378454325,"410":0.007231195991404546,"411":0.05608635614421285,"412":-0.010044110604655581,"413":0.07517823840376478,"414":0.013676017432023142,"415":-0.00677251148061247,"416":0.03037200078895454,"417":-0.0602070421181992,"418":-0.011790063202123979,"419":0.02903279940331298,"420":0.03337095329250503,"421":0.022147841706288515,"422":-0.016273303407511715,"423":-0.007802436805177954,"424":-0.03930076984795615,"425":0.036423506258580395,"426":-0.0046259324237405185,"427":-0.01466675487786824,"428":-0.042876990175084055,"429":-0.02361137057079335,"430":-0.019474111234990328,"431":0.0017933981610089864,"432":-0.04112614360018261,"433":-0.004329659619209327,"434":0.02597665097789569,"435":-0.03310081451818021,"436":-0.04226426717916695,"437":-0.028190694527249257,"438":-0.00034096910671582535,"439":-0.05812219377703268,"440":0.016288229310202126,"441":0.021154745795997215,"442":-0.018650055455768845,"443":0.025076311145963148,"444":0.06641568886906711,"445":-0.018155133802863314,"446":-0.0023208971206599522,"447":-0.009673525652275475,"448":0.027407923154587534,"449":0.03164029306936214,"450":-0.021486157802457835,"451":-0.007354090207167687,"452":-0.06555262052324116,"453":-0.004645895442895648,"454":0.06134902319730296,"455":-0.03106452726986918,"456":-0.04148954545272598,"457":-0.01757803083244571,"458":-0.02314437508759277,"459":0.002830826395608271,"460":0.05198302684623799,"461":0.002806992671278515,"462":0.018967249244743148,"463":0.03390222383020909,"464":-0.021121707575748366,"465":0.019518217162703213,"466":0.00404138654572901,"467":-0.007330911821597964,"468":-0.057203056317074015,"469":0.03560368703963665,"470":-0.04626606803040343,"471":0.02538481065556894,"472":0.012958291301348707,"473":0.11487623454155134,"474":-0.04400074892234523,"475":-0.08193526210505296,"476":-0.0203508719543012,"477":0.0024236980735918745,"478":0.021838720320829046,"479":0.01792175397184133,"480":0.03269301316989811,"481":-0.012097126808054382,"482":0.009947532144924985,"483":0.020395053404518176,"484":0.017448307087372758,"485":0.032708299057129554,"486":-0.03774558796901842,"487":-0.016168725271029995,"488":0.053765230101146796,"489":0.0617548753556461,"490":-0.004552789679633918,"491":0.02331046516465995,"492":0.030396172815792967,"493":0.006069817633349274,"494":0.021283311305459806,"495":0.013064614920396107,"496":0.0024286398640960276,"497":-0.0025387304715035024,"498":0.018100649103629355,"499":0.021510527747561754,"500":0.03469979035846521,"501":0.01616335968889611,"502":-0.06893049526926363,"503":0.03635485260498497,"504":0.027182842328405475,"505":0.0529873968494431,"506":-0.03505495273833608,"507":-0.0802376179991752,"508":0.03658802901083843,"509":0.007576538328352248,"510":-0.030921774657982574,"511":0.020679783522012902,"512":0.01610901463424507,"513":0.05398371773751876,"514":-0.004522306156828772,"515":0.04116302127004345,"516":-0.051958447439491476,"517":-0.04380755401561006,"518":0.07423324484365923,"519":0.047202815730353155,"520":-0.04452704407289132,"521":0.019701193110047633,"522":-0.012492443464035574,"523":0.09258571436648017,"524":-0.00947364853081592,"525":-0.019025552751558126,"526":0.03274993205036217,"527":0.049979190122220574,"528":-0.005240233824824889,"529":0.0659372339688932,"530":0.04336404938754012,"531":0.05375444430864598,"532":0.03263982773793086,"533":-0.03154243935815964,"534":0.023157900550708044,"535":0.04983477286957493,"536":-0.013533683828312633,"537":0.049235538177265066,"538":-0.019287587212566164,"539":0.01584288083108173,"540":0.0044389979052910054,"541":-0.039686109362743555,"542":0.008339960842422627,"543":-0.008497492706111002,"544":0.01707230010886584,"545":0.017692136211763743,"546":-0.0024292132467548778,"547":-0.05475106273153005,"548":-0.05058307576735762,"549":0.0375939343016075,"550":-0.001077882794528523,"551":0.02092027891792011,"552":0.07441897084085802,"553":0.013428861761633637,"554":-0.046084189894328206,"555":-0.014236365037190484,"556":-0.002939228227758536,"557":0.011040329713887544,"558":-0.024921469198984615,"559":-0.034147110319280784,"560":0.024930785166638117,"561":-0.0070998743826379005,"562":-0.01665157416080103,"563":-0.012318427649432497,"564":0.034975869559702465,"565":-0.053528051946709725,"566":-0.018789072504304543,"567":0.020885444511211052,"568":0.08841915860582655,"569":0.07345606752373032,"570":-0.025928692770021373,"571":-0.02633048519014436,"572":0.06616527375606879,"573":0.008952141530952891,"574":-0.049204776833367964,"575":-0.0541527357472241,"576":0.008385150750640771,"577":0.0017437071876948383,"578":0.04526766295128878,"579":-0.06434916435727243,"580":-0.012999788974261888,"581":0.03329375552827627,"582":-0.006236779355010555,"583":-0.04827707310849927,"584":-0.034557447278551964,"585":0.018998467577093635,"586":-0.005924747596902444,"587":0.026064564409752987,"588":0.010988041664467358,"589":-0.043660254922954535,"590":0.032116822517093725,"591":-0.04763740120069169,"592":0.058660642334267335,"593":0.06923526019377962,"594":0.02016729986643544,"595":0.017129728801541358,"596":0.1198381741946396,"597":0.07450233129720536,"598":-0.041918518411067834,"599":0.02096201006211441,"600":0.05515466044139151,"601":0.031458630540120665,"602":0.04841951113233456,"603":0.08025081023831648,"604":-0.014438116799423027,"605":-0.009138667861851748,"606":0.014680912078294741,"607":0.052250031656090774,"608":-0.027383365504025703,"609":-0.009080045668029958,"610":-0.043693212834677655,"611":-0.0019207453995658788,"612":-0.030919756954669447,"613":-0.016023472990695627,"614":0.022801169938017726,"615":0.0013593088504889775,"616":-0.008294911878927879,"617":0.005327315670759846,"618":-0.008686659279873596,"619":0.0734734699691028,"620":0.03650264498069792,"621":-0.019943812430055188,"622":-0.037463224211258445,"623":-0.02467567461548561,"624":-0.007697480238190003,"625":-0.0506548669904444,"626":0.006216285791461292,"627":0.008613206832575337,"628":0.011382609681881282,"629":0.05134045197013979,"630":-0.03249017425165191,"631":-0.04735001927390738,"632":-0.0227364549571135,"633":0.070149580234694,"634":0.005345149561321132,"635":-0.043804752859627205,"636":0.0021221402836423334,"637":0.015759742640697204,"638":-0.057442861174987925,"639":0.024845070292224564,"640":0.00815391815445141,"641":-0.043662186155324426,"642":0.0045318036795333385,"643":0.06430463975016835,"644":-0.002681654472547638,"645":-0.04687964187871517,"646":0.015794015631764746,"647":-0.03829211987694541,"648":-0.00664151441377886,"649":0.03953539533346166,"650":-0.001258637518680852,"651":-0.005283895540083275,"652":0.0088877578221283,"653":-0.06257205831392233,"654":0.028251792726591653,"655":0.013132829105331555,"656":-0.010236941667839736,"657":-0.008434373828389961,"658":0.05616593081347411,"659":0.024682963809298013,"660":0.06816775511005534,"661":0.09322386268766993,"662":-0.07016686796822703,"663":0.004537584193272355,"664":-0.05482892982121237,"665":0.017042273633462578,"666":-0.03551400990487915,"667":0.04968986005465426,"668":0.06671828843629297,"669":0.03800211345910674,"670":0.028298433535272515,"671":0.013036275960408513,"672":0.013721658748258021,"673":0.025712627167686884,"674":-0.03433101523117768,"675":0.0676662575290022,"676":0.04801413019003345,"677":0.0006005419092910792,"678":0.036253355049384005,"679":0.03721781386430395,"680":0.0441807711019377,"681":-0.002308826644977501,"682":0.011813408170915028,"683":0.03478208089941892,"684":0.018132890520085244,"685":-0.04028683509512393,"686":0.013058379890369625,"687":0.04350421378799445,"688":-0.014387527873323355,"689":-0.08652376645747632,"690":-0.018567130572829507,"691":-0.009275148826047751,"692":-0.0005675114399395853,"693":-0.06094177460768866,"694":0.00614193503097592,"695":-0.0026043171868828556,"696":-0.005569831627542671,"697":0.042679689045329844,"698":-0.03360678264680248,"699":0.03238196913920979,"700":0.10082388667576153,"701":-0.006457449398502036,"702":-0.025730476020739128,"703":0.018199228775019772,"704":0.01800898710022381,"705":-0.02500943070725572,"706":0.04020519603564171,"707":-0.0186520823363696,"708":-0.03458035254774614,"709":-0.042876062968305054,"710":0.05961521021931304,"711":-0.004850452831429813,"712":0.014400870665406112,"713":0.06055468291815224,"714":0.004196319012213579,"715":-0.06335063101108651,"716":-0.012388559120207192,"717":0.02328213678075845,"718":-0.01108170456559763,"719":-0.009934528214070301,"720":0.03433204675289222,"721":0.0006455698324562156,"722":0.024309655640294386,"723":0.03509561838388928,"724":-0.06232676090093328,"725":0.021885093862138248,"726":-0.003874604361441631,"727":0.03229462917806892,"728":0.012910692711555578,"729":0.07924434716288614,"730":-0.03746136849566415,"731":0.06546096089707179,"732":-0.009379428476976225,"733":0.06508797940714088,"734":0.02064769943150183,"735":0.020682840008977885,"736":-0.03202875535080068,"737":0.03576650558361959,"738":-0.005535422820506281,"739":-0.024951139458859708,"740":0.026869194324830356}},{"sx":1,"sy":1,"depth":741,"w":{"0":0.03618715425966102,"1":-0.03514855540875204,"2":0.025612501133630748,"3":0.035221784331664896,"4":-0.04752711319054439,"5":-0.04519788738053387,"6":-0.01791249353746832,"7":0.01942254682303324,"8":0.021475426764473546,"9":0.037091002049959056,"10":-0.01642754605482961,"11":-0.03673080299575716,"12":0.029415085386102355,"13":0.01794265627029023,"14":-0.006006802443474969,"15":-0.014079089370187717,"16":0.030520903423187352,"17":0.07415041609380293,"18":0.06355494359240155,"19":0.0327296698840584,"20":0.04177412324443935,"21":-0.016909347676534812,"22":-0.01383168019994219,"23":0.02626469789181587,"24":0.020911751386695,"25":-0.013920205653197237,"26":-0.04410490693042079,"27":0.0037105353200166634,"28":0.039071521840520616,"29":-0.03179562557925943,"30":0.007168369313528927,"31":-0.013743811671102361,"32":0.04442535600043768,"33":0.051401749750885566,"34":-0.008289014948880336,"35":-0.010045431077782947,"36":-0.004289994699039902,"37":0.04707783223499225,"38":0.019864286528988112,"39":-0.05874547995042263,"40":0.013871773034516484,"41":-0.022905115315784253,"42":-0.020257012671781434,"43":-0.016137280169643674,"44":-0.005763492640218548,"45":-0.024859077035207615,"46":0.010092635048488783,"47":0.02921280764337512,"48":0.005547849391458174,"49":0.02647283555216529,"50":-0.008065919625138774,"51":0.010702303809944762,"52":0.025611442263656924,"53":-0.027471293732688064,"54":0.02432040334000235,"55":0.014531959503442608,"56":0.021183136839171657,"57":-0.0308936510468214,"58":0.021361085839263473,"59":0.02987879845826057,"60":0.04892156707543697,"61":-0.014188605663240263,"62":-0.008942866954368908,"63":-0.03809313108910796,"64":-0.023134210940747767,"65":0.040170542976109065,"66":0.043846994728808604,"67":-0.057843921383232334,"68":0.03961096955922832,"69":0.017741133671036902,"70":0.03484619510528034,"71":-0.0048450591847355095,"72":0.054864496361230954,"73":0.019852360661544142,"74":0.012553487898421105,"75":-0.031199487578876833,"76":0.006181294032873545,"77":0.06546026608728502,"78":-0.0038187190689152966,"79":-0.05064858638592165,"80":0.012824931051112883,"81":0.04081184833347989,"82":-0.011653115848498366,"83":-0.009499942410163694,"84":-0.007625851599597259,"85":0.05754669932752348,"86":0.04017371825446558,"87":0.04055599379887386,"88":-0.07871733113182852,"89":0.053227762213514426,"90":-0.011921736224123429,"91":-0.01123036945270534,"92":0.0023521759774683677,"93":0.002061801982157781,"94":0.03674801608806188,"95":-0.06404588207208252,"96":-0.006555850885547171,"97":-0.05519976879639057,"98":0.004118101935839715,"99":0.00013952234909877332,"100":-0.016790037332152213,"101":-0.07258840295716767,"102":0.05019112559429597,"103":-0.04579272233084791,"104":0.09727926550670196,"105":-0.009742494849625808,"106":-0.05894917789935864,"107":0.0215572822725095,"108":-0.009755379546201252,"109":0.06585532595094544,"110":0.08088605462287982,"111":-0.033279754810386614,"112":-0.013607538093461442,"113":0.019234038223172486,"114":-0.00205283874272506,"115":0.008744620229539292,"116":0.04848703693731747,"117":-0.037884642386635706,"118":-0.022028616526270674,"119":0.023336838607302936,"120":0.010970903278405691,"121":0.009301633424296692,"122":0.026464059619552716,"123":-0.02895906369848589,"124":-0.0008977369877572675,"125":0.08586854750689146,"126":0.07527323166065772,"127":-0.01711421066362585,"128":0.03748286731200352,"129":-0.03833108597165381,"130":0.004605911795702044,"131":-0.02681315109448209,"132":-0.004570108135718,"133":-0.010359844160212182,"134":0.03739739558532339,"135":-0.014953784890994734,"136":-0.020788187741781417,"137":0.04121725685636408,"138":-0.0013112773261367125,"139":0.014813873813072198,"140":0.055996203314838094,"141":-0.0038202141058686105,"142":-0.0007793626348869731,"143":0.06933005681313995,"144":-0.07231152791580293,"145":-0.014962080647180442,"146":0.06202967124305455,"147":0.007310486517439012,"148":-0.03214649171437123,"149":0.06598405957308788,"150":0.03053595814195963,"151":-0.004158031343146541,"152":0.04760514216184222,"153":0.03447598742587809,"154":0.037224658154277085,"155":-0.09216373444923065,"156":-0.047588689150970094,"157":0.0101735192203385,"158":-0.09372673244309553,"159":0.03311148571570271,"160":-0.041001153331116945,"161":-0.016055691320718674,"162":0.03675401016074671,"163":0.00906740249081899,"164":0.05225534924145705,"165":0.028465854132494334,"166":0.04129473067964147,"167":-0.02186696268017001,"168":-0.053395474347382295,"169":-0.020033687416020827,"170":-0.031657316700506276,"171":-0.03785927227911969,"172":0.01042813428747004,"173":0.03648856807683679,"174":-0.028825681152008023,"175":-0.08944409384294255,"176":-0.0073023428118047466,"177":0.06811461844212692,"178":0.051874599783970785,"179":-0.002680488534017459,"180":0.008122914859024596,"181":0.034334327681383656,"182":-0.07663472059446715,"183":-0.01190016619836723,"184":-0.02024241684781383,"185":0.05202421356219749,"186":0.07975539373939028,"187":0.017985363503590344,"188":0.029325552330251446,"189":-0.000920243123637367,"190":-0.013598584168821353,"191":0.022174977340049074,"192":0.006346608724037564,"193":-0.008922408725085986,"194":-0.016211898765248315,"195":0.028725303261717173,"196":0.0469122361836783,"197":0.040649266017416995,"198":0.00804837300465851,"199":0.09386769346193857,"200":-0.03055914168416383,"201":0.03831051911037937,"202":0.035963893360622015,"203":-0.055965881138054674,"204":0.008467914827021854,"205":0.06526430643542486,"206":-0.01941231122393516,"207":-0.021865723375847385,"208":-0.027240738247914238,"209":-0.06408642714746937,"210":0.08033688593196887,"211":-0.016268305419532475,"212":-0.004926680772110404,"213":0.04767150768250019,"214":0.0723204137047323,"215":0.04612984477172556,"216":0.05039546503746511,"217":0.03527522431887674,"218":0.024485412864228624,"219":-0.0504753132926503,"220":0.021397498257835348,"221":-0.0020891903940889476,"222":-0.027458123326062393,"223":-0.0348140311795345,"224":0.01924107811338508,"225":-0.02630632343493178,"226":-0.0021844309949861653,"227":0.022910179691935588,"228":-0.022868262766439395,"229":0.017260385439759066,"230":0.031711384611966716,"231":0.0222418720089561,"232":-0.010626017157927752,"233":-0.0774025979331154,"234":-0.003415728361102947,"235":0.07922982768678187,"236":0.0007872615072926463,"237":0.0014553769513399328,"238":0.04515422072695505,"239":0.03996638030680243,"240":-0.02932183907770042,"241":0.024742022310333515,"242":0.03242356431494714,"243":0.04213673413384324,"244":0.02766603167837359,"245":0.0013115855400133447,"246":-0.04760087780401068,"247":0.004889777292382788,"248":0.040271517469806395,"249":0.012494726036724338,"250":-0.005218108278969915,"251":-0.0007327087251549417,"252":0.022847830971300408,"253":-0.02040304601052266,"254":0.07674844031522546,"255":-0.012678641364706538,"256":0.017084864883891025,"257":-0.04396005639342743,"258":0.013614168318519464,"259":0.03970432607312983,"260":-0.021503804652075808,"261":0.0366542149536423,"262":0.08537139178842615,"263":0.00864194267053997,"264":-0.06178693130872976,"265":-0.002235029149057098,"266":0.06532134382137542,"267":-0.027350454090636786,"268":0.06173235178319653,"269":0.014797511818470282,"270":0.04046815279290172,"271":0.029591187553315294,"272":-0.008021341158094891,"273":0.06412180991080561,"274":-0.032589476483417375,"275":0.01644186615263149,"276":-0.0691096334367894,"277":-0.023418028151020075,"278":0.05568635148784268,"279":-0.02316844247267488,"280":-0.05321818681149241,"281":-0.04607017466570697,"282":0.0573075943671624,"283":0.033826287654857394,"284":0.052561863632968026,"285":0.036066963254176056,"286":0.014346342411342451,"287":0.05448245135452344,"288":0.0033095872764591374,"289":0.02558834765382713,"290":-0.006901226446722492,"291":-0.00769928072855911,"292":0.0595535621097672,"293":0.02837169740226538,"294":0.02025535009677081,"295":0.03793679749522427,"296":-0.014275488804271659,"297":0.030121426694906344,"298":0.0471165689879426,"299":0.025511201460309066,"300":-0.007458234995382191,"301":-0.04890440262037528,"302":0.0009472613789173795,"303":0.06358676901028043,"304":0.03289566202590482,"305":-0.037480566063630406,"306":0.01819830314067054,"307":0.033529856748475785,"308":-0.01691091798518834,"309":-0.0334827342942798,"310":0.037130800071466914,"311":0.031219354155795152,"312":0.03149941395394564,"313":-0.011164956587689796,"314":0.01692197983458746,"315":0.0028797848332425746,"316":-0.001196549553385053,"317":-0.027713016104795513,"318":0.00917594756122813,"319":0.07439244002887524,"320":0.05456960940047364,"321":0.06764905549126685,"322":-0.008331331997922057,"323":0.043149301541411535,"324":-0.04249483210548633,"325":0.01543638322980604,"326":0.02846504398215322,"327":0.04627133022598437,"328":0.02099195347265279,"329":0.025958519759751122,"330":-0.005446767442476287,"331":0.023633834523119457,"332":0.004326135623723934,"333":0.03454790423850561,"334":0.03029898707429291,"335":0.013658847042943166,"336":-0.03523851259301114,"337":-0.06074610015354657,"338":0.061439270847378664,"339":-0.0030107252584123294,"340":-0.009072732824689875,"341":-0.003179919014151342,"342":0.01730358447461616,"343":-0.003369991764115932,"344":0.09099676901003458,"345":0.06305605259408131,"346":-0.056355100695123055,"347":-0.05994197467927061,"348":0.037003823342091555,"349":0.028195669878985048,"350":0.008502302344600447,"351":0.006866697485635839,"352":-0.0558032550194801,"353":-0.04828514514010177,"354":-0.04124496160765286,"355":-0.0039878876424690604,"356":0.08034194646527254,"357":-0.01984935621037899,"358":0.022300303493970705,"359":0.04808018157007647,"360":0.05247763655735664,"361":-0.029552104160734515,"362":-0.06957379553605066,"363":0.017694572595023102,"364":-0.008309143944471175,"365":0.01945738761626951,"366":-0.0394099935618446,"367":-0.05676710252977703,"368":0.008193171442010865,"369":0.007192322760092624,"370":-0.01824868456772628,"371":0.008979997141075566,"372":0.016897290496667248,"373":-0.020202258553966786,"374":0.058056616958604396,"375":-0.029859182352765124,"376":0.05806891245661904,"377":0.013451069428830828,"378":-0.002779679365668078,"379":-0.03244752250996457,"380":0.04004944856693368,"381":0.04190527815134717,"382":0.024783405767479828,"383":0.004619350167372026,"384":-0.011609395846796846,"385":-0.05106723411266581,"386":-0.023313689324284625,"387":0.012100173124887046,"388":0.04592795622357153,"389":-0.02066087547842814,"390":-0.006382454716978948,"391":0.04657839323277421,"392":-0.0480367339049963,"393":-0.07363535242700021,"394":0.01378480739871562,"395":-0.07578043909267396,"396":-0.012514590026701656,"397":0.009446699683639688,"398":0.025472032571580816,"399":-0.03588807451148005,"400":0.008142331334764087,"401":0.03898380027451998,"402":0.02806700052343473,"403":0.07617526668757084,"404":0.044319744054630655,"405":0.004717816765315276,"406":0.08323902859015962,"407":-0.020793233289242888,"408":0.06008789439401707,"409":0.04959203730236693,"410":0.02808648136623453,"411":0.02890635564018895,"412":-0.05445681396390013,"413":-0.005279337700317429,"414":0.024613995676953604,"415":-0.02005064571842569,"416":-0.01457262087867076,"417":0.05635621438484259,"418":0.03839796521676788,"419":0.0008837564291685727,"420":-0.04374134165900978,"421":0.06257677335075795,"422":0.0017601474323243507,"423":-0.02529502597146896,"424":0.02214029201787542,"425":-0.02676128414384689,"426":0.06695579140446864,"427":0.011129278524559116,"428":-0.11698426647711484,"429":-0.009044538954955208,"430":-0.0017837557715766619,"431":0.016250090723944257,"432":0.08848645286649504,"433":0.06137947364682774,"434":0.035710580508836694,"435":0.05270750283182182,"436":0.015139550672701344,"437":0.02717034368030673,"438":-0.02071997570484569,"439":0.025828528685101975,"440":-0.008677650221385827,"441":0.023837121020301732,"442":0.02756295415772802,"443":-0.01922320267821754,"444":0.0442862547921015,"445":0.05563375400155841,"446":0.06238789378257438,"447":-0.026855858540315036,"448":0.008181765650441727,"449":0.08498892920012355,"450":-0.02082475605699686,"451":-0.026536089972645085,"452":-0.015688553079249105,"453":0.01602488920986829,"454":0.009059381463713241,"455":-0.029294942301502962,"456":-0.03206010495529193,"457":0.042959201085621276,"458":-0.018183892473969152,"459":0.0012533593290314008,"460":0.00041125692485976417,"461":0.0019850564358448747,"462":0.022733743226820688,"463":-0.00003905051566106048,"464":-0.013832435604812504,"465":-0.002533259360312278,"466":0.07376654130663536,"467":-0.021376865937239194,"468":-0.0031179864785647275,"469":0.014951961194283471,"470":-0.012343945125670807,"471":-0.03927493023143498,"472":-0.01119038046839751,"473":-0.03509570550345197,"474":0.020999786286832023,"475":0.031108562895480873,"476":0.0148597630356479,"477":0.015839439374887097,"478":0.022136632958896153,"479":0.04960795005376911,"480":-0.05700203802228043,"481":-0.01319292424815473,"482":0.026897888369681145,"483":0.028526103340618312,"484":-0.0010394470605266759,"485":-0.010286549132408574,"486":-0.026119774614766538,"487":0.0441125264260443,"488":-0.020754022800163106,"489":0.0187381969998497,"490":0.056712161002183896,"491":0.025779422970344787,"492":0.010111352460308767,"493":-0.010911288959336974,"494":0.046017365711034125,"495":0.030043429546373665,"496":-0.11799210712310397,"497":0.010110151295737882,"498":-0.05902756426359327,"499":0.022966618036314633,"500":-0.010561196416270171,"501":0.005745240705962241,"502":0.07178464066354107,"503":0.012098060230960814,"504":-0.05848736134946242,"505":-0.02485496483364917,"506":0.04443728923848551,"507":-0.010754565800916504,"508":-0.03327311660086475,"509":0.031684855700964826,"510":0.05260639628249036,"511":-0.007765731054112634,"512":0.09788353724779181,"513":-0.008288720380351769,"514":-0.051109991347988756,"515":-0.06335068926445554,"516":0.06207930718506215,"517":0.029068082469729965,"518":0.01399006706719493,"519":0.044990650811026676,"520":0.0041493472716288655,"521":0.02809272894826187,"522":-0.05242157471442332,"523":-0.007241848399053252,"524":-0.06695673159551546,"525":-0.02136617303870974,"526":0.01133693765316747,"527":0.0329722649678383,"528":0.027079098820080184,"529":-0.0072935760696219475,"530":0.04529717729228242,"531":0.03376756688272399,"532":-0.07225192498712861,"533":0.0015513804595467637,"534":-0.005463965820880938,"535":-0.011894724129421231,"536":0.0008847425956237482,"537":-0.03536868927628723,"538":0.023422469818327126,"539":0.0070813672615114235,"540":0.0232801678823344,"541":0.015854479607935776,"542":0.0017999061860628166,"543":0.02292706299492494,"544":-0.014577849664662973,"545":0.056303530231732256,"546":-0.0038508307060990863,"547":0.008511755667793403,"548":-0.03706565291162193,"549":-0.031361127098353585,"550":-0.001905600475470164,"551":0.01777579319207788,"552":-0.0026653272656088104,"553":0.05296216204338709,"554":-0.0439124171319822,"555":-0.0035905117791148766,"556":-0.03840062567300756,"557":0.0015294843811888678,"558":-0.013891030790020192,"559":0.03731666294975921,"560":-0.012119746909912082,"561":-0.01773785860318436,"562":0.022108115005280916,"563":-0.0042929630528480926,"564":0.010743885368424381,"565":-0.020327974514889983,"566":-0.00851213491148561,"567":0.01987324162052853,"568":-0.020561435191877125,"569":0.056326082676264815,"570":-0.037309453593574966,"571":-0.09202741633775523,"572":-0.0026229973062837043,"573":-0.04041824010768317,"574":0.08024843080455372,"575":-0.039433226712211986,"576":-0.04371710084119133,"577":0.04984274788957169,"578":0.034530250452365345,"579":0.016149392533407917,"580":-0.029482989559564993,"581":0.005948893019558564,"582":0.07086899749746864,"583":0.04734415375650925,"584":0.03617808184672885,"585":-0.03968021150422618,"586":0.005809233000049698,"587":0.012009823347633683,"588":0.08742311317621163,"589":0.0467317371745778,"590":-0.013874264916067825,"591":-0.004802186740947111,"592":0.0357946023117512,"593":-0.06321163427830853,"594":0.05573453274768304,"595":0.027688388980487342,"596":-0.019313635996567016,"597":-0.056311150547260776,"598":0.0029113913598509352,"599":-0.0005130953888819555,"600":-0.08174766007426834,"601":-0.07169817273927677,"602":0.019654087716996168,"603":0.03939480092744236,"604":-0.03868312776862801,"605":-0.039985361514583505,"606":0.03274766100158757,"607":0.07256375771445252,"608":0.016059108370220853,"609":0.02064326081233054,"610":-0.05248768239680011,"611":-0.041807457195213844,"612":-0.0137753728469696,"613":0.019914113365584612,"614":-0.01822531689916888,"615":0.05896145867500446,"616":-0.01653394177887234,"617":-0.007598589636856819,"618":-0.010631730804047631,"619":0.04181596449867004,"620":-0.0004376806230288674,"621":0.027286387630765598,"622":-0.019058072098818536,"623":0.004686725628050242,"624":-0.021804460874699446,"625":0.009998569183700895,"626":-0.02270289960602787,"627":0.11855931712987423,"628":-0.02008222339165403,"629":0.025243828545148703,"630":-0.02082342079012948,"631":-0.026455739951788695,"632":0.03369803585342873,"633":0.05180914654795476,"634":-0.05980271517466364,"635":-0.011338947072971763,"636":-0.02664183538780604,"637":-0.05079253280627211,"638":0.03859853722576908,"639":-0.04131668857418406,"640":-0.04840862558692971,"641":-0.0005551851731681578,"642":-0.0820674352864687,"643":0.004903829425547902,"644":-0.01802154353003314,"645":-0.04762675815361923,"646":0.01638541433713061,"647":0.040601153091196586,"648":0.03211678742234872,"649":-0.003995295630281828,"650":0.02075791665704277,"651":0.061717760137715814,"652":0.01566744370024784,"653":0.09803752059221214,"654":0.00855455809799389,"655":-0.04582770170380171,"656":-0.03125408675794971,"657":-0.004620705871576169,"658":0.03541018932924562,"659":-0.013249371791936082,"660":-0.02830991362077334,"661":0.007317581537327836,"662":0.02359567193132051,"663":-0.009116416008750414,"664":-0.018668513442228443,"665":0.03979509087530886,"666":-0.007556359380334598,"667":0.004831699112193436,"668":0.11158501492167724,"669":-0.00268384812750482,"670":-0.026966710706485306,"671":-0.03272382112750873,"672":0.020272596016676865,"673":-0.018267003862892355,"674":0.03933313181359708,"675":0.019349437394877017,"676":0.0018297960622447353,"677":0.019457924242794664,"678":0.03627283846487893,"679":0.0027254586329474462,"680":0.07196194766753616,"681":-0.05752017978477817,"682":-0.05487060930030509,"683":-0.05130342075685461,"684":0.0241035109359101,"685":-0.031011175670461192,"686":0.009464696153489608,"687":-0.03031701708918975,"688":0.028922673049508442,"689":0.033386367163901205,"690":0.013741650643910927,"691":-0.04877123027147598,"692":0.02458131755646591,"693":-0.04728144260363592,"694":0.0077197969273706205,"695":0.03418709913288764,"696":0.02305927191821025,"697":0.005232306496318496,"698":-0.023283268193537855,"699":0.045703955556894764,"700":-0.0070831583789708295,"701":0.04336518635309045,"702":-0.03108882355776236,"703":-0.0028265784351054484,"704":0.0455919597065907,"705":-0.006603492011995092,"706":0.00348245030477099,"707":0.0292412154178439,"708":0.03131894269503855,"709":-0.006879106430377646,"710":0.01886338202286438,"711":0.035955778840920355,"712":-0.02332994334483051,"713":-0.04000077257865934,"714":0.013329224515447458,"715":-0.013329365355243039,"716":-0.032222774538289686,"717":0.06777359322744184,"718":0.012858294289203025,"719":-0.009224559466633113,"720":0.001228953897489419,"721":-0.029636666340615493,"722":-0.0018627019127756743,"723":0.042062263622426335,"724":0.002474827493129901,"725":-0.007416261105066759,"726":0.05066592169330961,"727":-0.01912806376729188,"728":-0.033254704637082876,"729":-0.05343003220733786,"730":0.04178212972836389,"731":-0.002259499777107285,"732":0.0075978930170770235,"733":0.006490011144268544,"734":0.05911848693442048,"735":-0.055163054359764374,"736":-0.012507825455496986,"737":0.03009942350291586,"738":0.06365456903818749,"739":-0.020997707936619054,"740":0.005868840217299972}},{"sx":1,"sy":1,"depth":741,"w":{"0":0.026727111227566658,"1":0.061759575590781324,"2":0.03353252704534069,"3":0.07113873911005571,"4":0.01847576112456478,"5":-0.029948145343929207,"6":0.023397712006389765,"7":0.054584325284629476,"8":-0.024586291195816085,"9":-0.013323504838775682,"10":0.006071003506165522,"11":-0.06059228602133739,"12":-0.0634670177776598,"13":0.054855668464572474,"14":0.05847629574145492,"15":0.033453756302777735,"16":0.05267295784841835,"17":-0.015732695473500376,"18":0.012974806680831976,"19":0.024207167248265667,"20":0.06164025233684248,"21":0.030632653848325208,"22":-0.083619415067247,"23":-0.002254534615323155,"24":0.02787257253612842,"25":0.01556588225925027,"26":-0.001331518359969634,"27":0.08201119512465967,"28":0.07764969233153536,"29":0.043688620110397196,"30":-0.01692509079891066,"31":0.008808271866678966,"32":0.0548167155940206,"33":-0.003130238856854998,"34":-0.018628678319676996,"35":0.053946905952912176,"36":-0.017532184672306196,"37":-0.04769918571704726,"38":0.012157954244925318,"39":0.03127945484773368,"40":0.05864061996491694,"41":-0.029572618112631014,"42":-0.004006586826998594,"43":-0.060220219111827594,"44":0.025394142108229947,"45":-0.0037897125156103966,"46":0.04986168068843244,"47":0.027394152103924603,"48":-0.037380110744720446,"49":-0.08269498247344093,"50":-0.02794842231610155,"51":-0.00904831148864153,"52":-0.04052802180941051,"53":0.00926117468040844,"54":-0.005291372978648165,"55":0.06885726135942959,"56":0.008924763669211383,"57":-0.016523721700986982,"58":-0.04772659732451108,"59":0.060764208496257875,"60":-0.054725129641819734,"61":0.00645238582146399,"62":0.08352765877226141,"63":0.01483399266255459,"64":-0.028947859857870507,"65":-0.07302175567732794,"66":0.009606769226444644,"67":-0.0195477135789225,"68":0.08419042589749717,"69":-0.009954013352434156,"70":-0.02051954833315342,"71":-0.02001265920537694,"72":0.04208681864629234,"73":-0.05152219714334354,"74":-0.023621838798541576,"75":0.012320514556622643,"76":-0.05210449064740036,"77":0.015298824427932378,"78":0.028184145960777496,"79":-0.014632890538515407,"80":0.004444053958983731,"81":0.06727808483562094,"82":-0.07357349936659974,"83":-0.02126402350560981,"84":-0.002966890643531429,"85":0.0038859801350054715,"86":-0.017353747441992997,"87":-0.11538453680645414,"88":0.0014505758791493301,"89":-0.03542118818882306,"90":-0.05086865754056494,"91":0.008241338727099243,"92":0.02976012101099551,"93":-0.045331300956601595,"94":0.033651829966691506,"95":-0.041958048738853324,"96":-0.040840226966226266,"97":-0.0502823711570012,"98":0.01502733376432026,"99":0.028400920108798425,"100":-0.03647065678270208,"101":-0.020712105636728352,"102":0.01761947874981957,"103":-0.032494080432949345,"104":-0.03421250451354424,"105":0.06040131290320627,"106":-0.00790899565575323,"107":0.021930510872080932,"108":-0.01758159915096565,"109":-0.02907127912165068,"110":0.02387996597395423,"111":0.02737883013261472,"112":-0.030889967169831774,"113":0.021880792035924194,"114":-0.011440404057635868,"115":-0.04317591195514924,"116":-0.015315464289700344,"117":-0.06470381813598997,"118":0.04328846610692387,"119":0.013081541750951125,"120":0.022670521984915183,"121":0.05159568819509324,"122":0.017852847661252974,"123":-0.006161414109059189,"124":0.08470418238880623,"125":-0.018168034474790297,"126":-0.02206130002711875,"127":-0.002800217285115327,"128":-0.013390429223144667,"129":0.02886112610576594,"130":-0.012301446708289481,"131":0.0020846162213337197,"132":-0.021336922838960874,"133":0.1573030870909346,"134":-0.03714781713356393,"135":0.008150496190937922,"136":-0.0068986704582348615,"137":0.037524923527254644,"138":0.0209498062110805,"139":0.001254171217511802,"140":-0.009824717161465815,"141":-0.035625060681056635,"142":-0.004563018046007348,"143":0.011023686501036837,"144":-0.046229188911603165,"145":0.0436344116088899,"146":0.07993573615641249,"147":-0.03136915544621936,"148":0.009947908038440319,"149":-0.0065173396296581455,"150":0.08400580748010406,"151":-0.07459559594642273,"152":0.02541330906488207,"153":0.024903711254832674,"154":-0.026453511838070463,"155":-0.025642871349427693,"156":-0.06414133101764538,"157":0.05096218856087044,"158":0.004616767594018071,"159":-0.031182225289132677,"160":-0.009082708045189678,"161":-0.043508519091726566,"162":-0.012576414265615737,"163":0.1211746133901929,"164":-0.039013601756668084,"165":-0.06330860596230668,"166":-0.1006327748168442,"167":-0.0645622325769369,"168":-0.004827662810277687,"169":0.04225437991823784,"170":0.06392742642683223,"171":0.03989170642281166,"172":-0.027270867279750536,"173":-0.036350547359136454,"174":-0.07692737410786674,"175":-0.02438249135512981,"176":-0.0008048370707650169,"177":-0.12418918083571216,"178":0.07604144086664935,"179":0.02132933000915327,"180":0.02519030281911636,"181":-0.02426121877258431,"182":0.02111494061063558,"183":-0.019302478389378225,"184":0.004433944626496488,"185":0.012432785786042535,"186":-0.023403818163212145,"187":0.0020351126811359007,"188":0.028383276551978028,"189":-0.009701286369566796,"190":0.020074249188965748,"191":0.038234527485420534,"192":-0.03290122598743742,"193":0.01802801683744811,"194":0.015269913185952009,"195":0.05098144362540218,"196":0.00936795777993463,"197":-0.0002750686217954246,"198":0.00866581454324722,"199":-0.031033573111393757,"200":-0.03859233129806027,"201":-0.018529179095053916,"202":-0.05004790296466894,"203":0.011690964843942643,"204":0.012175593604821958,"205":-0.02290476435464728,"206":0.011579013470772706,"207":-0.004150185228684567,"208":0.007276405173739377,"209":0.041813329358127004,"210":0.00899219072095744,"211":0.02391320561686576,"212":-0.037034943799492175,"213":-0.014175579939456754,"214":0.0009515156891335982,"215":0.08949851143529787,"216":-0.06369668513054062,"217":0.0010209241142334785,"218":-0.012440819582453964,"219":-0.012292782281976666,"220":-0.04683393928128946,"221":-0.000023037701257983096,"222":0.02855988166937769,"223":0.00931092450267546,"224":0.0028786397262445472,"225":0.0011395873108342581,"226":-0.025034550116273147,"227":-0.0043352606452411084,"228":-0.007090286158131691,"229":-0.024274092858092497,"230":-0.03672016488315669,"231":-0.10327726984189116,"232":-0.02356291101497276,"233":-0.05252195862594034,"234":-0.016736604310602213,"235":0.09723391302789518,"236":-0.00518304064013246,"237":0.04341612751536372,"238":0.0010331017691661806,"239":0.003840091118112664,"240":0.02235486922989952,"241":-0.005049701978140007,"242":-0.05847248873370124,"243":-0.04681150061442708,"244":0.034508568164593724,"245":-0.011197518020999095,"246":-0.09361132680940538,"247":-0.015096727947157102,"248":0.021455915591940333,"249":0.09252710551287384,"250":0.030104187374777967,"251":0.02591212079988585,"252":-0.02082251056549786,"253":-0.0451720749854322,"254":0.060835784858553066,"255":-0.012425674912341299,"256":-0.10538503604165605,"257":-0.004757606059199696,"258":0.016116137081409295,"259":0.056392305112504655,"260":0.012407281599394653,"261":-0.04960613624751817,"262":0.06512302674353379,"263":-0.032213888158248195,"264":0.03557395322221891,"265":-0.014652492594622526,"266":-0.06028563927032027,"267":0.003458267831292189,"268":-0.02259706615114289,"269":-0.07520850614012324,"270":-0.018761455605768935,"271":0.0051624760152484276,"272":-0.04684827749866997,"273":-0.06512087392152889,"274":-0.025697966389684315,"275":0.04069324180418415,"276":0.024747304764933482,"277":-0.011854364009779147,"278":-0.01696851244262167,"279":-0.045789330069583904,"280":0.08753361542594092,"281":-0.034404759192381305,"282":-0.05023493021290392,"283":-0.055107349041368665,"284":0.02486998814925029,"285":-0.049210774421404084,"286":0.00889629870787873,"287":-0.006631364668433197,"288":-0.0472146169202947,"289":0.003706174257899088,"290":0.004866668918663378,"291":0.01074131493698534,"292":-0.0020145341133958193,"293":0.02961579057134756,"294":-0.04719157614899952,"295":-0.03801844193400753,"296":0.02820058799001601,"297":-0.04032569415813677,"298":-0.05613151284404279,"299":-0.060342265670089885,"300":-0.02762138612320442,"301":0.051835620394841395,"302":0.022470259703994612,"303":-0.0365946311617474,"304":0.0034850570796365935,"305":-0.02434790192747044,"306":0.08246666866167637,"307":-0.03000388126442214,"308":-0.04760948367518659,"309":0.012324598034142315,"310":-0.0061001869698210955,"311":0.03095593660114153,"312":0.10300733309452774,"313":0.013769610411650573,"314":-0.00011122048572519823,"315":-0.015530964036461096,"316":-0.0410815561340537,"317":-0.017119006834511723,"318":-0.06705505710910478,"319":-0.018509963695934616,"320":0.03512030703587291,"321":-0.010002796447673781,"322":-0.033167792101901815,"323":-0.012112968847046443,"324":-0.0589102559469247,"325":-0.008338138004772818,"326":-0.015352472987966074,"327":-0.030753623923153423,"328":0.02437713789922583,"329":0.008952076097107763,"330":0.02638486069503824,"331":-0.11292230514166998,"332":-0.01601734284138151,"333":-0.01119841536660575,"334":-0.0449811602864231,"335":0.051143169891915266,"336":0.03572046902827469,"337":-0.007142003446482936,"338":-0.029034632815376327,"339":-0.06615454495701747,"340":-0.002484872561814216,"341":-0.0648997544573646,"342":-0.04068719521838729,"343":-0.06320418069433444,"344":-0.012763544616867883,"345":0.04244171508286443,"346":0.010699100972398162,"347":-0.060789483894255536,"348":0.016410657733858906,"349":-0.047255855089851216,"350":-0.02076707433284437,"351":0.02991565149256019,"352":-0.03744012493123723,"353":-0.00993301558355883,"354":-0.00513523066655886,"355":-0.00923149582773292,"356":0.03606632526179598,"357":-0.02006726482132376,"358":-0.025005082538411754,"359":0.03745786230746375,"360":-0.02817480654328447,"361":-0.009741026940500427,"362":0.015945633383948284,"363":0.028214243494536446,"364":0.06833229637375056,"365":-0.03056493474152012,"366":0.009277854919517294,"367":0.0094506499362855,"368":0.015266423884025625,"369":-0.10075361402956785,"370":-0.04761591849648761,"371":-0.042420244862179615,"372":0.024442869363651955,"373":-0.009389149765841548,"374":-0.021657572242806934,"375":-0.012819482463437596,"376":-0.012237654730530002,"377":-0.04977663683919032,"378":0.06076455670611876,"379":0.048611869186770275,"380":-0.020815318235819946,"381":-0.061330735530986585,"382":-0.023100189664798276,"383":-0.01237635864466882,"384":-0.08606691611098376,"385":-0.034521382980383174,"386":0.04747032494323505,"387":0.010187744304811543,"388":-0.1025735888658727,"389":0.0451240886942539,"390":0.018074143177816162,"391":0.023025312189798232,"392":0.06503324998506647,"393":-0.07378441288288928,"394":-0.026552241821220585,"395":-0.04702695757743571,"396":0.014553540496126676,"397":-0.05290656550140497,"398":-0.02120377211078793,"399":0.0274364448920207,"400":-0.07091599786477874,"401":0.03002322010938585,"402":-0.043493224233435684,"403":-0.01706072808332434,"404":0.013127578353905536,"405":0.035889776832906686,"406":0.03759194762894169,"407":0.0175274516168794,"408":-0.05657718161489668,"409":0.027922542731632184,"410":-0.06980806559010644,"411":0.0014535347672831418,"412":-0.0006082311724955666,"413":-0.017860958162604305,"414":-0.05126940936792032,"415":-0.019798332418048046,"416":0.010155165261617888,"417":0.06605631439364167,"418":0.06928590064482013,"419":-0.029413894270515217,"420":-0.05328794573829531,"421":-0.01690474537771442,"422":0.048643807933169324,"423":-0.03962494584470324,"424":-0.03145429486850781,"425":0.04815325741189382,"426":-0.006305555527900072,"427":0.027831892989000857,"428":0.0043452744388243515,"429":-0.007720463379750041,"430":0.004476669634772892,"431":-0.021902594828626453,"432":0.03791673486618426,"433":-0.02330035905420966,"434":0.014723546532485926,"435":-0.0756389689067578,"436":0.035819812204255265,"437":-0.036512416272381006,"438":0.008551355872635641,"439":0.0282495921712722,"440":-0.04601917465303607,"441":0.038017026690418655,"442":-0.05472495818600455,"443":0.035377228428675044,"444":0.04009289532285073,"445":-0.005199171032495892,"446":0.05265181409377678,"447":0.004559181924414378,"448":-0.05262419984461743,"449":-0.08046615582227913,"450":0.06084783483823143,"451":-0.011813887780395632,"452":0.0007401876913043974,"453":-0.016489539282001055,"454":-0.023526443067709676,"455":-0.015163248880493186,"456":-0.02732452349089066,"457":0.05584932843963878,"458":0.036222169645880084,"459":-0.05985550301409843,"460":-0.09718281758188475,"461":0.03902406437246488,"462":-0.07782253527140871,"463":-0.010370148530211822,"464":0.0018135289870679291,"465":0.01485436498180364,"466":-0.050472302884747945,"467":-0.03372373991827516,"468":0.00947417249892553,"469":-0.009716947804963533,"470":0.037934299588870624,"471":-0.11754734184651393,"472":-0.024191049691944803,"473":-0.009086693521009251,"474":-0.03850895466290998,"475":-0.10734398685243315,"476":0.018779388507715107,"477":0.014832300584109939,"478":-0.05467883899149982,"479":-0.03164834976146352,"480":0.05028172080954827,"481":0.0435569262864044,"482":0.04117156437784825,"483":0.0004165534130119982,"484":-0.06480716395502018,"485":-0.03199398451012558,"486":-0.033458230775742386,"487":-0.10762183844638984,"488":-0.06937768095572781,"489":-0.03757705921574181,"490":0.003527475367992397,"491":-0.07332490397029245,"492":-0.0046854683977819315,"493":0.05724040667245404,"494":-0.01893529223964509,"495":0.04185182471088277,"496":0.005624897420630346,"497":0.02087393690613257,"498":-0.036418224242358015,"499":-0.03277966190372733,"500":-0.021276299702109685,"501":-0.12660841998342764,"502":-0.01956738432206918,"503":-0.023075999634819697,"504":-0.010398475284810986,"505":-0.025280896052616495,"506":0.010905449577878899,"507":0.038024682955760246,"508":0.031676315299984804,"509":0.04076203576398739,"510":0.0021864851765739254,"511":-0.027419812921070767,"512":-0.014559514290574607,"513":-0.03001478662898488,"514":-0.06114194262417788,"515":-0.06412885453258978,"516":0.024268028404802806,"517":0.0030722964749732057,"518":-0.0003842536037508394,"519":-0.02266302702094205,"520":0.02648662829414434,"521":0.010155293727908294,"522":-0.008148127445521673,"523":0.05533085606103627,"524":-0.08799487584066654,"525":-0.1273944709234666,"526":-0.05922846221734536,"527":-0.06705078286031832,"528":-0.04998038172359093,"529":-0.02587415883011642,"530":0.025302647813001445,"531":0.0845130001552982,"532":0.0724004000248601,"533":0.024727270883443713,"534":0.04344059012011622,"535":-0.03261630069499132,"536":-0.04139796959509714,"537":-0.05536948466273341,"538":-0.0608033889345339,"539":-0.08138560549195349,"540":0.029746749723134402,"541":-0.02539466690430503,"542":0.048728846232448615,"543":0.030004905560074204,"544":-0.04001477863317849,"545":-0.020954907801031063,"546":0.0008059493311454443,"547":0.04990462612967852,"548":0.006808758830641731,"549":-0.00862892034969859,"550":-0.08778274624273516,"551":-0.08930331222450126,"552":-0.01779784749688661,"553":-0.051549747123470824,"554":-0.023867299721894022,"555":-0.007580155509953486,"556":-0.05371658988950006,"557":-0.000720767526509659,"558":-0.0195851213466417,"559":0.02826462809409658,"560":0.013525584552830025,"561":-0.031660026645724884,"562":0.018627853176303378,"563":-0.032204862186496985,"564":-0.0926778184635978,"565":0.01513995039962209,"566":-0.06556702403278553,"567":-0.04402737507474695,"568":-0.012275516029275898,"569":0.050226664662432176,"570":-0.018595463179664627,"571":-0.011362971622335393,"572":0.024358097801302797,"573":0.004464390870968765,"574":-0.050426810082908655,"575":-0.041674344360097836,"576":-0.06808382634466635,"577":-0.10327751732132417,"578":-0.03912260281382454,"579":0.004849528082874156,"580":-0.05102199819340911,"581":-0.011067315337349722,"582":0.03810098100344258,"583":-0.009936052498561212,"584":0.03037599049070299,"585":0.11866642165443375,"586":0.04372662930745413,"587":0.05054841390608347,"588":0.042565120633790476,"589":0.041662064480107765,"590":-0.031216252850360685,"591":-0.06466272406709443,"592":-0.14371189822816402,"593":0.016507171481794498,"594":-0.025076487883856136,"595":0.015667361261655185,"596":0.008659370338544402,"597":0.011870265987023709,"598":0.03263276007769958,"599":0.013288929940592532,"600":0.05319232205500337,"601":0.002663257623465568,"602":-0.03446654368914583,"603":-0.03126832407890952,"604":-0.06747238070615291,"605":-0.010510844877497066,"606":0.006194540128458888,"607":-0.021795669518588894,"608":-0.036367951171482296,"609":0.013827489074172982,"610":0.11006736831525804,"611":0.003280870027044141,"612":0.014697916582766046,"613":0.05682566549894814,"614":0.011902656610660402,"615":0.007673945315729074,"616":-0.020097798238613865,"617":-0.027058590945493524,"618":0.07344363305461826,"619":0.02163073467714761,"620":-0.04455155872564684,"621":-0.04842188781249229,"622":-0.009372421821852675,"623":0.03965795673731023,"624":0.015587984112959426,"625":0.029910073729820325,"626":0.04001890598054648,"627":-0.023572629747241187,"628":0.027426454015945192,"629":-0.0530585187575344,"630":-0.0048952016226252604,"631":0.04590482407083736,"632":0.046876290207177186,"633":0.011907153843158609,"634":-0.009226792189968972,"635":-0.05069979274474405,"636":-0.0528657315598108,"637":0.047550055847316225,"638":-0.004215864230475474,"639":0.08666089533078097,"640":0.02594377224745331,"641":-0.00433586076852698,"642":-0.11210395303282401,"643":0.03265856889298791,"644":0.04706680800952879,"645":-0.037330069599987484,"646":-0.02758772058686304,"647":-0.02870601651925366,"648":-0.00686878198118819,"649":0.030348941315334884,"650":0.04238423073676618,"651":-0.04999947439031021,"652":0.08795345244178375,"653":-0.009223212995574825,"654":-0.03481910845139591,"655":-0.14947194646516612,"656":0.022836024131732774,"657":0.10897340757305321,"658":-0.0004371937333349895,"659":0.052782563306663,"660":-0.022902295737180427,"661":-0.0007057460010636963,"662":0.02987354985262053,"663":0.05138605445951126,"664":0.04232968442356811,"665":0.09094949830914839,"666":0.02519535610171245,"667":0.0005008299041598249,"668":0.0030703878780072007,"669":-0.00011218689424738752,"670":0.10161607637409978,"671":0.015128270277109992,"672":-0.055300544313218,"673":0.005116241629542316,"674":0.009663437983448837,"675":0.018749263047648925,"676":0.0536996006477895,"677":0.08468166103637355,"678":-0.00956348553009185,"679":-0.03913075365549006,"680":-0.04504570693330136,"681":-0.02781948510116035,"682":-0.059550268234442406,"683":0.054798334718019225,"684":-0.04533971597195681,"685":0.03156157382286839,"686":-0.011502858594729019,"687":0.02399611679291275,"688":0.025925809954714336,"689":0.0439255848951885,"690":0.10082107513910818,"691":0.02593419323481096,"692":0.003938853119021612,"693":-0.06680834209890021,"694":-0.026359918636650163,"695":-0.08419483664615152,"696":0.03354901376104082,"697":-0.07882506299956106,"698":-0.053217994946428135,"699":-0.07692897465902847,"700":-0.01806604710260963,"701":-0.008118469301108934,"702":0.036710392912068165,"703":0.007053523736829895,"704":-0.014764217845461005,"705":0.001859469871614011,"706":-0.05377520394115986,"707":-0.09697025592639666,"708":-0.07785447265473026,"709":0.015963235102364626,"710":-0.021791440558533333,"711":0.07360254976122968,"712":-0.014537636007920691,"713":-0.041673283577402416,"714":-0.01311175792970094,"715":0.039620817733624435,"716":0.016476930643395168,"717":0.0067876254230504265,"718":0.038518270327470815,"719":-0.0018814234144321933,"720":-0.14903563106926934,"721":0.0127094796885476,"722":0.010455324548967844,"723":-0.07410592349826002,"724":0.024025193870829107,"725":0.004720780844003782,"726":0.051416168952678275,"727":0.027974011913767822,"728":-0.03350512209275196,"729":0.04783305961557001,"730":-0.05114043109755168,"731":-0.013973154943003732,"732":0.05850458485378369,"733":-0.05861591209246653,"734":0.004997146354956214,"735":0.09576192621477214,"736":-0.031819565074465345,"737":0.023204254590475454,"738":-0.02561638269136821,"739":-0.03724533194640439,"740":-0.03516383793878019}},{"sx":1,"sy":1,"depth":741,"w":{"0":0.024647120099607102,"1":-0.04424614793843127,"2":-0.07425077831018218,"3":0.02156930421083846,"4":0.0401344696303003,"5":0.01513848193823516,"6":-0.06879348922411552,"7":0.08574667025603212,"8":0.025477500142135324,"9":0.018202069554896377,"10":-0.0077989818331901375,"11":-0.006289127419931301,"12":-0.04211235344979511,"13":0.029509366987494623,"14":0.05043786494658253,"15":0.027597099587608896,"16":0.017565888631112147,"17":0.03907307251159597,"18":-0.08866043175717243,"19":0.0068047910662121765,"20":0.02445851922817574,"21":-0.014069005841282851,"22":-0.029034956683004057,"23":0.0202195902753304,"24":-0.0042443430749475545,"25":-0.02516387980958062,"26":0.007475998940418058,"27":-0.003865044170520374,"28":-0.0204778290823591,"29":-0.029324421093669648,"30":-0.014430254151777455,"31":-0.001909020161468541,"32":0.039201753263353394,"33":0.04930699698414508,"34":-0.002140712702035595,"35":-0.01941488764504238,"36":-0.012980506254908916,"37":0.028450889300676907,"38":0.0031325571385036072,"39":-0.007888611995455477,"40":-0.020901580172530097,"41":-0.07112639965888348,"42":-0.053590811659771,"43":0.08983149366090017,"44":-0.028181527510743182,"45":0.02633022258415826,"46":-0.04891341468908117,"47":-0.03306874878940679,"48":0.026536954249250157,"49":0.01769832836423218,"50":0.013554760203864804,"51":0.009653678224091689,"52":-0.04851237314106905,"53":0.042986922890055936,"54":-0.01503451373292292,"55":-0.020586698485652196,"56":0.04227233725387385,"57":0.024652881770227314,"58":0.029929655229694634,"59":0.026896583716665617,"60":-0.006525141018536618,"61":0.07600674246077106,"62":0.06394787578695686,"63":0.006303088001306051,"64":-0.0025773097935965434,"65":0.0010125350025496644,"66":0.06387352104629823,"67":-0.021752608893388117,"68":0.009825407941519418,"69":-0.0625329148190268,"70":0.007699412624315892,"71":-0.034776016749332235,"72":0.010104807014458988,"73":0.03252646944386736,"74":0.04546120517775685,"75":-0.04029635988224609,"76":0.025417596999768293,"77":-0.004372077640081626,"78":-0.012300057563778919,"79":0.02872580394337503,"80":-0.012235079510786439,"81":-0.04090365087349395,"82":-0.017911733072474553,"83":0.04756010727862298,"84":0.07612501662707317,"85":0.004691406802078618,"86":0.024580563581856375,"87":0.013453082417272784,"88":-0.026093644512677486,"89":0.06780454721164807,"90":0.025648818288078853,"91":-0.027021241410784675,"92":0.06390080751475208,"93":0.024531245379862822,"94":0.022506762951981587,"95":-0.0071623271267981,"96":0.014049970790409434,"97":0.031145076998683442,"98":-0.014179347579706209,"99":-0.04565433815361832,"100":-0.003950380804807536,"101":0.047244550698261625,"102":0.05807100015412972,"103":-0.00578518403034604,"104":-0.016924852205387787,"105":0.04386773374060267,"106":0.009196660859595052,"107":0.0351332283291779,"108":-0.02689264529473971,"109":-0.008307049806785339,"110":0.025231758899472757,"111":-0.01659011199689673,"112":0.02663409844245305,"113":-0.010687331054247467,"114":0.035058910770529014,"115":-0.00828199587435765,"116":-0.02726539097746686,"117":-0.03462402330125164,"118":-0.0842786693253224,"119":-0.03940586332514511,"120":0.02117598018078882,"121":0.04328660360637352,"122":-0.03956429301678195,"123":-0.0015881291311703476,"124":-0.03873526246799913,"125":0.020621989093177095,"126":0.06123715111386077,"127":-0.020553175381105553,"128":0.0029067194847105546,"129":-0.011787974630546642,"130":0.03149417799749722,"131":-0.019107891291911223,"132":0.005345043691500869,"133":0.0627845493300451,"134":0.01715360770421183,"135":0.037806751719543716,"136":0.037713772148407765,"137":-0.06573127208892778,"138":-0.011759061964583201,"139":0.0036730734500280333,"140":-0.014788231784985156,"141":-0.041392930065079096,"142":-0.11088513042441729,"143":0.036620025683577626,"144":0.03779966741889223,"145":-0.04536553880032562,"146":0.014552467569633173,"147":-0.029706823046400745,"148":0.007864994643730755,"149":0.002946023879334819,"150":0.029729896951752446,"151":0.026896464615482955,"152":-0.035223082108684724,"153":-0.01366658181031778,"154":-0.024174217410167998,"155":0.00948491098404193,"156":-0.05088357226561217,"157":0.012296401956815136,"158":0.004977128947276468,"159":-0.012948738357542938,"160":0.04878157774376769,"161":-0.05921723897324545,"162":0.009465006387660579,"163":0.047096936524034565,"164":0.02869256225002426,"165":-0.03144570891557755,"166":-0.027024594727895274,"167":-0.004664223749597542,"168":-0.011941732710594795,"169":0.002051620062825355,"170":-0.006618682524010294,"171":-0.06917685502536691,"172":0.042891329707655516,"173":0.050348181507282146,"174":-0.021182039830923472,"175":-0.0058300048551436934,"176":-0.035491645477756045,"177":0.032617213978950226,"178":0.034098547615281596,"179":0.03182971506177253,"180":0.014097554990400215,"181":0.02724780911671024,"182":0.007021471092076714,"183":-0.014645395883368604,"184":0.028837547865071974,"185":-0.02993430319001758,"186":0.001255605047799233,"187":0.05539261785639811,"188":0.07613187827390988,"189":0.03885239432969146,"190":0.00036627178614093934,"191":-0.001763973196774333,"192":0.019762122163184095,"193":-0.024173392069574685,"194":-0.00007302328868824157,"195":-0.02845881014457338,"196":-0.050605361739889665,"197":0.05539268333062893,"198":-0.05479338005819879,"199":0.004744938716930919,"200":0.04379748915562743,"201":-0.03215594017703518,"202":0.014439331748534843,"203":0.00002222875311386296,"204":-0.01821802228333732,"205":-0.0313939178078398,"206":-0.029864331814911934,"207":-0.0045220983721659955,"208":0.015796609709625917,"209":0.030309279852838874,"210":-0.02633481644192077,"211":-0.022179404913577158,"212":0.029267647824615564,"213":0.00003619985575235604,"214":0.0857740662661344,"215":-0.03429919148032098,"216":0.02204116422257023,"217":0.012172659897952067,"218":0.012929345294296228,"219":0.013592730344010045,"220":0.03545103421564408,"221":-0.02185615401981158,"222":0.02483771949260079,"223":0.006911678369069585,"224":-0.003730164972703777,"225":-0.0009768797871326364,"226":0.006563154938856024,"227":0.04277849556269524,"228":0.027202821593532604,"229":-0.021617571883080715,"230":-0.006953039158385239,"231":0.029186117370857884,"232":-0.005341923577746304,"233":0.0583168112883752,"234":-0.1032754489073645,"235":0.036480700709579976,"236":-0.026747982235807318,"237":0.004915597805860157,"238":0.06558387277714546,"239":0.10454462876721198,"240":0.0038600097528822194,"241":0.007532451648074428,"242":0.004561026620425352,"243":0.02501998177230292,"244":0.04430973040330812,"245":-0.03479289524426542,"246":0.06296472829999018,"247":0.019076884880731233,"248":-0.0026404895840014524,"249":-0.004983979860968971,"250":0.07559127681043494,"251":0.0600114725684507,"252":0.0007136064763948481,"253":0.04522124592228806,"254":0.02240398552807025,"255":0.05143221039317399,"256":0.032013993748304485,"257":0.03419892756528002,"258":-0.06960755623136167,"259":0.01653971817986066,"260":-0.025622304750774122,"261":-0.03050770224380652,"262":-0.06171074716015273,"263":-0.06482319575109921,"264":0.0014995951325690244,"265":0.0048345846160305,"266":0.0005496547787174078,"267":-0.04116848490862911,"268":0.012345685606655022,"269":0.05321916799052741,"270":-0.019332848292351608,"271":0.018381758606952944,"272":-0.01827195785541737,"273":0.09047200565740221,"274":-0.008594379977948388,"275":-0.05311466240884864,"276":0.08072375341645606,"277":-0.0019942250435845076,"278":0.03770483276548545,"279":-0.006153249912069229,"280":0.020128281599727987,"281":0.0465807853312419,"282":0.016079178933375477,"283":-0.008135056355577408,"284":0.020248240192778016,"285":0.003026470612382274,"286":0.0377908971930771,"287":-0.05388003682128596,"288":-0.07823948679913656,"289":-0.031654952480554395,"290":-0.01572364665133095,"291":0.0396543322055688,"292":-0.0029691674816504127,"293":0.016066799594350735,"294":0.03250414026114053,"295":0.08320860970945616,"296":0.04223971759879442,"297":-0.03897685092387509,"298":0.01652843379885042,"299":0.02122171503295788,"300":0.03201459760473914,"301":-0.044428030296527324,"302":0.011223417357515576,"303":0.014988750298463976,"304":0.009531770799215382,"305":0.04605940535269029,"306":-0.006137951498443197,"307":0.011278077423215504,"308":0.014728203077015879,"309":-0.05468625349018869,"310":0.04846831113791976,"311":-0.05132278390485052,"312":-0.0735157159056178,"313":-0.022997528557529606,"314":0.006916963337169872,"315":-0.017323437826537814,"316":-0.006546177810566803,"317":0.039328634057034274,"318":0.06719663228722807,"319":0.05278360099519675,"320":0.06009992588159957,"321":0.03204428265212946,"322":0.014728797494848928,"323":-0.011182494577817882,"324":0.03264028704291181,"325":0.0026474974398505214,"326":0.02476473856546553,"327":0.04074920482393624,"328":0.0319632381763188,"329":-0.03469363027709792,"330":0.07431345521999631,"331":0.012475599260601159,"332":0.0002465392562423179,"333":-0.03153310467737322,"334":0.010494356803540687,"335":0.09323551620009041,"336":-0.008887101013805637,"337":0.06081081802309486,"338":0.018707528758252986,"339":-0.01899266513026133,"340":-0.051849966602272375,"341":0.03872790865421813,"342":0.006726542635940164,"343":0.01239720441805733,"344":0.019892997664883248,"345":0.014319925543372717,"346":0.019210424085233838,"347":0.04577076555610919,"348":0.03302386364412298,"349":-0.007601665357177491,"350":-0.013571275152259496,"351":-0.011482129147696314,"352":0.029222946081474393,"353":-0.006099518327491226,"354":-0.008654493008393334,"355":0.017326026583656517,"356":0.051668618625112045,"357":0.05452032407327294,"358":0.0335198833193847,"359":0.10404879243833547,"360":0.019249413139421266,"361":0.033010683806137975,"362":0.06181105942740684,"363":0.010713388999916697,"364":0.03166371060717716,"365":0.040086829626194545,"366":0.034729559125848915,"367":0.01194429593025231,"368":0.03851155350292686,"369":0.021809576710293717,"370":0.05227006849053273,"371":0.057866611469683533,"372":0.03927274929760072,"373":-0.042076755664015725,"374":0.01896855514437663,"375":0.001002001772456944,"376":-0.0035684350213587963,"377":0.01232280541148523,"378":0.02644233235399321,"379":-0.043236367519187635,"380":-0.044438560598415784,"381":-0.03800673807321219,"382":0.022589542328954604,"383":-0.0107725650164309,"384":0.02683339215662471,"385":0.02251881297089901,"386":0.00850607894642634,"387":-0.017915711468693196,"388":-0.04119165599497791,"389":0.016970789994527825,"390":-0.009617593407894635,"391":0.054217651511756816,"392":-0.018219996032033777,"393":-0.029134609578491517,"394":0.009160075372364244,"395":0.012089332430638233,"396":0.04949387617242951,"397":-0.013932770956523031,"398":0.038096464973681826,"399":0.028681027250204518,"400":0.013656691932489279,"401":0.07770284009129744,"402":-0.017632255089502044,"403":0.018773469301493775,"404":0.009591983556209974,"405":0.0022102520507942683,"406":0.037988741696402734,"407":0.010160993987133899,"408":0.019853605937068235,"409":0.016137451678331957,"410":0.00573237330799198,"411":-0.05364872056635452,"412":0.031929865608132366,"413":-0.021128070300561987,"414":0.006947776808676347,"415":-0.028940244565501875,"416":0.06801758858541482,"417":-0.004872164992092015,"418":0.036505005890569535,"419":0.037512714080603256,"420":-0.008253754369294115,"421":0.02254205316868114,"422":0.04408201661740488,"423":-0.02015231120972799,"424":0.06391579316181926,"425":-0.06636773440152535,"426":-0.018689122157610247,"427":0.0675685840492981,"428":0.029494051703813966,"429":0.00984632100383725,"430":-0.03908523131425829,"431":-0.00565342450678916,"432":0.07564005686920507,"433":-0.011353354875458892,"434":-0.06212390152511676,"435":-0.04618565825143176,"436":0.014435764580983631,"437":-0.00690075231678039,"438":0.04234209808077123,"439":0.0702491458893128,"440":0.028085916955471416,"441":0.06493989356196136,"442":-0.02598435214404307,"443":-0.008543593300379963,"444":0.041596986040399284,"445":-0.02451714274157215,"446":-0.05078123004038875,"447":-0.010170904728053086,"448":0.09125456141958502,"449":-0.009895006982684914,"450":0.06358900700527402,"451":-0.024122427415304827,"452":-0.010716316173447036,"453":0.023275827411908753,"454":-0.035657531583663,"455":-0.03371438105968328,"456":0.03953085219673812,"457":0.024740628507190957,"458":0.05307414377903386,"459":0.04821406166417602,"460":-0.04175685081475978,"461":0.06814716871397752,"462":0.007086548533062878,"463":-0.06668279432160502,"464":0.0014613145902306662,"465":-0.03798649038879552,"466":0.04622844581043588,"467":-0.026151724395164087,"468":-0.062432647557728434,"469":-0.02327522429243221,"470":0.016892816021475285,"471":0.03068307330845175,"472":0.009162245982918227,"473":0.038621313889769936,"474":0.013729727299551965,"475":0.07280848297735665,"476":-0.01501739057893733,"477":0.0318254406482949,"478":-0.05668836878592481,"479":-0.013085606308324147,"480":0.011714900221879397,"481":-0.016173529044322964,"482":0.05212393764454336,"483":-0.041996386433530375,"484":0.015954747588824904,"485":-0.05598948003450671,"486":0.024630077149490726,"487":0.039306794905627065,"488":0.0474628792623635,"489":-0.021874850781634182,"490":-0.04631341348682027,"491":-0.0031657387849006566,"492":0.03049463451150103,"493":-0.05096981624994549,"494":0.025400230333359045,"495":0.02292492526162117,"496":0.035030855206440226,"497":0.020999535049968637,"498":0.008098632276859129,"499":0.03126610596147064,"500":0.013163748835360143,"501":-0.0188969994457831,"502":0.06587134210472666,"503":0.017077035477445702,"504":-0.04423592588427825,"505":0.0021097738967440203,"506":-0.00710862520701339,"507":0.00038260112707124284,"508":0.028589818263214238,"509":-0.01887255057521245,"510":0.008024220426653983,"511":0.07777244636602687,"512":-0.013453992527816944,"513":-0.00333927665402375,"514":-0.02382872348739519,"515":-0.04197595757811591,"516":-0.018498951268584144,"517":-0.049786934413833354,"518":0.008134222672809053,"519":0.026273009472832006,"520":-0.01715226417354963,"521":-0.02019242613909675,"522":-0.03895463138656543,"523":0.04821685094043897,"524":-0.018982582941207353,"525":0.025863475825508457,"526":-0.003998354456765589,"527":-0.0023658744191653288,"528":-0.03658063074854827,"529":-0.015100853740225061,"530":-0.01454411309204013,"531":-0.050938194985841484,"532":-0.01831503676582794,"533":0.0005515372233758748,"534":0.03535639363817105,"535":0.030315574945308198,"536":-0.020758664362229083,"537":0.005344300662486856,"538":0.08887205245910174,"539":0.01593703213669512,"540":-0.03195542116336993,"541":-0.0038137050666241035,"542":-0.00853665917899106,"543":0.044125271870799454,"544":-0.06595998946955564,"545":0.04485305391112828,"546":-0.036915024161625974,"547":-0.04796933981061301,"548":-0.03052800029769249,"549":0.04292554071344561,"550":0.03817268672614641,"551":0.004649962086255492,"552":0.05875483980326909,"553":-0.012796828626401108,"554":0.039447820600683914,"555":-0.02704039672769225,"556":0.022716509058793324,"557":-0.04648866963937318,"558":-0.033171085336273394,"559":-0.015509308130367504,"560":-0.04637936914561896,"561":0.05537238547687645,"562":0.006329909277379266,"563":-0.01830317695637885,"564":0.019550951490952973,"565":0.12973877588905325,"566":0.0550931851478606,"567":0.08417608758942499,"568":-0.022861070981506287,"569":-0.014878321919938436,"570":-0.01966328568558667,"571":0.028152296694641442,"572":-0.05598086720025741,"573":0.059031377182613344,"574":0.020161929161965405,"575":0.020395998461417174,"576":0.010640373293137419,"577":0.04056476907637673,"578":0.009208087735360061,"579":-0.020770088764884703,"580":0.012332124872569086,"581":0.026413133694105285,"582":-0.007441635271913941,"583":-0.0026679649435827333,"584":-0.006472338231658855,"585":0.0013746613369944967,"586":0.0147427970663604,"587":0.05655489854047593,"588":0.03298726156682211,"589":-0.019215605311216098,"590":-0.030484802032428614,"591":-0.01754230125071999,"592":0.06188370699657967,"593":-0.0013782190445413539,"594":-0.03095971680782866,"595":-0.014067436023839924,"596":-0.006803736954677317,"597":0.013605942220722039,"598":-0.01559755325596575,"599":0.04061565234969772,"600":0.07145148288009076,"601":0.05628456033399769,"602":0.044709897698630735,"603":-0.009124933517024472,"604":0.07259761055759827,"605":-0.01854778216027273,"606":0.04359032652111157,"607":-0.03380782051115959,"608":-0.018287173966693958,"609":0.06796205726380344,"610":0.025757050555988537,"611":-0.006803751442316663,"612":0.006062836418400697,"613":-0.05092900913866622,"614":0.027562104312355683,"615":0.014199228229789381,"616":0.00917407599209707,"617":0.01077683437614993,"618":0.02296211120461267,"619":0.04218209705501427,"620":-0.03591063719140406,"621":0.006634839599573972,"622":0.03226878712985231,"623":0.001226786308614551,"624":0.010979247751645774,"625":-0.0024780024289306475,"626":-0.03921879755556188,"627":-0.0031463916029025323,"628":-0.0039485036337214814,"629":0.008567102944306815,"630":0.0198688871935432,"631":0.05020129214378404,"632":0.10122172144377198,"633":0.03222335309368864,"634":0.05147949428818587,"635":0.07195748261484071,"636":0.06427927733869923,"637":-0.03281391145301854,"638":0.025035087028692678,"639":-0.030854097219757935,"640":-0.03840726467650117,"641":-0.031073084523023844,"642":-0.03464132625787171,"643":0.04022682967876519,"644":-0.05104565183181936,"645":0.02555919850492261,"646":-0.01280405318189664,"647":-0.04858624015897807,"648":0.0034898789348088294,"649":-0.07602782332269334,