
//<![CDATA[

// a few things don't have var in front of them - they update already existing variables the game needs
lanesSide = 6;
patchesAhead = 52;
patchesBehind = 5;
trainIterations = 100000;

// the number of other autonomous vehicles controlled by your network
otherAgents = 0; // max of 10

var num_inputs = (lanesSide * 2 + 1) * (patchesAhead + patchesBehind);
var num_actions = 5;
var temporal_window = 0;
var network_size = num_inputs * temporal_window + num_actions * temporal_window + num_inputs;

var layer_defs = [];
layer_defs.push({
    type: 'input',
    out_sx: 1,
    out_sy: 1,
    out_depth: network_size
});


      layer_defs.push({
        type: 'fc',
        num_neurons: 21,
        activation: 'tanh'
        // drop_prob:.01*cc
    }
    );
      layer_defs.push({
        type: 'fc',
        num_neurons: 21,
        activation: 'tanh'
        // drop_prob:.01*cc
    }
    );
       layer_defs.push({
        type: 'fc',
        num_neurons: 39,
        activation: 'tanh'
        // drop_prob:.01*cc
    }
    );


layer_defs.push({
    type: 'regression',
    num_neurons: num_actions
});

var tdtrainer_options = {
    learning_rate: 0.001,
    momentum: 0.0,
    batch_size: 256,
    l1_decay: 0.001
};

var opt = {};
opt.temporal_window = temporal_window;
opt.experience_size = 50000;
opt.start_learn_threshold = 250;
opt.gamma = 0.990;
opt.learning_steps_total = 50000;
opt.learning_steps_burnin = 500;
//opt.epsilon_min = 0.05;
//opt.epsilon_test_time = 0.05;
opt.layer_defs = layer_defs;
opt.tdtrainer_options = tdtrainer_options;
// opt.random_action_distribution = [0.5, 0.40, 0.05, 0.25, 0.25]

brain = new deepqlearn.Brain(num_inputs, num_actions, opt);

learn = function (state, lastReward) {
    brain.backward(lastReward);
    var action = brain.forward(state);

    draw_net();
    draw_stats();

    return action;
}

function bridge(n) {
    var ret=[]

    for (var i = 0; i < n; i++) {
        var l ={"sx":1,"sy":1,"depth":n,"w":{}}
        ret.push(l)
        for(var j =0;j<n;j++){

            l.w [j]=( i==j?1:0)
        }

    }
    return ret;
}
function bridge(n) {
    var ret=[]

    for (var i = 0; i < n; i++) {
        var l ={"sx":1,"sy":1,"depth":n,"w":{}}
        ret.push(l)
        for(var j =0;j<n;j++){

            l.w [j]=( i==j?1:0)
        }

    }
    return ret;
};

function bias(n) {
    var ret={"sx":1,"sy":1,"depth":n,"w":{}}

   for(var i=0;i<n;i++)
    ret.    w[i]=1

    return ret;
}

// console.log(    JSON.stringify(bridge(21)))

//]]>


/*###########*/

if (brain) {
    var input741 = {"out_depth":741,"out_sx":1,"out_sy":1,"layer_type":"input"};
    // bridge21=[{"sx":1,"sy":1,"depth":21,"w":{"0":1,"1":0,"2":0,"3":0,"4":0,"5":0,"6":0,"7":0,"8":0,"9":0,"10":0,"11":0,"12":0,"13":0,"14":0,"15":0,"16":0,"17":0,"18":0,"19":0,"20":0}},{"sx":1,"sy":1,"depth":21,"w":{"0":0,"1":1,"2":0,"3":0,"4":0,"5":0,"6":0,"7":0,"8":0,"9":0,"10":0,"11":0,"12":0,"13":0,"14":0,"15":0,"16":0,"17":0,"18":0,"19":0,"20":0}},{"sx":1,"sy":1,"depth":21,"w":{"0":0,"1":0,"2":1,"3":0,"4":0,"5":0,"6":0,"7":0,"8":0,"9":0,"10":0,"11":0,"12":0,"13":0,"14":0,"15":0,"16":0,"17":0,"18":0,"19":0,"20":0}},{"sx":1,"sy":1,"depth":21,"w":{"0":0,"1":0,"2":0,"3":1,"4":0,"5":0,"6":0,"7":0,"8":0,"9":0,"10":0,"11":0,"12":0,"13":0,"14":0,"15":0,"16":0,"17":0,"18":0,"19":0,"20":0}},{"sx":1,"sy":1,"depth":21,"w":{"0":0,"1":0,"2":0,"3":0,"4":1,"5":0,"6":0,"7":0,"8":0,"9":0,"10":0,"11":0,"12":0,"13":0,"14":0,"15":0,"16":0,"17":0,"18":0,"19":0,"20":0}},{"sx":1,"sy":1,"depth":21,"w":{"0":0,"1":0,"2":0,"3":0,"4":0,"5":1,"6":0,"7":0,"8":0,"9":0,"10":0,"11":0,"12":0,"13":0,"14":0,"15":0,"16":0,"17":0,"18":0,"19":0,"20":0}},{"sx":1,"sy":1,"depth":21,"w":{"0":0,"1":0,"2":0,"3":0,"4":0,"5":0,"6":1,"7":0,"8":0,"9":0,"10":0,"11":0,"12":0,"13":0,"14":0,"15":0,"16":0,"17":0,"18":0,"19":0,"20":0}},{"sx":1,"sy":1,"depth":21,"w":{"0":0,"1":0,"2":0,"3":0,"4":0,"5":0,"6":0,"7":1,"8":0,"9":0,"10":0,"11":0,"12":0,"13":0,"14":0,"15":0,"16":0,"17":0,"18":0,"19":0,"20":0}},{"sx":1,"sy":1,"depth":21,"w":{"0":0,"1":0,"2":0,"3":0,"4":0,"5":0,"6":0,"7":0,"8":1,"9":0,"10":0,"11":0,"12":0,"13":0,"14":0,"15":0,"16":0,"17":0,"18":0,"19":0,"20":0}},{"sx":1,"sy":1,"depth":21,"w":{"0":0,"1":0,"2":0,"3":0,"4":0,"5":0,"6":0,"7":0,"8":0,"9":1,"10":0,"11":0,"12":0,"13":0,"14":0,"15":0,"16":0,"17":0,"18":0,"19":0,"20":0}},{"sx":1,"sy":1,"depth":21,"w":{"0":0,"1":0,"2":0,"3":0,"4":0,"5":0,"6":0,"7":0,"8":0,"9":0,"10":1,"11":0,"12":0,"13":0,"14":0,"15":0,"16":0,"17":0,"18":0,"19":0,"20":0}},{"sx":1,"sy":1,"depth":21,"w":{"0":0,"1":0,"2":0,"3":0,"4":0,"5":0,"6":0,"7":0,"8":0,"9":0,"10":0,"11":1,"12":0,"13":0,"14":0,"15":0,"16":0,"17":0,"18":0,"19":0,"20":0}},{"sx":1,"sy":1,"depth":21,"w":{"0":0,"1":0,"2":0,"3":0,"4":0,"5":0,"6":0,"7":0,"8":0,"9":0,"10":0,"11":0,"12":1,"13":0,"14":0,"15":0,"16":0,"17":0,"18":0,"19":0,"20":0}},{"sx":1,"sy":1,"depth":21,"w":{"0":0,"1":0,"2":0,"3":0,"4":0,"5":0,"6":0,"7":0,"8":0,"9":0,"10":0,"11":0,"12":0,"13":1,"14":0,"15":0,"16":0,"17":0,"18":0,"19":0,"20":0}},{"sx":1,"sy":1,"depth":21,"w":{"0":0,"1":0,"2":0,"3":0,"4":0,"5":0,"6":0,"7":0,"8":0,"9":0,"10":0,"11":0,"12":0,"13":0,"14":1,"15":0,"16":0,"17":0,"18":0,"19":0,"20":0}},{"sx":1,"sy":1,"depth":21,"w":{"0":0,"1":0,"2":0,"3":0,"4":0,"5":0,"6":0,"7":0,"8":0,"9":0,"10":0,"11":0,"12":0,"13":0,"14":0,"15":1,"16":0,"17":0,"18":0,"19":0,"20":0}},{"sx":1,"sy":1,"depth":21,"w":{"0":0,"1":0,"2":0,"3":0,"4":0,"5":0,"6":0,"7":0,"8":0,"9":0,"10":0,"11":0,"12":0,"13":0,"14":0,"15":0,"16":1,"17":0,"18":0,"19":0,"20":0}},{"sx":1,"sy":1,"depth":21,"w":{"0":0,"1":0,"2":0,"3":0,"4":0,"5":0,"6":0,"7":0,"8":0,"9":0,"10":0,"11":0,"12":0,"13":0,"14":0,"15":0,"16":0,"17":1,"18":0,"19":0,"20":0}},{"sx":1,"sy":1,"depth":21,"w":{"0":0,"1":0,"2":0,"3":0,"4":0,"5":0,"6":0,"7":0,"8":0,"9":0,"10":0,"11":0,"12":0,"13":0,"14":0,"15":0,"16":0,"17":0,"18":1,"19":0,"20":0}},{"sx":1,"sy":1,"depth":21,"w":{"0":0,"1":0,"2":0,"3":0,"4":0,"5":0,"6":0,"7":0,"8":0,"9":0,"10":0,"11":0,"12":0,"13":0,"14":0,"15":0,"16":0,"17":0,"18":0,"19":1,"20":0}},{"sx":1,"sy":1,"depth":21,"w":{"0":0,"1":0,"2":0,"3":0,"4":0,"5":0,"6":0,"7":0,"8":0,"9":0,"10":0,"11":0,"12":0,"13":0,"14":0,"15":0,"16":0,"17":0,"18":0,"19":0,"20":1}}]
    var filter21 = [{"sx":1,"sy":1,"depth":21,"w":{"0":-0.017953895014074378,"1":0.14886258743121447,"2":0.14407794208709299,"3":-0.1817401658863438,"4":0.29553941833335046,"5":-0.15348174494912514,"6":-0.10858511636397464,"7":0.13864160944242626,"8":0.02121345245992127,"9":0.43463220371427996,"10":0.22303768746688415,"11":0.00595396818550516,"12":-0.3880201402301,"13":-0.2848784060765607,"14":-0.40867267656467526,"15":-0.22914806248292538,"16":0.2779334888563088,"17":0.258296800455079,"18":0.4376508368144985,"19":0.18399636627248567,"20":0.01912512148601671}},{"sx":1,"sy":1,"depth":21,"w":{"0":0.24643248039194005,"1":0.17491334909349796,"2":0.07266068805740611,"3":0.09088751197596315,"4":0.2983373054364738,"5":-0.036783269888790666,"6":-0.28189596406133804,"7":0.14983835108009708,"8":0.1539283851878036,"9":0.5522661066696606,"10":-0.005840904012540918,"11":0.4555557092304045,"12":0.23877694976596467,"13":0.05182550933250477,"14":-0.5784657450736652,"15":-0.4380851039676875,"16":0.3506310746534892,"17":0.526979431826534,"18":0.019999382459728862,"19":0.3073558191719265,"20":0.10595924470747513}},{"sx":1,"sy":1,"depth":21,"w":{"0":0.25395850595152364,"1":0.22005198826772443,"2":-0.14914870924363474,"3":-0.35075183478277694,"4":0.14058811956676578,"5":0.11928640682529673,"6":-0.15282244781493223,"7":-0.04805364395938415,"8":0.5909478993399697,"9":0.04485582977052254,"10":0.09402069482518388,"11":0.37264689446261673,"12":-0.18352089789103668,"13":-0.2334424937779881,"14":-0.2816972686960847,"15":-0.2663588873677934,"16":-0.005917152523531209,"17":0.5038158091449939,"18":0.27328313848091984,"19":-0.17609502486277614,"20":0.8737330825526516}},{"sx":1,"sy":1,"depth":21,"w":{"0":0.04405760948452042,"1":0.07803855803754357,"2":0.30911826156704286,"3":-0.3532217558733373,"4":0.17009746607107176,"5":0.1380324646267541,"6":-0.3418069586511786,"7":0.09362806196432437,"8":0.36319883243353707,"9":0.3493368849591489,"10":0.4336231853564191,"11":0.2721601514126356,"12":-0.06359126059529784,"13":-0.3267699010833897,"14":-0.6612649888659485,"15":0.12593536910590042,"16":-0.21866546923756755,"17":0.03104037845979543,"18":0.3564332388053451,"19":0.40654279333698246,"20":0.07721191450398016}},{"sx":1,"sy":1,"depth":21,"w":{"0":-0.2867812739411777,"1":-0.6017503041784089,"2":0.028824999724218592,"3":0.10038220842717936,"4":0.08444183428645474,"5":0.5073313401273155,"6":0.08494154909489922,"7":-0.46158816841002137,"8":-0.06680369788526112,"9":-0.4011249881874088,"10":-0.19262727228903467,"11":-0.14939223535867338,"12":0.1654731894709804,"13":0.47673181246332375,"14":0.29639544093536524,"15":-0.029124705844504283,"16":-0.46000008970191153,"17":-0.3138873754186149,"18":-0.3460785061927134,"19":0.27023007767121626,"20":0.01806350703325629}},{"sx":1,"sy":1,"depth":21,"w":{"0":0.0662287491905146,"1":-0.09971733169730893,"2":0.17808301739802385,"3":-0.38426139219977357,"4":0.054379331730832564,"5":-0.050022475475226286,"6":-0.5962581940381488,"7":0.27187830551724557,"8":0.4353908451017963,"9":-0.12093642910125064,"10":0.642474626878019,"11":0.262064551404168,"12":-0.6039440911680277,"13":0.03897369597492873,"14":-0.07078043424285979,"15":-0.5699684858431587,"16":0.40887162660618503,"17":-0.11336470053253028,"18":-0.16966922025622888,"19":0.3654703245274898,"20":0.17226418749655903}},{"sx":1,"sy":1,"depth":21,"w":{"0":0.4480225960045054,"1":0.09922632728792062,"2":0.37026280635961445,"3":-0.2180440112129702,"4":0.08325692594610475,"5":-0.09625941705362864,"6":-0.44340191196974305,"7":0.2710732286340213,"8":0.22890432906721422,"9":0.3480188172883561,"10":-0.05258530535387933,"11":0.27773581165544237,"12":-0.022722099672049034,"13":0.22677946812251243,"14":-0.29977881427545505,"15":-0.1308915863187102,"16":-0.032203862182622674,"17":0.41693168960114524,"18":0.37638107323529785,"19":0.24731143364674127,"20":0.2981551804820698}},{"sx":1,"sy":1,"depth":21,"w":{"0":-0.24614739812394118,"1":-0.25347621670749076,"2":-0.0816055929997331,"3":0.3255909508614193,"4":-0.06230861686200591,"5":0.17274964588178016,"6":0.09782562243545358,"7":-0.3592776951207611,"8":-0.09494190859603942,"9":-0.2291119509686027,"10":0.04472806625840956,"11":-0.2624014348988082,"12":0.40826252167475435,"13":0.28532773335129824,"14":0.07565327250973906,"15":0.30345430966837367,"16":0.3108153493301395,"17":-0.25103722967272063,"18":-0.36629884781667205,"19":-0.46450969921541524,"20":-0.3825089630146556}},{"sx":1,"sy":1,"depth":21,"w":{"0":0.5728714177802181,"1":-0.11030325476653313,"2":0.17068707189250631,"3":-0.3253341618071433,"4":-0.09525487208827672,"5":0.02726460651592785,"6":-0.4424878115931567,"7":0.2877832730178164,"8":0.24127435984513174,"9":-0.0920310660171066,"10":-0.020778609738294575,"11":0.04536448689617844,"12":-0.04095584030194328,"13":-0.279005670837714,"14":-0.5941755383667336,"15":-0.581828744620898,"16":0.366891243284161,"17":0.17668503593762175,"18":0.3349968126593532,"19":-0.17125100424842848,"20":0.4004298665889344}},{"sx":1,"sy":1,"depth":21,"w":{"0":-0.209641320726078,"1":-0.0440520473436074,"2":0.17451642897205982,"3":0.2850830362643962,"4":-0.503444450380051,"5":0.5963562301048668,"6":0.3246701835481927,"7":-0.14722876390296344,"8":-0.42342099167880515,"9":-0.3647369619457663,"10":-0.19061245099368704,"11":0.0763592243291447,"12":-0.11701272186555174,"13":0.5853560362712702,"14":0.09961163595113963,"15":0.1517302780387461,"16":-0.09660328758281221,"17":-0.08119456393374289,"18":-0.17524581902110226,"19":-0.26631030024692665,"20":-0.1395126948441061}},{"sx":1,"sy":1,"depth":21,"w":{"0":0.4121498896609208,"1":-0.2349368833445972,"2":-0.35632983977211136,"3":0.36194879782820605,"4":-0.08890377847671681,"5":0.09822146871719173,"6":1.5403893437614204,"7":-0.15215651035734223,"8":-0.47318546901088,"9":0.030190852229866408,"10":0.3391231455230686,"11":-0.6653547882261163,"12":0.4019117341864594,"13":0.07753444654702153,"14":-0.08581853725207073,"15":0.6354919158385925,"16":-0.24414759270524955,"17":-0.03637475929913922,"18":-0.02860338971111678,"19":0.15129297388947188,"20":0.0077386280059995845}},{"sx":1,"sy":1,"depth":21,"w":{"0":-0.0022309906494993974,"1":-0.2806778505077951,"2":-0.14544953122428056,"3":0.2055333164712328,"4":-0.7351999718508366,"5":0.07374074539498124,"6":-0.03396879674299627,"7":-0.3640961977191258,"8":-0.3124459815755871,"9":-0.510110835254759,"10":-0.1686316870201163,"11":0.015960785344244815,"12":0.2132542991740378,"13":-0.11999679846930143,"14":0.12156862868917638,"15":0.1733995565905549,"16":0.05508136912937136,"17":-0.15192302080146836,"18":-0.3975633452462123,"19":-0.29506210534414495,"20":-0.30302991871146484}},{"sx":1,"sy":1,"depth":21,"w":{"0":0.25249582583226904,"1":0.37702338911083033,"2":0.1635478505187141,"3":-0.02419582294710819,"4":0.1745793015944766,"5":-0.25289968207271923,"6":-0.21209247085149607,"7":-0.08044905770003254,"8":0.655025137184422,"9":0.10713220939729379,"10":0.330410313730471,"11":0.41170967625173305,"12":-0.5105627820124183,"13":0.21547042444572675,"14":-0.17137040655596358,"15":0.1628357528791479,"16":0.06994097953748125,"17":0.22970968186363586,"18":0.16095607976044643,"19":0.35947109549034,"20":0.38121099985754253}},{"sx":1,"sy":1,"depth":21,"w":{"0":0.17106305846675904,"1":-0.23678494590610277,"2":-0.4113301566142499,"3":0.1272169904894401,"4":-0.31488193952194937,"5":0.14299062034892435,"6":0.3779746846363832,"7":-0.23871150598009744,"8":-0.5007472743117501,"9":-0.351439960328214,"10":-0.3949602126116021,"11":-0.2175187520259005,"12":0.2700668107065425,"13":0.0461173284520383,"14":0.05942047970785808,"15":-0.10070616724935852,"16":0.10728832127945334,"17":-0.03468335974206919,"18":-0.09427137817997487,"19":-0.7562290792868576,"20":-0.10466439516897003}},{"sx":1,"sy":1,"depth":21,"w":{"0":-0.1000398496668221,"1":0.04926510761873426,"2":0.11287485299045721,"3":0.003946744272392477,"4":-0.18551550346340026,"5":0.23342300740328853,"6":-0.9830420840780947,"7":0.0001537698732306862,"8":0.17836189149498527,"9":0.4619583133394651,"10":0.012719487114825637,"11":0.44281373576862565,"12":-0.3313859753790362,"13":0.048179947337045066,"14":-0.3573037928724028,"15":-0.49430452858907636,"16":1.2880531653202518,"17":0.6348550427073416,"18":-0.10226262715617718,"19":-0.12256794795900669,"20":0.2590146020280642}},{"sx":1,"sy":1,"depth":21,"w":{"0":0.2651884193521772,"1":0.3929526922415037,"2":0.2276321689139467,"3":-0.006701762385114778,"4":-0.14517634217094078,"5":-0.28015081479429105,"6":-0.1710728711153385,"7":-0.14574218668331768,"8":0.10691611497077588,"9":0.16307424507510657,"10":0.5802485447708879,"11":0.25984959225214876,"12":-0.37846615819868623,"13":0.04479530879996814,"14":-0.008315030070732482,"15":-0.1569716694011439,"16":0.048808082007323186,"17":0.7377512829380184,"18":0.2858082029601375,"19":-0.013890060635207008,"20":0.5974064144611045}},{"sx":1,"sy":1,"depth":21,"w":{"0":0.6250159851503598,"1":0.0772279043635379,"2":0.2572195858246848,"3":-0.17173148462870844,"4":-0.10776811876233404,"5":-0.1504891383167404,"6":-0.2975444307774774,"7":0.1595172304855806,"8":0.19902054857225468,"9":0.4746657888123266,"10":0.22870300759164108,"11":0.49490231682301333,"12":-0.2526073081152587,"13":-0.25046547252588125,"14":-0.05674838910267631,"15":-0.30539078292720506,"16":0.2178856819540653,"17":-0.14280877783220264,"18":0.10375623941852778,"19":0.2366391097960076,"20":0.060678736579803105}},{"sx":1,"sy":1,"depth":21,"w":{"0":-0.2800760372176613,"1":-0.2861808182392977,"2":0.13933094113994315,"3":-0.3824098390991225,"4":0.25451111503417856,"5":-0.21793074957676217,"6":-0.8141160179624548,"7":0.5560830149908692,"8":0.24187808154900386,"9":0.0840680168542451,"10":0.2556373255350968,"11":-0.007953593182948976,"12":-0.5139871454478137,"13":-0.5536558773759332,"14":0.12672225181194008,"15":-0.36464295019898896,"16":0.4715580141706329,"17":-0.17677328146076185,"18":0.14145083945769862,"19":0.29865808530619925,"20":-0.07875116615145936}},{"sx":1,"sy":1,"depth":21,"w":{"0":-0.3214257805385089,"1":-0.24223226918948487,"2":-0.10357181593633272,"3":0.0440347701292964,"4":-0.4670250450922513,"5":0.12621149686355354,"6":0.12241109227134442,"7":-0.19709708302054604,"8":-0.2816435721210962,"9":-0.05765365692822589,"10":-0.19177811294352454,"11":-0.4416844095656874,"12":0.32735425189094397,"13":0.304724928364178,"14":0.11927356600349989,"15":0.5582892510288332,"16":-0.17407533764062577,"17":-0.0010718044125572661,"18":-0.21484171441638356,"19":-0.28497479768291883,"20":0.11581705335996947}},{"sx":1,"sy":1,"depth":21,"w":{"0":-0.05564060446672942,"1":0.13172868380746092,"2":0.4135484978582095,"3":-0.30337924559243795,"4":-0.07669502926751356,"5":-0.2678292342373703,"6":-0.2298797154372025,"7":0.1672537716869076,"8":0.17359655242611977,"9":0.39816649454663744,"10":0.2534618305807416,"11":-0.024349727516118816,"12":-0.23068004948004253,"13":-0.27694834663640805,"14":-0.3002097363040898,"15":-0.0907303352828753,"16":-0.04842485432550262,"17":0.23442621493689716,"18":0.25084937940973934,"19":0.41774744550892956,"20":0.36174894963626053}},{"sx":1,"sy":1,"depth":21,"w":{"0":-0.28443585492507195,"1":-0.4354014842336196,"2":-0.08579635752635485,"3":-0.07575009164737515,"4":-0.30667422434489844,"5":0.1803554425350751,"6":0.06506505453375423,"7":-0.32798396384401085,"8":-0.0017877943414352482,"9":-0.22422458387407582,"10":0.016560441968953416,"11":0.114977317082709,"12":0.3304761941214039,"13":0.297014892955655,"14":0.16927064124060004,"15":0.40575865603122685,"16":-0.11458097381377397,"17":-0.22894846498792112,"18":-0.3097813374286902,"19":-0.24518979335411284,"20":-0.5100528108015725}},{"sx":1,"sy":1,"depth":21,"w":{"0":-0.059026389088948215,"1":0.22647165358592397,"2":-0.29272148873890497,"3":-0.08938066819027013,"4":-0.19113887041519004,"5":0.017552589978041044,"6":0.7038469220233099,"7":-0.28851497151109073,"8":-0.16440879773142686,"9":-0.2791128757820048,"10":-0.22561370581719406,"11":-0.5910098607905399,"12":0.40255402168482085,"13":-0.2316110453370724,"14":0.11121946672401534,"15":0.45954320180738956,"16":-0.12285728290165324,"17":-0.08237433878212952,"18":-0.06841665548601493,"19":-0.3369223018786952,"20":-0.1971481382560053}},{"sx":1,"sy":1,"depth":21,"w":{"0":0.17466561030380037,"1":0.5553004933775316,"2":0.4433041527729015,"3":-0.54573386450975,"4":0.16426858489762128,"5":0.02795689497958792,"6":-0.1334864694867811,"7":0.5446224336824456,"8":0.07388805676996164,"9":0.12471377574540236,"10":0.30527084876023075,"11":-0.21346692198799774,"12":0.12860579825670848,"13":-0.3255427939982681,"14":-0.14223348082511184,"15":-0.35102531552166893,"16":0.39788071244223755,"17":0.06914614036879344,"18":0.35117517237124063,"19":-0.062319811945235996,"20":0.2162963071397193}},{"sx":1,"sy":1,"depth":21,"w":{"0":-0.11476871577506102,"1":-0.3324501065551519,"2":-0.16551238319641248,"3":0.16779768792581218,"4":-0.20755308864425856,"5":0.17413779813647898,"6":0.3118772079919729,"7":-0.2347348227048848,"8":-0.24674863505682526,"9":-0.3852205510399829,"10":0.046875840379310044,"11":-0.18180221237067254,"12":0.44328523811713094,"13":0.12597564468637204,"14":0.6723463816386666,"15":0.0629515733649688,"16":-0.2641126712727369,"17":-0.15069229535795936,"18":-0.19801828434247554,"19":0.018118043067621735,"20":-0.019084237428212775}},{"sx":1,"sy":1,"depth":21,"w":{"0":0.30819583671934236,"1":0.46186363008973563,"2":-0.05776117312949161,"3":-0.4594266100832825,"4":0.28263752869527037,"5":-0.3019494214411864,"6":-0.010654922962562001,"7":0.46158150158342226,"8":0.31523356763861,"9":0.7570931901693536,"10":0.094871047249229,"11":0.3512711866868533,"12":0.006400967864383042,"13":-0.08461880099671205,"14":-0.09044511060762822,"15":0.11866077170314397,"16":-0.11021636111254758,"17":0.4205074250799547,"18":0.11233619666278093,"19":0.1347524350218093,"20":-0.1700936106178487}},{"sx":1,"sy":1,"depth":21,"w":{"0":0.3979997385204593,"1":0.4072100696082193,"2":0.009418240961631146,"3":-0.49516294544930956,"4":-0.13377171611618688,"5":0.27762690872895956,"6":-0.5588167965579842,"7":-0.13824059142185177,"8":0.484340001981208,"9":0.1621968193596056,"10":0.04098358212939643,"11":0.4004888308041042,"12":-0.1100487587126407,"13":-0.42332221549572147,"14":0.009093806548680715,"15":-0.016800314547869344,"16":0.17774588531426044,"17":0.2840273035654219,"18":0.4165948448411783,"19":0.1298462035560043,"20":0.4381541125059498}},{"sx":1,"sy":1,"depth":21,"w":{"0":0.30630415825457963,"1":0.06570828953453701,"2":0.01836751232216531,"3":-0.31671947359945674,"4":0.7708276956201907,"5":-0.22276257068844502,"6":-0.3064992466181172,"7":0.12587540920294704,"8":0.19372742818728572,"9":0.4083248532224544,"10":-0.00926316795529757,"11":-0.1012769053374056,"12":0.09892138101045235,"13":-0.2962928495708197,"14":-0.3736659559818038,"15":0.021015428613098498,"16":-0.22742415321027484,"17":0.06329518652278368,"18":0.3178361751023119,"19":0.45860313796086083,"20":0.46452080278527696}},{"sx":1,"sy":1,"depth":21,"w":{"0":0.4303442063734813,"1":0.4119537737799547,"2":0.277318802239338,"3":-0.16207794046269194,"4":0.12516744992989554,"5":-0.2601642089015536,"6":0.015711516370708483,"7":0.11940929491645323,"8":-0.03540070169492117,"9":0.16927792666830013,"10":-0.003745939061835152,"11":0.05194020169761803,"12":-0.3109974863246618,"13":-0.011249609731679015,"14":-0.21595729409128855,"15":-0.27537239242490263,"16":0.3184204880799061,"17":0.5625479196773142,"18":0.34485123601141954,"19":0.41427873232827994,"20":-0.015818810026860603}},{"sx":1,"sy":1,"depth":21,"w":{"0":-0.25863603144924313,"1":-0.7710213704248016,"2":-0.28163245854688396,"3":0.0028869650624806006,"4":-0.46881602979185044,"5":0.15646897527353557,"6":-0.050353569010914305,"7":-0.07375178614361654,"8":-0.12022367627676124,"9":-0.2545483919766575,"10":-0.4827680130705873,"11":-0.0462108639826828,"12":0.10926589740984874,"13":-0.1515400901782299,"14":0.5825658607269508,"15":-0.3810029914079507,"16":0.1650446745439302,"17":-0.18381589628688885,"18":-0.2967088103912236,"19":-0.4460875433964585,"20":-0.4105784272978669}},{"sx":1,"sy":1,"depth":21,"w":{"0":-0.12409178503386066,"1":-0.4043379141469533,"2":0.08890923507028702,"3":0.45571312571191513,"4":-0.15875550575561448,"5":0.2930572750526861,"6":0.0987232094193751,"7":-0.19456027141104132,"8":-0.24352645902234796,"9":-0.2973297461596323,"10":0.02699235573238111,"11":-0.07778018946332241,"12":0.5267884875325461,"13":0.2828701322485671,"14":0.21795259226358368,"15":0.28459807618405436,"16":-0.4947135756424582,"17":-0.01974612711180375,"18":0.0747966150839533,"19":-0.3093649501841268,"20":-0.2893297959989386}},{"sx":1,"sy":1,"depth":21,"w":{"0":0.6346333152605103,"1":0.17954752354051526,"2":-0.059592415555868854,"3":-0.2685094283357339,"4":0.2589357642158713,"5":-0.37745456164733854,"6":0.10063849310849667,"7":0.5819166666804416,"8":0.2891634758837468,"9":0.29214464653410777,"10":0.17558051782594053,"11":-0.13241359377970507,"12":-0.1509381378146799,"13":-0.22889221187777412,"14":-0.15813761539078958,"15":-0.17330862598908056,"16":-0.025272960790846323,"17":0.19383029098739177,"18":0.1909167775049161,"19":0.23518614867558912,"20":0.18124693652556417}},{"sx":1,"sy":1,"depth":21,"w":{"0":-0.07363117357751513,"1":-0.14688142896183817,"2":-0.1568121385862185,"3":0.24429505649485797,"4":-0.15240025421399145,"5":-0.001469553885132734,"6":-0.2836550746639542,"7":-0.49815718059440534,"8":0.09284199675482724,"9":-0.23864347120167348,"10":-0.4460357416776964,"11":-0.2695147767230852,"12":0.15050177973474677,"13":0.26859175265348717,"14":0.3278133911433371,"15":0.5802088395417615,"16":-0.3211750481517806,"17":-0.5764690847034409,"18":-0.32798932955330795,"19":0.1363036161497523,"20":-0.196679481892475}},{"sx":1,"sy":1,"depth":21,"w":{"0":0.15563331549405648,"1":0.09978059015921123,"2":0.3478259435283121,"3":-0.1651214450798821,"4":0.5932824544123259,"5":0.0983384598843222,"6":0.12865522695008813,"7":0.11322059247552183,"8":0.20724404444183664,"9":0.21808227642887534,"10":0.33643273287509434,"11":0.3205219245980699,"12":-0.138342620743053,"13":-0.2913528547564524,"14":-0.3271643988841795,"15":-0.40954236578197556,"16":0.11168475637090398,"17":-0.3403002275630702,"18":0.36546031666154644,"19":0.2935013023437238,"20":0.43674576176181995}},{"sx":1,"sy":1,"depth":21,"w":{"0":-0.15258706664315594,"1":-0.6179723882406526,"2":-0.07249703020614448,"3":0.016484155136773513,"4":-0.34089119574611365,"5":0.05181990593056034,"6":0.505957535927903,"7":0.08740325620941178,"8":-0.41382597274782096,"9":-0.06957300038447159,"10":-0.25264705652294306,"11":-0.3971464646712816,"12":0.025952531301805803,"13":0.33499512328295344,"14":0.29208509284734974,"15":-0.12465897119317038,"16":-0.17742919188961298,"17":-0.4211707406480594,"18":-0.24801122603912074,"19":-0.23941554714220556,"20":0.022399685528386205}},{"sx":1,"sy":1,"depth":21,"w":{"0":0.06440544585048005,"1":-0.08395004510419984,"2":-0.03356096772276949,"3":0.018718117840117527,"4":-0.04444709764889584,"5":0.7930708417352776,"6":0.07600328215396197,"7":-0.11922627588560797,"8":-0.16239323487367177,"9":-0.4166541086408173,"10":-0.4075807093023476,"11":-0.17722411899644822,"12":0.4690448674014443,"13":0.16559557446381423,"14":0.08867015788245357,"15":0.16270401526324935,"16":-0.09203158401060746,"17":-0.1907163235563434,"18":-0.023661358048333702,"19":-0.5979972504294662,"20":-0.3393311348091491}},{"sx":1,"sy":1,"depth":21,"w":{"0":-0.04101800406359579,"1":0.2555672901483168,"2":0.10147598175637894,"3":-0.18008655061346027,"4":0.18008409823575341,"5":0.229341120459685,"6":-0.4251277709289225,"7":0.6061665317466705,"8":0.25561506007024154,"9":0.2686934639275531,"10":0.06472291954772076,"11":0.3763224600008744,"12":-0.287649039969303,"13":0.037229510065338305,"14":-0.2014978711150835,"15":-0.17162934378122421,"16":0.5755679541714427,"17":0.15597904418336095,"18":0.3365658369046772,"19":-0.12463642028291051,"20":0.1873474896899001}},{"sx":1,"sy":1,"depth":21,"w":{"0":0.07197207715575304,"1":-0.3196653904981035,"2":-0.12000407158827278,"3":0.1454360709195925,"4":-0.2311228955680341,"5":0.1265119786806996,"6":0.17398614203076265,"7":-0.055634425291450754,"8":-0.3980766289407042,"9":-0.3518653142508551,"10":-0.21707865920174763,"11":-0.3821296229510999,"12":0.22169307707392708,"13":0.23020499863031196,"14":-0.1807778673536422,"15":0.5527911304814496,"16":-0.3111648406784776,"17":-0.22354727381393255,"18":-0.14191707714706925,"19":-0.2536338742376714,"20":-0.15140680397302012}},{"sx":1,"sy":1,"depth":21,"w":{"0":0.08108472925717168,"1":0.36637887164859023,"2":-0.07577100942531524,"3":-0.3030196761061414,"4":0.37810631045032195,"5":-0.36439953952271703,"6":-0.15194386647409655,"7":0.09696827596946371,"8":-0.24912131952177313,"9":0.35728250423834323,"10":0.3439075567778055,"11":0.0901150868959675,"12":-0.41111568096864815,"13":0.07857067228658195,"14":-0.19220618907057094,"15":-0.3050553228737271,"16":0.22726006773647628,"17":0.19610123443087282,"18":0.3924950588543549,"19":0.12059545493282782,"20":0.3966587429876122}},{"sx":1,"sy":1,"depth":21,"w":{"0":-0.1345077894795664,"1":0.00008903347124106478,"2":0.3977052440561702,"3":-0.12080088202986647,"4":0.5936291198288323,"5":0.02968761592477568,"6":-0.3017181093672474,"7":0.13569437952363778,"8":0.5039346973634383,"9":0.11177914694020258,"10":0.17776169539319953,"11":0.3630250661741919,"12":-0.24176403899261567,"13":-0.18587837455661246,"14":-0.44538708386463216,"15":-0.10701562045725081,"16":0.0033825715608494914,"17":0.22876187193176614,"18":0.09606624298513096,"19":0.3522039420155947,"20":0.10860305048229207}}];
    var biases21 = {"sx":1,"sy":1,"depth":21,"w":{"0":0,"1":0,"2":0,"3":0,"4":0,"5":0,"6":0,"7":0,"8":0,"9":0,"10":0,"11":0,"12":0,"13":0,"14":0,"15":0,"16":0,"17":0,"18":0,"19":0,"20":0}};
    var fc21_741 = {"out_depth":21,"out_sx":1,"out_sy":1,"layer_type":"fc","num_inputs":741,"l1_decay_mul":0,"l2_decay_mul":1,"filters":[{"sx":1,"sy":1,"depth":741,"w":{"0":-0.0035075367439466143,"1":-0.012405701507834162,"2":-0.0018795245645630723,"3":-0.005510886200715681,"4":-0.018186866756863138,"5":0.011501918244763338,"6":-0.00005885862619650239,"7":-0.027366703434428184,"8":0.025545718561176052,"9":0.022003707256644016,"10":-0.028878556682249777,"11":0.01446341417952636,"12":-0.057753873089852775,"13":-0.010921265561073477,"14":0.07845357219338214,"15":-0.023020469020483447,"16":0.01919483818025205,"17":-0.021034190720441517,"18":-0.08395082410505816,"19":0.025588868311193953,"20":-0.01026887896070982,"21":-0.003471757662080445,"22":0.004204412195759102,"23":0.024174798101996735,"24":-0.027171770417829533,"25":-0.015282877753944275,"26":0.0421927844669116,"27":-0.02882983748644008,"28":-0.02886179895610537,"29":0.014750294830522486,"30":-0.0032500377246894537,"31":-0.0009936134985773508,"32":0.0004449875103453434,"33":0.013007198000902687,"34":-0.00831008412578377,"35":-0.026411112220051044,"36":-0.053001326002344355,"37":-0.01621883048034084,"38":0.0788454951496645,"39":-0.0028498668839202963,"40":0.11217936691558031,"41":-0.0030130365245471667,"42":-0.008823580049216191,"43":0.0819794646164412,"44":-0.018879548778505197,"45":0.03152965782339561,"46":-0.008112473794435618,"47":-0.0007013614347894978,"48":-0.03216973428596026,"49":0.020739996251553955,"50":-0.013429097262064172,"51":-0.012186511012788928,"52":-0.038031770614982495,"53":0.01609696802054291,"54":-0.058660047809778855,"55":-0.024761366686841035,"56":0.029283322389479755,"57":0.059533646563335325,"58":-0.019600499456618084,"59":0.020255297015167713,"60":-0.041240509041572074,"61":0.013780663337824812,"62":0.035755067920445464,"63":-0.03561779395832465,"64":-0.043605201971790096,"65":0.00609262093080705,"66":0.04139363111724607,"67":-0.020038934605905015,"68":-0.024972444260632613,"69":0.036693996912044516,"70":-0.0012483123161978122,"71":-0.05889573537792461,"72":0.0016066775018685055,"73":-0.0826475655311209,"74":-0.01746959681728178,"75":0.03063312821138866,"76":-0.01623354124654383,"77":-0.012800641829012359,"78":0.03310449139018172,"79":0.04226987892358466,"80":0.02546363843872255,"81":0.02972570940604772,"82":0.017139441395418252,"83":0.02982279670687088,"84":0.030807546226820092,"85":0.015561660229075359,"86":-0.01966090246809422,"87":0.008126035707513432,"88":-0.07490710767767378,"89":-0.006835482032852692,"90":-0.01721584044526945,"91":0.012424739056911403,"92":-0.07386734284452602,"93":-0.026062758258302732,"94":-0.004794212959749093,"95":-0.07663569785053014,"96":0.010165781172260139,"97":0.017507973733955528,"98":-0.003416240721681014,"99":-0.002207626254469462,"100":0.025796569033985348,"101":0.004296909118831854,"102":-0.023307122946249953,"103":-0.018054517951676053,"104":-0.021135086322312667,"105":0.05191036668291604,"106":0.047560434316553254,"107":0.0005939308051599165,"108":-0.005240097273537168,"109":-0.031709297343224654,"110":-0.0005219333826269774,"111":0.020441066291072903,"112":-0.035507344777088334,"113":-0.00612182409161449,"114":-0.029237997007119522,"115":0.047188579465303006,"116":0.04808203760961177,"117":0.012185082371790947,"118":-0.001393762690785811,"119":-0.014472393519488135,"120":0.02082687179967757,"121":0.033461891063121134,"122":-0.023502442900559816,"123":0.014874579607157603,"124":-0.032299281115798384,"125":0.021336639003826263,"126":-0.016419987048649467,"127":-0.04692388745998443,"128":-0.017846495990851082,"129":0.049301101037525795,"130":0.01915371782848494,"131":-0.04498992761224956,"132":0.07065815912036842,"133":0.020690133333876905,"134":0.0036694107751802014,"135":0.03565925605458242,"136":0.08125804370631677,"137":-0.023344555506730775,"138":-0.028979086974563525,"139":-0.023558318677727445,"140":0.025518744143176335,"141":-0.024657647379292214,"142":0.02063588139161128,"143":-0.06885103156046654,"144":0.002166274341523227,"145":0.04160972193196008,"146":0.00013147288021784869,"147":-0.033737061030465705,"148":-0.07578449102121015,"149":0.042436286184195766,"150":0.013270664810310329,"151":0.04034184847318021,"152":-0.05165904838417691,"153":0.03313965429495453,"154":0.011432170897778508,"155":-0.015420163511969391,"156":-0.02186562069374338,"157":-0.0024300204482311694,"158":0.009637704950928971,"159":-0.01872607616829214,"160":-0.01989799292942712,"161":0.015491998166429837,"162":-0.05884835994063715,"163":-0.018593315744228497,"164":0.07477835766376127,"165":-0.010961263361411604,"166":0.019882246178672767,"167":-0.019860876912077136,"168":-0.08413071368326491,"169":0.024757648498057973,"170":0.006261826597642286,"171":-0.006709845881551104,"172":-0.045222641387232095,"173":-0.08384674387706309,"174":-0.030763548291263643,"175":-0.03697595432844502,"176":0.014334022834381094,"177":0.05138708387653783,"178":-0.01308374811812511,"179":0.04808055262987231,"180":-0.038473244912173916,"181":0.030270399543723285,"182":0.015978448927706012,"183":0.015042932195051335,"184":0.004930562400645468,"185":-0.013086450358952161,"186":0.016437600231493408,"187":0.03872350460754226,"188":0.0034618646761951197,"189":0.007907839030568265,"190":0.002758608992155189,"191":-0.02545225390813605,"192":0.02528446118772539,"193":-0.01544675483092825,"194":0.06830908651539827,"195":0.03289984022177309,"196":0.010872426941714204,"197":0.018293286972473927,"198":0.05663561505789129,"199":0.04472887057618006,"200":0.009074716412930148,"201":0.011142068438436297,"202":-0.010771127143188168,"203":-0.03215418382330944,"204":-0.0007450951117216884,"205":-0.006349231317188458,"206":-0.022250401230380225,"207":-0.041117516110905125,"208":0.01826776661970708,"209":-0.026742353794961274,"210":-0.00005168623747284931,"211":0.057613368490120914,"212":-0.04121361697342918,"213":-0.010590579721802457,"214":-0.014356961505332309,"215":0.01932443825491925,"216":0.025881461087120073,"217":0.05321486370344834,"218":0.03684822230596803,"219":-0.025242361778230183,"220":0.07411987697492231,"221":0.052595050958692914,"222":0.01759123758977388,"223":0.014206097024168023,"224":-0.030139267736939944,"225":-0.013265432719843621,"226":0.036768350625925365,"227":0.003523499111658369,"228":0.010466176032159042,"229":0.00239316015339142,"230":-0.002747808077536038,"231":0.0032188133915666416,"232":-0.03519331471807523,"233":-0.013207742685972945,"234":0.03261115707306874,"235":-0.03345820906992817,"236":-0.009508554725434503,"237":-0.023447828750806598,"238":-0.003841125431998873,"239":0.016081897486341732,"240":-0.019886292470160744,"241":-0.06622394912019294,"242":0.03062254986637549,"243":0.003600185006754115,"244":0.052088780469600124,"245":-0.0009731808901983418,"246":0.005689196536757858,"247":-0.025432606875293248,"248":-0.0005611124340624886,"249":0.05498320868153752,"250":0.008738606458153143,"251":-0.03820265368825791,"252":-0.029614117625225214,"253":-0.008552644306374134,"254":-0.02056904059560209,"255":0.00527900643403971,"256":0.06332435085276002,"257":0.024297780750448573,"258":0.010906776598570164,"259":-0.04024199426969189,"260":-0.04832674867111849,"261":-0.0010034890774253704,"262":-0.03550137193183408,"263":-0.01967750500068568,"264":-0.013937913096407054,"265":0.07923644007270426,"266":-0.014744683328285123,"267":0.05300188717345772,"268":-0.08372023232017999,"269":0.03485412553265366,"270":-0.048174956901945724,"271":-0.006027555945567735,"272":0.00791598307819647,"273":-0.02727300218631523,"274":-0.03437952536757478,"275":0.05592544322626855,"276":-0.025560070301301294,"277":0.031087036886442716,"278":0.06615878374695369,"279":-0.029834643756633947,"280":-0.021744344712304714,"281":0.03171678711368181,"282":-0.033658459302544824,"283":0.029988863233448067,"284":0.056347657772970544,"285":-0.025780335249534162,"286":0.0049767808195820004,"287":-0.036960623145136526,"288":0.045061443282781596,"289":-0.011003343267679634,"290":-0.03955962743608372,"291":0.029499945970079065,"292":0.06543527404472589,"293":0.015760936772629415,"294":0.013218744496098044,"295":0.03237666152709385,"296":-0.019981296584186663,"297":-0.009550272378747397,"298":0.018471830595011878,"299":0.024068040445240076,"300":-0.03943388058110504,"301":-0.012892483808469617,"302":-0.008369444969666755,"303":-0.010607617701237734,"304":0.01892714364591978,"305":-0.028451136208230234,"306":0.007937200175941342,"307":-0.026538016238595964,"308":0.03389967188737532,"309":-0.030476511606506263,"310":0.011055894931140306,"311":0.00986510655700931,"312":0.022421050844803465,"313":0.05602537304295438,"314":0.008037966593654139,"315":-0.047731973955196204,"316":-0.02160234104584536,"317":0.021179856965011068,"318":-0.027018901976625917,"319":0.06443496637707126,"320":0.005489316543464324,"321":0.022045996620525265,"322":-0.007770452203362547,"323":0.04517636124976256,"324":-0.08753970901516142,"325":-0.05340107430651466,"326":0.007762745533990676,"327":0.010043054600855807,"328":0.03740607141653373,"329":0.03318162124178803,"330":-0.014326618560065372,"331":-0.017663459894294416,"332":0.0256480331046144,"333":0.048019312849710526,"334":-0.03453838854630801,"335":-0.014614811760279156,"336":-0.007092749459017203,"337":-0.026522365820574132,"338":0.010072550413076161,"339":-0.06164081607605895,"340":0.022745166825230315,"341":-0.02302024524795808,"342":-0.004139198693661238,"343":0.05180704890361367,"344":-0.03079956076156544,"345":0.013852454305723684,"346":-0.0558917237842691,"347":0.04036913906464763,"348":-0.03608478570092747,"349":-0.013047240652465094,"350":0.00542569281437336,"351":0.0762275479068673,"352":0.047526541818358074,"353":0.002740139416673243,"354":-0.007251548397458114,"355":-0.00353677122896682,"356":0.02106298274939847,"357":0.01320768970885791,"358":0.006968661510904594,"359":-0.060072189517890985,"360":-0.024586854376901175,"361":-0.03321405987255216,"362":0.006169325745462056,"363":-0.004577096906045562,"364":0.012687202138494539,"365":-0.09176282772467968,"366":0.014052923075478752,"367":0.017961477486643816,"368":0.018619215514981118,"369":-0.011793109887309122,"370":-0.03824052514939103,"371":0.024380562678532794,"372":0.030172359219834105,"373":0.03368682245065377,"374":0.029635301905802578,"375":0.06322401156852486,"376":0.017995234318498584,"377":-0.02475337781416582,"378":-0.024904762253739214,"379":0.024860373468579854,"380":0.02544373283886506,"381":-0.026338208358888435,"382":0.07688261292176947,"383":0.018356640705261128,"384":0.02967585013735601,"385":0.0028819977995770464,"386":-0.04093422897380052,"387":-0.08422513149040074,"388":0.009689719774175706,"389":-0.02727877189862993,"390":0.024612137840377406,"391":0.028961745422312196,"392":-0.01767291330882804,"393":0.05266992619759945,"394":0.010474724330672966,"395":-0.016960462219651935,"396":0.030721407754240395,"397":-0.038271299434130254,"398":-0.005200541855122418,"399":-0.03715148500383155,"400":-0.009735983065145741,"401":0.030515876596870016,"402":0.023695743338744756,"403":0.006776536220056429,"404":0.012213296846710625,"405":0.023636130744102764,"406":-0.01720261572781266,"407":-0.045455758745151446,"408":-0.0637341519220158,"409":0.0076510673204397295,"410":0.044782346063416814,"411":0.0022655133470168842,"412":-0.04923722885166581,"413":0.037842813912652845,"414":-0.003649597650334862,"415":0.029008095017064174,"416":0.03253775311726364,"417":0.05297346582579554,"418":-0.054180906046257145,"419":-0.03992690519654038,"420":-0.05138974639538339,"421":0.00997981323060023,"422":-0.09516651087946425,"423":-0.0379552635400142,"424":0.09229851970369414,"425":-0.02341162722524204,"426":-0.051127737707226374,"427":-0.03715848814151304,"428":-0.005112165351209568,"429":-0.024728497070729636,"430":-0.022835455003353485,"431":0.05226920302857862,"432":-0.03839578078600762,"433":0.010000508070128065,"434":-0.013050128252231839,"435":-0.05460138919797113,"436":-0.025553216661038086,"437":0.07833607922055412,"438":-0.011092341651387087,"439":-0.02295059387803225,"440":0.004941530783552552,"441":-0.01299851875372025,"442":0.033461250929529875,"443":-0.027566282012070762,"444":0.006264863481443774,"445":0.048590584578690844,"446":0.01292749596071345,"447":-0.04787875362870574,"448":-0.0034600165128366145,"449":0.0121028706417422,"450":-0.0661649401043002,"451":0.011066312066419323,"452":-0.030507975389721245,"453":0.029644501670711147,"454":-0.03446072584852848,"455":0.06643642814985024,"456":0.01801767421886891,"457":0.021375657641003843,"458":0.016165453309472225,"459":-0.001376046790679761,"460":-0.06346337480224985,"461":0.05538057221620818,"462":0.030655532478618797,"463":0.05109223286946296,"464":0.031753006456177436,"465":0.009196490968945197,"466":0.010329659581376318,"467":-0.03149950435648134,"468":-0.04497904027051147,"469":0.02280144740613462,"470":0.021014014249654517,"471":-0.01747582605574959,"472":-0.0009300442301385846,"473":0.007447324181975318,"474":0.018724901421710786,"475":0.00316493138788378,"476":0.0667530382627847,"477":-0.0023619057344267396,"478":-0.014703023424520572,"479":-0.016239788774792596,"480":0.0019445828960272344,"481":0.08968544563261306,"482":0.0013055041145653321,"483":-0.008141065690497176,"484":0.0006658091721635876,"485":-0.010718455594227983,"486":0.005598409820039554,"487":-0.06152664108042953,"488":0.04028093255802139,"489":-0.010526795410009459,"490":0.051540388754339174,"491":-0.05159049258832364,"492":0.030793954129980615,"493":-0.0992525739696075,"494":-0.09602259051916584,"495":-0.05493181885162532,"496":0.07440402561034708,"497":0.004080447156894533,"498":-0.05616873510177966,"499":0.0144865111687509,"500":-0.004764642159540042,"501":-0.002093170965657519,"502":0.0053676264920660315,"503":0.008517080926685626,"504":-0.014263047584641107,"505":-0.04496580777737088,"506":-0.014411612784674165,"507":-0.039162329968088994,"508":-0.02272087169124079,"509":0.0003981678543207668,"510":0.024918034989566316,"511":0.055882522662036305,"512":0.028789067638659415,"513":-0.02103281413435863,"514":-0.041941073093026214,"515":-0.03778839641229595,"516":-0.026994579579771454,"517":-0.022040569579631696,"518":0.010342896530352062,"519":0.016114479422160786,"520":0.062491829055049096,"521":0.008092711334339649,"522":0.06483078181899711,"523":-0.0019106976175238715,"524":0.02507789289235314,"525":0.034723697173840516,"526":0.002154209402035675,"527":-0.0480424842519824,"528":-0.056679690584240584,"529":0.008043569891824169,"530":-0.005118745186398038,"531":-0.01596171303205929,"532":0.03319708513051792,"533":0.05052924127285698,"534":0.0126415378269871,"535":0.006828967718211417,"536":-0.0521029630719995,"537":-0.04449662773688604,"538":-0.014438057376911572,"539":-0.033738209210516935,"540":-0.05405158759965461,"541":0.029875411681226385,"542":0.006709562032466644,"543":-0.027673880406627764,"544":0.010421493974451048,"545":-0.04441885356705769,"546":0.0004930980321929197,"547":-0.05802717438107344,"548":0.00828703784051827,"549":-0.02037859699373904,"550":-0.05019766526312738,"551":0.019879005372681263,"552":0.015337121749649175,"553":0.032855226913076976,"554":-0.05624520681567248,"555":-0.032340730291312875,"556":0.03120947961244344,"557":-0.018238270612128727,"558":-0.010776091339336364,"559":0.020442468378396302,"560":-0.04256151171192131,"561":0.07262149921202303,"562":-0.030687062972504994,"563":-0.04333430695159987,"564":0.028457776510816636,"565":-0.026373133488905947,"566":-0.07056500465695344,"567":0.03316054294664965,"568":0.005057304565422788,"569":-0.03533724891696245,"570":0.029318928843024724,"571":0.014945431177070497,"572":-0.007660267700740264,"573":0.058229944237510704,"574":0.004209067393817625,"575":-0.05652816774880371,"576":0.020723415570673805,"577":0.02021725180941507,"578":0.028103080279646326,"579":0.034538634647789376,"580":-0.10867131941791992,"581":-0.011597231373709781,"582":0.002726373740968769,"583":-0.008748743108028279,"584":0.06838794806725336,"585":0.026514989521895398,"586":0.007797207702316815,"587":0.00612530558589165,"588":0.01948925177036042,"589":-0.05957764787969429,"590":0.04909973864738722,"591":0.037338197914027,"592":0.016773303612299506,"593":-0.12197812267738216,"594":-0.024602013091414517,"595":-0.012142235179528636,"596":0.03728741957485617,"597":-0.048256768138621994,"598":0.034538595671992176,"599":0.05456063365600067,"600":-0.014154286693022414,"601":-0.015330888352101892,"602":0.008713125907598715,"603":0.0028468769129139436,"604":-0.02992340242964723,"605":0.02355010220675809,"606":0.0005830194221934005,"607":-0.003760524159756697,"608":0.010891675151639734,"609":-0.011527346457531385,"610":-0.007703603851617628,"611":-0.032779268375513745,"612":-0.04221416841240974,"613":-0.018269962319644298,"614":0.05020872083646864,"615":0.014904275376485488,"616":0.07914100494931385,"617":-0.015182339534880972,"618":0.013380654278870653,"619":0.07146869702310708,"620":0.003233328880320332,"621":-0.006723385298029894,"622":-0.06801322231317915,"623":-0.017500544274607167,"624":-0.03275898916066061,"625":-0.04178824820208819,"626":-0.005442685621581067,"627":0.0282339713584176,"628":-0.07749020878987821,"629":0.04665492456502679,"630":-0.0020572078070633867,"631":0.008580712958497765,"632":-0.041746294944383124,"633":0.030491129657230685,"634":-0.046831656726045605,"635":-0.06332206364074994,"636":0.04955292206785763,"637":-0.04016633497078631,"638":0.046336733020501654,"639":0.00971411962557479,"640":0.019027906633234434,"641":-0.018356030488599177,"642":0.03281377652329914,"643":0.020335232344227665,"644":-0.039516245374903086,"645":-0.007699291296049262,"646":-0.0057761296866462525,"647":0.027751868795720506,"648":0.008199970380497773,"649":-0.016071013030283476,"650":-0.01316539061961618,"651":0.061613365815008904,"652":0.020809596178016605,"653":0.03953670375113493,"654":0.04441015345575983,"655":0.013834193121041697,"656":-0.0027048388146255855,"657":-0.04530671337894273,"658":0.07861955721931883,"659":-0.06422614665629697,"660":-0.02620750106103027,"661":-0.008253857208564664,"662":-0.06418382579085537,"663":0.021916312439596252,"664":-0.013370202464099583,"665":-0.02368721961099902,"666":-0.01766283486870385,"667":0.014080885406172201,"668":0.02205430872108542,"669":0.0044050553943435255,"670":-0.024147665611919184,"671":-0.015447287381840077,"672":-0.04282432259844158,"673":0.010936960451055643,"674":-0.05271389888290491,"675":-0.02637597339495051,"676":0.023202586858578476,"677":0.01373185685862291,"678":0.009409043998403444,"679":-0.01706210039532104,"680":0.006211120935666248,"681":-0.010155217987752735,"682":0.02895837533996019,"683":-0.0036836229737770903,"684":-0.033797368380357316,"685":-0.005044833436678102,"686":-0.00171987878724205,"687":-0.03794640108881974,"688":0.025259799213131845,"689":-0.009534433601290858,"690":0.037609756271693245,"691":0.0035156166936018305,"692":0.004966984494947289,"693":-0.01628388803602406,"694":-0.02081936675240418,"695":-0.046327444387935686,"696":-0.038080089650100284,"697":-0.006521739238413966,"698":-0.03481009712941008,"699":0.047827410939048166,"700":-0.011539921391007846,"701":-0.06559246748161474,"702":-0.04587709324864292,"703":-0.03446626728179976,"704":-0.018106054426120014,"705":-0.008343333902786094,"706":0.02445093589591449,"707":-0.03697257611422336,"708":0.02186210204525186,"709":0.045441734117425386,"710":-0.03692929083684819,"711":0.07003956334510054,"712":-0.005318712896602157,"713":0.08404937621410476,"714":-0.028256879187188076,"715":0.02790331227036782,"716":0.032692555040221616,"717":-0.006604542959967997,"718":0.022900280048482446,"719":-0.019182145853755786,"720":0.064522881859751,"721":0.01733621253554113,"722":-0.02437885532675658,"723":-0.07472620493291024,"724":-0.040043010623939085,"725":0.09411477911436512,"726":-0.015893597840318664,"727":-0.04672325548564038,"728":0.0007173865133121301,"729":-0.01986667053624685,"730":-0.02799325222196617,"731":-0.03022325919128166,"732":-0.028103146522216158,"733":0.03943708791679598,"734":-0.019535734262406342,"735":0.05289468656115427,"736":0.03750060338737643,"737":0.09095269795929684,"738":-0.016612718683070498,"739":-0.05356781757848101,"740":0.02547639705253546}},{"sx":1,"sy":1,"depth":741,"w":{"0":0.05921481903931385,"1":-0.045212976917870996,"2":0.027342786267742895,"3":-0.04700622537618599,"4":-0.009278628465721514,"5":-0.06691412089293983,"6":0.0595876960404316,"7":-0.013301245537157795,"8":0.053289574000567955,"9":0.04696884781206481,"10":0.02957422216360437,"11":0.042093351381084915,"12":-0.0064777313388049125,"13":-0.0477294901271667,"14":0.030653982405704234,"15":-0.017086128798866007,"16":0.04595521972298444,"17":0.004006492029803867,"18":-0.017025299303237016,"19":0.023561001520520132,"20":0.004360241743355214,"21":0.019828221531339094,"22":0.015781664307189365,"23":-0.005503224488324362,"24":0.03370755633020667,"25":0.018494274525690385,"26":0.0014465633035763328,"27":-0.050928033929733815,"28":0.01312447643997419,"29":0.030666688334842696,"30":-0.026885880340602113,"31":0.05449621440669759,"32":-0.011930747344537104,"33":-0.045408147047618114,"34":0.01591393496126058,"35":0.013287929976950667,"36":-0.02509621267673425,"37":-0.05777945877837092,"38":0.013123282363594547,"39":0.020985978933077697,"40":-0.030444480032941177,"41":0.03620768423107708,"42":0.02470694210376374,"43":0.01887607003069091,"44":-0.04089375577469845,"45":0.034377166954149836,"46":0.0545818842432509,"47":0.06825201086349385,"48":-0.001632405432781788,"49":-0.015017690324948901,"50":0.028066203640069447,"51":-0.02606457124679284,"52":-0.022675264599403513,"53":0.04891228594744492,"54":0.015891909309731243,"55":-0.024774464785655856,"56":0.001980844292060066,"57":0.051394380022473006,"58":0.014103227651682754,"59":0.050608734174567155,"60":0.011577234372994238,"61":0.05154436421719347,"62":-0.0083068250213621,"63":0.045193014199697595,"64":0.057681501895463,"65":0.03153560101004524,"66":-0.05224095597682649,"67":-0.0407196314692275,"68":0.006780912695210817,"69":-0.09572821035414832,"70":0.005683234453596847,"71":0.0007529054818603862,"72":-0.015372793998613247,"73":0.057120351919316414,"74":0.002919914278195411,"75":-0.008732393536515145,"76":-0.06740193062554768,"77":0.0341220630769838,"78":-0.05253397048458461,"79":-0.0016959309288257568,"80":-0.03473754621872569,"81":-0.03381520707457229,"82":-0.052524759966697226,"83":-0.0425111868505691,"84":-0.013065384274587824,"85":0.00262808063801129,"86":0.03353944238678558,"87":-0.02605308801295968,"88":0.023143850988996812,"89":0.03480483324606011,"90":-0.00616997011280047,"91":0.024770257832863813,"92":0.029951049528043634,"93":-0.0068204269257932425,"94":-0.027839363160946252,"95":-0.0617102278706146,"96":0.008672131051146446,"97":0.004529638917332191,"98":0.03474378535222126,"99":0.011053444777260278,"100":-0.031762142618440445,"101":-0.01671208956798095,"102":0.026721674930044112,"103":-0.08733624642708124,"104":0.04875672406594111,"105":0.06029778525869845,"106":0.03037076009504452,"107":-0.026185329187920648,"108":0.01968961026334587,"109":0.0328047466062894,"110":-0.014638205708099265,"111":0.03447639581093627,"112":0.039259964580765486,"113":0.0029004393952973833,"114":-0.018125678476093494,"115":-0.03698492540076338,"116":-0.03825538519463946,"117":0.00432015236549446,"118":-0.061553426822934174,"119":-0.028577316392460646,"120":-0.01065689125496205,"121":-0.033723023398587806,"122":0.0034588012962476007,"123":0.049932966091014816,"124":-0.0017419628354843847,"125":-0.03446991711978017,"126":-0.013324182904476406,"127":0.02029535042793586,"128":0.03457119851336241,"129":-0.04658786394682945,"130":-0.016771246766918192,"131":0.022792791846781655,"132":0.051914773970486404,"133":-0.023715919993823414,"134":0.01585219391184141,"135":0.005395654380767953,"136":-0.08447311656558791,"137":-0.003753658738696436,"138":0.026738788607310503,"139":-0.058277530523919326,"140":0.06520718611416643,"141":-0.01043531786873937,"142":0.02764411082096578,"143":0.07351801358395037,"144":-0.0004040142188289573,"145":-0.049554948113841236,"146":0.038936399142018345,"147":0.06880157170360428,"148":-0.0037589361811131905,"149":-0.013480360591829192,"150":-0.011816498385048077,"151":-0.0608748431322404,"152":-0.016943480113138083,"153":0.028354990930192968,"154":-0.014205814857916723,"155":-0.08316091537270184,"156":0.05194846766241041,"157":0.03389159957158204,"158":-0.010907770713042358,"159":0.010963045932960533,"160":-0.0008592158871471753,"161":-0.029198326673356336,"162":0.016685838483412305,"163":0.044998291065617,"164":-0.0395924982439221,"165":-0.019627815954248812,"166":0.03564904631219906,"167":-0.05048040688204951,"168":-0.017612349470811355,"169":0.0369743397904575,"170":-0.00761481289160481,"171":0.026216040811128567,"172":-0.01632063166982914,"173":-0.0073360942282202956,"174":0.03690392035280819,"175":-0.06264506266789432,"176":0.014828977036420483,"177":0.03647773172953089,"178":0.003547638751347661,"179":0.00775304843512599,"180":0.005883110142171398,"181":-0.008134886752777935,"182":-0.06576316584253471,"183":0.047675819037874406,"184":-0.04888372301582612,"185":0.024680957442197924,"186":-0.04470621067234084,"187":0.010992961697860988,"188":-0.0024293596887290793,"189":-0.08460245354051628,"190":0.0221036450671104,"191":0.04113881688229264,"192":-0.014645908543543116,"193":0.02898812696787158,"194":-0.018467394475424777,"195":-0.019001482571886403,"196":0.05421842855096148,"197":0.010346244865365362,"198":-0.05499503471673361,"199":-0.014059896465878801,"200":-0.02154573887258385,"201":0.02462794898594387,"202":-0.043068549105960106,"203":0.006890963592792592,"204":-0.03264687894099333,"205":0.03564483721493176,"206":0.0849785813243395,"207":0.021980439664773654,"208":-0.003249131794308776,"209":-0.017511322192753843,"210":-0.014476118463345247,"211":0.04831810605228799,"212":-0.08497677086488462,"213":0.010360966364504015,"214":-0.003995578226967078,"215":0.01920916044282414,"216":-0.09280636433850412,"217":-0.030366818056975962,"218":0.014030415276720491,"219":-0.025177270571767846,"220":0.0014426786915389682,"221":-0.03364093743267301,"222":-0.030624912894742725,"223":-0.06887475472520974,"224":-0.007121680786050166,"225":-0.006613046554988722,"226":-0.0057476116590097345,"227":0.043471566002091,"228":0.013410162412948158,"229":-0.0038446762318621085,"230":-0.0454862153929826,"231":0.006718660526981361,"232":-0.07488566036030632,"233":0.07375835189119281,"234":-0.04672322442150261,"235":0.004493434171172333,"236":0.042842139738980864,"237":0.006566611814534325,"238":0.025699155788220983,"239":0.021479966462228436,"240":0.03334435754575827,"241":-0.03265600247505725,"242":-0.01211882093938903,"243":0.01583752056375423,"244":-0.01747306473037353,"245":-0.01276962957662655,"246":-0.01778030804518532,"247":-0.013918790080136698,"248":-0.011941104744071054,"249":-0.04397403659677354,"250":0.017914858577305966,"251":0.026846928832230194,"252":0.05985195310870921,"253":0.022458027453323547,"254":0.06709445779259791,"255":0.0025580102790830465,"256":-0.05178906169937622,"257":0.08276422678790206,"258":-0.02608075247132452,"259":-0.06264047591908789,"260":-0.06069185284312676,"261":0.08211875147174123,"262":-0.04620861622572574,"263":0.017972641760719485,"264":0.009140556717164449,"265":-0.029211376037092,"266":-0.05786415455567,"267":-0.05553112259941433,"268":0.017297094152681172,"269":-0.09936844864495191,"270":0.015336826264077615,"271":-0.040948119684034626,"272":0.000316814807208179,"273":-0.051120757009531656,"274":-0.008465155567912093,"275":-0.03859094387024825,"276":-0.011466111596798237,"277":0.01262612058427502,"278":-0.07870801019607057,"279":-0.010956792163215046,"280":0.010194258291974477,"281":0.04887014769758079,"282":0.020228137952815476,"283":-0.045499630169973146,"284":0.03304913867013532,"285":-0.026899455625258244,"286":-0.056860089226690815,"287":-0.043840131359460154,"288":0.019910028360980343,"289":0.03981018496483666,"290":0.016685506744972534,"291":-0.011861237172471987,"292":-0.012826575591852258,"293":-0.02752563807123424,"294":0.004048728343799068,"295":0.06657215212994458,"296":0.035317816066523615,"297":-0.023574306667035087,"298":-0.02322208094976698,"299":-0.04715883207416424,"300":0.024303881543333065,"301":0.05582915546614724,"302":0.009575536529460457,"303":-0.034785955562043065,"304":-0.0422162335951522,"305":0.002984050750502363,"306":-0.03079248837792873,"307":0.046961340810434335,"308":0.00708354461165528,"309":-0.018222228184422953,"310":0.028710338499525038,"311":0.02492978493632837,"312":0.007290602586289386,"313":0.031237510012277155,"314":0.018161471104477005,"315":-0.009274984000970892,"316":-0.10174311922165279,"317":-0.017855681976105896,"318":-0.0015187949297793854,"319":-0.023374317406507358,"320":-0.10515546776714822,"321":-0.021868942252406126,"322":0.05102190662601665,"323":-0.0305311305242016,"324":0.051874094370488164,"325":-0.03175995878381065,"326":-0.044592432335301385,"327":0.009671639863325091,"328":-0.020085314254624703,"329":-0.04030117173968656,"330":-0.03333704992083284,"331":0.058659137995856474,"332":0.013186079931956411,"333":0.006412588489682446,"334":0.10157487259070558,"335":-0.020938548727512194,"336":0.016418510555613535,"337":-0.002581911698774621,"338":0.026734639210549544,"339":0.009448325072348808,"340":-0.001731140486672137,"341":-0.04367149630199579,"342":0.0058299659195523625,"343":0.0778855869052389,"344":-0.03691802180147854,"345":-0.02092314933666778,"346":0.05398938813476713,"347":0.033540172228829164,"348":0.025582073646416632,"349":-0.036698441324366796,"350":0.009031186482439524,"351":0.033533466309607934,"352":0.029947186699472033,"353":-0.035432543479848956,"354":0.01182723374674468,"355":0.02319461968038818,"356":-0.017850647418799277,"357":-0.05337202262085391,"358":-0.07975036710691222,"359":0.007872932684514448,"360":0.009808196348572648,"361":0.03332403886246492,"362":-0.022986822801957164,"363":-0.011677543665715766,"364":0.03663330861169797,"365":-0.04781847387828034,"366":0.018313395371732204,"367":0.027740604722138424,"368":-0.009938176634512378,"369":0.012733608303272553,"370":0.012795755766652225,"371":0.020438452025209643,"372":0.013095760103629115,"373":-0.006437675640794506,"374":0.036811191954601134,"375":-0.06524156990044074,"376":0.025264409975332216,"377":-0.06677285044405003,"378":-0.02590025664090117,"379":-0.05103162227030008,"380":-0.006409920275701281,"381":-0.008094162943819623,"382":-0.05436645862969334,"383":0.0263613596704112,"384":0.021655157993696526,"385":0.04845562640501223,"386":0.05724942349153536,"387":0.04372631249159998,"388":-0.035236891299558405,"389":0.027886168622805817,"390":0.002591549975564362,"391":0.012048327611535483,"392":0.04543489976945667,"393":-0.03907811888184022,"394":-0.003493483528909834,"395":0.023396087321498362,"396":0.0025016498639967564,"397":-0.02051485789922822,"398":0.04532277891590554,"399":-0.0018913070806208093,"400":-0.021464277127804014,"401":0.06589541421966091,"402":0.02704023555362765,"403":-0.008643746033322658,"404":-0.02639767740067616,"405":0.007391885284055865,"406":0.033385564693892464,"407":0.05141381175103072,"408":0.029795895856894367,"409":0.022003837116313017,"410":-0.04686458441041815,"411":0.01589646745834023,"412":-0.024019716401649894,"413":-0.028908914904974093,"414":0.03424739735861616,"415":-0.00945880109704033,"416":0.02207468947458321,"417":0.020562863852890665,"418":0.002938006929711775,"419":-0.023454669966084647,"420":-0.023704179157831268,"421":-0.03386119215467354,"422":-0.05214445871204906,"423":-0.008325002632637758,"424":-0.06684378420242644,"425":-0.05883992228380218,"426":0.029007013516039418,"427":0.011138297836193927,"428":-0.004043770063192262,"429":-0.021796420748923982,"430":-0.029980364628866166,"431":0.023008228658890198,"432":0.010974566536854453,"433":0.03226381546294915,"434":-0.04214280650750189,"435":-0.0015158274427871867,"436":-0.020406065597158154,"437":0.06446250452322136,"438":0.03252874042531394,"439":-0.000516737124291803,"440":-0.05740382660894765,"441":-0.048094300257483576,"442":0.0025322267302683313,"443":0.0712382814125238,"444":-0.005277297439808905,"445":-0.019365095483791513,"446":0.03725120933956694,"447":-0.014290557156252591,"448":0.01363265128712514,"449":0.007381411310084178,"450":-0.007062314510863322,"451":-0.0004422664433564472,"452":0.013612984289034203,"453":-0.0015235831013454787,"454":-0.03547860802852991,"455":-0.013700619324186796,"456":-0.05047778483442671,"457":-0.03372459763862247,"458":-0.02330785658261253,"459":-0.0016725148243629166,"460":-0.003594289164406047,"461":-0.048645227506239716,"462":-0.013601498905083347,"463":0.030222143695156366,"464":0.06069614162284199,"465":-0.02755519086251078,"466":0.025858205219446106,"467":-0.0033639243168856296,"468":0.025251121910556278,"469":0.06841876583330236,"470":0.008553949269710096,"471":-0.034047294020535114,"472":-0.022947733443614633,"473":0.06062696002111983,"474":0.04265042473286057,"475":-0.007737497370543214,"476":0.0063734413572419605,"477":-0.01630199227444206,"478":-0.04194542258489332,"479":0.016070589558153336,"480":-0.03541221476842808,"481":0.07914278132311965,"482":0.03209612989292325,"483":-0.043845492789804805,"484":0.021243270234407568,"485":-0.07531039318604732,"486":-0.024334530984854223,"487":0.013558070839435108,"488":0.015380246407289761,"489":0.024651232273249626,"490":-0.007285892156117481,"491":-0.002053731490247211,"492":0.032427793590271835,"493":0.012571557402233806,"494":0.016933572720538963,"495":0.02669353796851376,"496":-0.037430829042827685,"497":0.0020364581286705583,"498":-0.08154224926218086,"499":0.0327412946020433,"500":-0.027286312780989044,"501":0.03734676611294242,"502":-0.006761445017061527,"503":0.06265928607284917,"504":-0.05213641938873939,"505":-0.08306902940363134,"506":0.014510172946639005,"507":-0.03327093162870637,"508":-0.008208711554377756,"509":-0.023512673149741595,"510":0.019397391747995412,"511":0.04203870541343836,"512":0.027866513117432986,"513":0.02001767051987872,"514":-0.010607768714961788,"515":-0.009740148232267707,"516":0.010018862966649365,"517":0.022735855030377786,"518":-0.03378536610609646,"519":-0.04057099964890022,"520":0.025029269673648033,"521":0.036843296457379986,"522":0.0501597336016297,"523":0.07124894963588545,"524":-0.039537677277288186,"525":-0.0131802849221833,"526":0.009639641879837858,"527":0.01278153523174192,"528":0.0061711384921675294,"529":-0.011837614345305739,"530":0.0016458184570192524,"531":-0.013877089751470997,"532":-0.02771872982212598,"533":0.024256778748182148,"534":-0.004909705181562239,"535":-0.0886157403278785,"536":-0.05062064513220651,"537":0.033109434315106684,"538":-0.034972920893275944,"539":-0.000835556360663805,"540":-0.0015920149225636788,"541":0.0014278372593847944,"542":-0.028639683792470883,"543":-0.037978276060256465,"544":0.005351718673371541,"545":-0.06327746491251461,"546":-0.008562842913937808,"547":-0.017200486554170485,"548":0.025818352906825843,"549":-0.004346655587027894,"550":-0.018616091814478663,"551":0.027783715961728437,"552":0.019721391993911312,"553":-0.013931356965466287,"554":0.006532827903869615,"555":0.037083179004071494,"556":0.011272609334800857,"557":-0.01896687856954392,"558":-0.023392190285078215,"559":-0.012107040679959952,"560":0.016270784065199793,"561":0.043181810372344934,"562":-0.008452808531388262,"563":-0.013356945766611242,"564":0.08808063933521516,"565":-0.04870740639448879,"566":-0.03868679101616152,"567":0.030359485044290844,"568":-0.017423787672437362,"569":-0.03770899628974312,"570":0.010524640102419791,"571":-0.05730901132584964,"572":0.00028656407725687066,"573":0.026561233766415088,"574":0.003892830835804298,"575":-0.03582453661686093,"576":0.025442419064049503,"577":-0.02498757799175916,"578":-0.021008981247672528,"579":-0.0234169343825208,"580":-0.06232190376331946,"581":0.014286278862619043,"582":-0.06353670710356074,"583":0.011132554375040625,"584":-0.013298632820234576,"585":0.0051809746701880505,"586":0.037920837140679,"587":-0.04387726934497034,"588":-0.10115731107964505,"589":-0.01245774959574586,"590":0.014597736178023145,"591":0.002768205312744419,"592":-0.0927514356992959,"593":-0.045540972981407454,"594":-0.05044385199244926,"595":-0.030778903154610713,"596":-0.0009590146880706137,"597":0.006452886579580493,"598":-0.004426014503027254,"599":0.02633061919549479,"600":0.0051858461382611335,"601":-0.06500599773696075,"602":-0.0167521755724579,"603":0.05562542747450503,"604":0.018995226510967866,"605":-0.02700621437687933,"606":0.005211347217396005,"607":0.0028389896867188715,"608":0.04030993519923271,"609":-0.010140537962464129,"610":0.0422298069716842,"611":-0.027091844626223625,"612":0.03376474573738759,"613":0.0016341664192834032,"614":-0.07735955677906362,"615":-0.035692751909036174,"616":-0.01574020480996948,"617":0.0059286350068174865,"618":0.003874447092766438,"619":-0.06856921890701144,"620":0.03367591192616809,"621":-0.03016186718114355,"622":0.04282840703558553,"623":0.01506572162142523,"624":0.005537719574739061,"625":0.014488023247650214,"626":-0.0116018577722566,"627":-0.010928980279968602,"628":0.03666255963950516,"629":-0.0449102047705279,"630":0.0029130417269794514,"631":0.0047764473450166685,"632":-0.04317834090287133,"633":0.0015885910307634212,"634":-0.056418827007274554,"635":0.013607581665405084,"636":0.007912204213943995,"637":-0.05068944452606595,"638":0.03958921433695409,"639":-0.05959070578259387,"640":-0.06214360531902519,"641":-0.027026426359823115,"642":-0.0011630649847878892,"643":-0.010961304595654621,"644":-0.026173343729945016,"645":-0.02497797775719884,"646":-0.014676632067963527,"647":0.007642947455887391,"648":0.0007833537519375965,"649":-0.006118372912469299,"650":0.019169443540016616,"651":-0.05691686839848915,"652":-0.01117820298003786,"653":0.033815859658497725,"654":0.002797782687888605,"655":-0.021215709865248556,"656":0.02561929175852595,"657":0.013482260868762433,"658":0.0150661323948516,"659":-0.004612424896810136,"660":-0.03124015205413858,"661":-0.030932006698061218,"662":-0.013991322641274147,"663":0.047909362935019593,"664":-0.03137883052361869,"665":0.0027285777388349475,"666":-0.0779996343468287,"667":0.015239566462486238,"668":0.030207114146045894,"669":-0.006041637029393048,"670":0.0128267505256653,"671":-0.06274461886314281,"672":-0.025008395446321996,"673":-0.025861868959341717,"674":0.024684202568236953,"675":-0.0337599556738628,"676":-0.07892295260165286,"677":-0.05007662134941636,"678":-0.006774000236456376,"679":-0.042724020541491305,"680":-0.04800877956210172,"681":-0.0034328851442757048,"682":-0.037296782049137375,"683":0.02206615153369019,"684":0.0007839682151281865,"685":0.03222567278027729,"686":0.06773328186904562,"687":0.07949583656486332,"688":0.030353172418366037,"689":-0.051081593933060554,"690":0.02492302243222235,"691":-0.02553405559841978,"692":-0.02024529342250483,"693":-0.09649502947236595,"694":-0.005190863164299924,"695":0.017606527656981456,"696":-0.04174387808921346,"697":-0.02734638296207703,"698":-0.035603090682377735,"699":0.024756879492799613,"700":-0.05389546667007973,"701":0.031955416319190896,"702":-0.09293258825799629,"703":0.05324778199628655,"704":-0.01271787500079546,"705":-0.011217340960745194,"706":-0.050826098360670015,"707":-0.007030589029089276,"708":-0.056786840499316246,"709":0.01739366684647674,"710":0.00005617224069343944,"711":-0.003086128041607114,"712":0.036136444570052134,"713":0.002591701973498539,"714":-0.051601462686035965,"715":-0.0029747334085028377,"716":-0.0028522591430272465,"717":0.004939404917486107,"718":-0.029407729751703984,"719":0.006560951501875677,"720":0.00009874631997279604,"721":0.015456147638432812,"722":-0.00011712029743011032,"723":0.0424094012981839,"724":0.02426744702514999,"725":-0.024825471569789415,"726":-0.025778051904037667,"727":0.023960507667390545,"728":-0.03144405136611908,"729":0.00719564322467641,"730":-0.02121556210739524,"731":-0.004694248303371831,"732":0.010508661351569767,"733":0.02651927638848712,"734":0.01884103835480609,"735":0.08177969404732496,"736":0.014508746481033044,"737":0.042470763296776785,"738":0.027701456105971533,"739":-0.10277184465513883,"740":0.01630415344935697}},{"sx":1,"sy":1,"depth":741,"w":{"0":-0.01101812505166462,"1":0.04752961290624899,"2":0.02053644511698067,"3":0.02904977380944229,"4":-0.00345376144133186,"5":-0.018629229879779798,"6":0.010660645341825804,"7":-0.022639161871294704,"8":-0.03436253903398852,"9":0.044967977241371776,"10":0.05286857235045195,"11":0.053548085023037505,"12":-0.026466611943112114,"13":-0.08134631352748715,"14":0.021704490961215926,"15":-0.05586624295026016,"16":0.027896057384272047,"17":-0.0016669299870726354,"18":-0.021786967319256015,"19":-0.01611957490886092,"20":0.027497787234576052,"21":0.01404877116197864,"22":0.015045743012393396,"23":0.004858089530158066,"24":-0.014654245183785712,"25":-0.03825480851171812,"26":-0.021917403559027226,"27":-0.02609888226984532,"28":0.006811798013894052,"29":0.013489445959359407,"30":-0.02635147438473974,"31":-0.002771314866984574,"32":0.01986096761235408,"33":0.0006366200366043229,"34":-0.024009206769152427,"35":-0.007169908894125601,"36":0.022986763153479257,"37":0.02878280411070415,"38":0.01766649394764388,"39":0.06315553114018967,"40":-0.0071438062907114705,"41":0.022788282101691107,"42":-0.03176194708014204,"43":-0.0010068562400078359,"44":-0.04196032579857665,"45":0.05188577643591891,"46":-0.00418823845342386,"47":-0.028329578438924724,"48":-0.0000772185152315766,"49":-0.03627064098146336,"50":-0.04120974368360007,"51":0.00017581083163640824,"52":-0.023467744958760604,"53":0.04000905046000869,"54":-0.021546144812484486,"55":-0.015876034924213002,"56":0.06410290331953411,"57":0.012436362673086723,"58":0.0025865379417431434,"59":-0.040919011482338924,"60":0.046631897571711586,"61":-0.005510059393338397,"62":0.02474868712863461,"63":-0.040100756686160914,"64":0.058049128461327676,"65":-0.0644712607064904,"66":0.01964987508379319,"67":0.0070982812511104585,"68":-0.03260358492639932,"69":-0.003966302853817693,"70":0.011160966223663802,"71":-0.07881581669380112,"72":-0.037345885593129347,"73":0.006000578548752139,"74":-0.004503887499468972,"75":0.023566777597581984,"76":0.042950169506059635,"77":-0.0072914096328076106,"78":0.01980736166695637,"79":0.019225592706341745,"80":0.007880477135258045,"81":0.004919116702114124,"82":0.010630038508419183,"83":-0.036841071903996506,"84":0.058434403894103336,"85":-0.03126865517406925,"86":-0.009703967512691834,"87":-0.03885844507894252,"88":0.0031149502331199504,"89":-0.019580969483082123,"90":-0.055036314499438146,"91":-0.0023502759293560532,"92":-0.03176672188754913,"93":0.025390930822579226,"94":0.033781932670148174,"95":-0.01072350411256985,"96":-0.04992455521653585,"97":0.0452853212828817,"98":0.04199027028517507,"99":-0.06583146719816843,"100":-0.04232337228406786,"101":0.02956770553596253,"102":0.049919222365257615,"103":0.0032751274034806322,"104":0.042313483780583284,"105":-0.06046186091214914,"106":-0.005348273184367948,"107":0.014261500810552061,"108":-0.00035952982673739255,"109":-0.028617569296082966,"110":0.07551120144468605,"111":-0.03980394561311243,"112":0.08056480280684053,"113":-0.0026859008629452424,"114":0.0024117536875434492,"115":-0.012064262634345254,"116":0.04109966653712182,"117":0.004533314772834365,"118":0.014473844839803884,"119":0.04581374956974835,"120":-0.03998891038005841,"121":-0.011796374962859464,"122":0.06229235984304959,"123":-0.009284424318500266,"124":-0.06550846718095714,"125":-0.00449210063355408,"126":-0.013536270547010922,"127":-0.03156700017613008,"128":0.05611315901878754,"129":-0.04599270785438493,"130":-0.01196114198869386,"131":-0.04038719739538486,"132":0.020547721407793634,"133":0.02972801133389239,"134":0.059836060978890694,"135":0.03503728601334751,"136":-0.02425536174998418,"137":-0.008609974494164977,"138":0.008530632286281757,"139":0.008722972932358025,"140":0.007906824153204574,"141":-0.03823955503956126,"142":-0.022591547468640862,"143":0.029644076407423475,"144":-0.0040356711124338255,"145":-0.04701881358274843,"146":0.008138120749687606,"147":0.011204125519668354,"148":-0.01769635157420464,"149":-0.07815070307204369,"150":-0.01668014804456503,"151":-0.024607350736537727,"152":-0.003017693644513968,"153":0.030652983287715894,"154":0.019736197719175116,"155":0.015524228455715295,"156":-0.05164406227324291,"157":0.025119530823207895,"158":-0.02970407098912761,"159":0.025483503472496085,"160":-0.029990718821789237,"161":0.0029574643321538196,"162":-0.024829464555090604,"163":0.011203198697550272,"164":0.04348349041381624,"165":0.048553309119066294,"166":-0.07882833771695365,"167":0.01985947075232397,"168":0.009083759829049382,"169":0.011805701903497074,"170":-0.014168945057981901,"171":-0.0037318475897249645,"172":-0.05066673571796285,"173":-0.0011933120774828582,"174":0.05221596534604821,"175":-0.009862011355753007,"176":-0.06394569286575913,"177":0.055694526043347604,"178":-0.06646299912781536,"179":0.03663133123484974,"180":-0.04535587291596405,"181":0.010323872930942684,"182":0.03890137460669534,"183":0.058783307855852146,"184":-0.015165775020371818,"185":-0.015464779241679496,"186":-0.03546544182180472,"187":0.040835625705106765,"188":0.0028569389337059557,"189":0.015508433734663216,"190":-0.006799198057451362,"191":0.006357406920406457,"192":-0.015653701962582915,"193":0.009147487205743116,"194":0.0268561816514496,"195":-0.03864139203984072,"196":0.004379824343753695,"197":-0.04150560007766761,"198":-0.04446250946167989,"199":-0.007207180057817987,"200":-0.06581786422006226,"201":-0.00104786163304157,"202":0.022147984185765038,"203":0.0027233426916719017,"204":-0.036737440662811524,"205":0.0021381334741205986,"206":0.021116656504948338,"207":0.040361462006526086,"208":0.033907293475521634,"209":0.0007307964534025774,"210":0.037161585661412415,"211":-0.003591576043962498,"212":-0.06479627246130436,"213":-0.019639975350442755,"214":-0.00027941232641312704,"215":0.001012044777839269,"216":0.007674172148437205,"217":-0.04643973460722917,"218":0.014363629191143935,"219":0.010765675564579096,"220":-0.01926069253394357,"221":0.04010854646029908,"222":-0.06475097710007342,"223":0.005796646287450747,"224":0.061682486805865605,"225":0.04880674380065819,"226":0.04598490938557649,"227":-0.01585020309405399,"228":0.026161383515149492,"229":0.005314643381114888,"230":0.020475499421748655,"231":-0.0043800275989645705,"232":0.02642619092821405,"233":-0.01309014583698175,"234":-0.060123696407802546,"235":-0.039574574977209204,"236":-0.08169204696614779,"237":0.03160924663755027,"238":0.014317024648253037,"239":0.04221307345175404,"240":-0.04451791296793383,"241":0.011031483359415877,"242":-0.0060736196761584284,"243":-0.009473511865638308,"244":-0.013043843686231309,"245":-0.049178373019849383,"246":-0.05586357774668575,"247":0.04855704001170855,"248":-0.0113994515192592,"249":-0.035985267556974204,"250":-0.01990619638851104,"251":0.015336926901114887,"252":0.0016611115082908563,"253":0.02903832436711041,"254":-0.0156658323636887,"255":0.06144823201865181,"256":-0.03212748538428256,"257":0.033898686203506466,"258":0.000007309614224038813,"259":0.033740017965108435,"260":-0.0054910244622116125,"261":-0.04727904248010713,"262":0.003262104464320246,"263":-0.022091364405319405,"264":-0.06336934091968524,"265":-0.0013096672248139771,"266":-0.039638748166280005,"267":0.013208965646060859,"268":-0.04073946632487082,"269":0.002762880440975308,"270":0.0553502493565786,"271":0.11349723012508064,"272":0.029692611816854085,"273":0.005405263950209869,"274":0.02968244619828815,"275":-0.021154665786898712,"276":0.020982771246708606,"277":-0.08157784647521162,"278":-0.0011306337675441624,"279":0.005557583976201727,"280":-0.031024848552189708,"281":-0.05935004785241579,"282":0.020049200496433873,"283":-0.027626607165612847,"284":-0.08579284774563951,"285":-0.06723615414141347,"286":0.006279780343938664,"287":0.008594925860272041,"288":0.04229778932759347,"289":0.09926428385932122,"290":-0.013312260492326353,"291":0.055977534738847846,"292":-0.04438046628482666,"293":-0.023960501103369822,"294":-0.007010668842736067,"295":-0.11321601941483284,"296":-0.006482380030163199,"297":0.022968054706682336,"298":0.027320776238894773,"299":0.05765468014449917,"300":0.037148172775076295,"301":0.0760338556175789,"302":0.010445892268657485,"303":0.0060712516897968635,"304":0.02001179636977589,"305":0.043911276111100524,"306":-0.01498923354448766,"307":0.06288632203651366,"308":0.0216214025738854,"309":0.09140585248556082,"310":-0.05139804483199671,"311":-0.10626201752841645,"312":0.0004351500601563505,"313":0.0379119081449642,"314":0.014475357128153716,"315":0.0027680376312658487,"316":0.029608419849435214,"317":0.017359059227536534,"318":0.06705450988242115,"319":-0.005854464312512263,"320":0.009107663918090233,"321":0.033357210818317606,"322":0.017530923182515167,"323":0.03434502013139961,"324":0.03877614091265786,"325":0.009444888140474145,"326":0.03869683659141009,"327":0.04170733962276404,"328":-0.08901797644231152,"329":-0.03136309391212288,"330":-0.0048149316341231695,"331":0.03771457782403936,"332":0.0009616254948066518,"333":-0.024956283629481407,"334":0.011459875991803085,"335":0.05457694740776113,"336":-0.025898206136311296,"337":-0.0116698692427503,"338":-0.005438120911204699,"339":0.016850028947048137,"340":0.005485431182993837,"341":-0.03139952814676967,"342":0.004124608602188987,"343":0.035606776540619826,"344":0.0023377208646864806,"345":-0.01266085014022142,"346":0.012243780440173933,"347":0.020047599101143225,"348":-0.014975012735741639,"349":-0.03771468153067742,"350":0.029025666104055874,"351":-0.03499246876086396,"352":0.038763835937766514,"353":0.05788073703314039,"354":-0.004845705329373711,"355":-0.021800119633378884,"356":-0.033375394461871044,"357":0.004205155400598818,"358":0.0015013481441574523,"359":-0.041401489341346714,"360":-0.027277424777082324,"361":-0.07859236094131548,"362":0.016298614749299903,"363":0.0018609011023881885,"364":0.04887101539029801,"365":0.03591857409722519,"366":-0.0066831024385610085,"367":0.0032290285251604023,"368":0.07433737363400279,"369":0.020102529053272557,"370":0.038414415600702176,"371":-0.04653329354751097,"372":0.027513093723202042,"373":0.01181930254813679,"374":0.003171746337163428,"375":0.04296000474239514,"376":-0.027915634092330544,"377":0.00845304372529891,"378":-0.009691280943232123,"379":0.01787002888180327,"380":0.06113000098928903,"381":-0.02098808643765202,"382":-0.028321218330864206,"383":-0.03395394883536662,"384":0.0116228350413501,"385":0.009310093676416024,"386":0.023408736244017726,"387":-0.007807622434145055,"388":-0.043057587240661166,"389":0.05291415875161688,"390":-0.000009599191581950447,"391":0.028344588396013476,"392":-0.018772977037016192,"393":0.09184828852195213,"394":0.09421327326230097,"395":-0.017215104635474238,"396":0.009865038680641508,"397":0.012301273322732675,"398":0.030498164088348382,"399":0.0010088264543448315,"400":0.0299488324812849,"401":-0.05214417572892605,"402":-0.00740108934605626,"403":-0.05611230423049453,"404":-0.0238779228352135,"405":-0.006688804492026341,"406":-0.05337981058004363,"407":0.016988949913399706,"408":-0.003161253336020586,"409":0.05194110750136389,"410":-0.02067667035989277,"411":-0.019271327810499204,"412":0.007624261547587952,"413":0.044076171505932106,"414":-0.014724846510668419,"415":-0.05346269597990307,"416":-0.10720316025141136,"417":-0.03288062613131425,"418":-0.0433779799652551,"419":-0.025798213041428774,"420":-0.016109654766358825,"421":-0.013731632065597785,"422":-0.03566789721438593,"423":-0.0251448989660236,"424":0.044108163392794365,"425":-0.02373204123634558,"426":0.025790311795813026,"427":0.005610070724321225,"428":0.011845672499861308,"429":-0.013804830563924692,"430":-0.013477019847001321,"431":0.010464661560077663,"432":-0.0031108509608423394,"433":-0.08457650361664933,"434":0.03256191296049391,"435":0.037598649090971645,"436":0.050207534253304334,"437":0.022313243469689173,"438":0.010854312504417036,"439":-0.03390563523113526,"440":-0.04349609721059523,"441":0.07291380222648323,"442":-0.044008298837283626,"443":-0.04879868820339917,"444":0.07136048814441648,"445":-0.005252568891128099,"446":0.026291804131861978,"447":0.03664019255493123,"448":-0.06386407832725603,"449":0.002005476497000344,"450":0.09294509597562473,"451":0.007416907800623568,"452":0.01936288808603785,"453":-0.0510144912266912,"454":0.022077327009391776,"455":0.014734309598717854,"456":0.021053795812530918,"457":-0.017264836547896064,"458":-0.014991717658430848,"459":-0.05665989027314311,"460":-0.04846634529907954,"461":0.002142854724227766,"462":-0.04873954466845182,"463":-0.010064958410556808,"464":-0.002048666380506637,"465":-0.018421387091413933,"466":-0.031028327926662443,"467":-0.051804074691878005,"468":0.018397145333197962,"469":0.0061857259638250055,"470":-0.04516119370611356,"471":-0.043722858711638724,"472":-0.003917632358137769,"473":-0.04287609158579709,"474":0.013806709289247151,"475":-0.03225192639588761,"476":0.028762910313623075,"477":0.02425381492980298,"478":0.041773292780296255,"479":0.05818820075783117,"480":-0.00011755667701773466,"481":0.03849423648646339,"482":0.02628008838464863,"483":0.021796207947918558,"484":0.07184255977337642,"485":0.04445933828535029,"486":-0.0289048601346061,"487":0.03177259816698542,"488":-0.09432402227026312,"489":0.023117927254382175,"490":0.020014982553965433,"491":0.07713075987619127,"492":0.02406889634544555,"493":0.045636568629199105,"494":-0.005697701118915402,"495":0.021811825649443947,"496":0.010011109774500829,"497":0.014712632592452802,"498":-0.01145442196624179,"499":-0.04260353252481394,"500":0.006024559965095615,"501":-0.04858474714696187,"502":-0.03445281586343321,"503":-0.028535106181317344,"504":-0.000789666837771292,"505":-0.03400652210454765,"506":-0.01993408793916211,"507":0.013478118599469388,"508":-0.045743850982427094,"509":0.01148914945349928,"510":0.012533614967774043,"511":0.012782918902920815,"512":-0.0826877247546925,"513":-0.05746569273714002,"514":-0.04940172621847447,"515":-0.009465567814993567,"516":-0.053051469203725145,"517":-0.009671191413293194,"518":-0.013299783827120446,"519":0.03807831459402721,"520":-0.00027366465497587525,"521":-0.009375202277664073,"522":-0.007273682860450116,"523":-0.0001571078345599411,"524":-0.006867329989025247,"525":-0.0141995319245333,"526":-0.03743206974180472,"527":-0.009017159466327248,"528":0.02725384889573089,"529":-0.001965760901597617,"530":-0.007597581575934826,"531":-0.0011777690406680704,"532":-0.024154512437004273,"533":-0.030066911481890106,"534":0.030141535753441993,"535":0.009884256161099201,"536":0.04339341116921707,"537":-0.021909780922753922,"538":-0.003338512827619706,"539":-0.0049035030980817355,"540":-0.05848516008382629,"541":-0.023114118765715022,"542":0.0550634182225821,"543":0.035701952568405596,"544":-0.04121858721176567,"545":0.006472968778107805,"546":0.02242209523420441,"547":0.018849103218258983,"548":-0.005758329865733162,"549":-0.11030466202907711,"550":0.01971286162841762,"551":-0.028132678239205736,"552":0.01600334130433328,"553":-0.018757140532641037,"554":-0.03731673010052528,"555":-0.006333442091255761,"556":0.020652780698553922,"557":-0.01733626615361682,"558":-0.0001914183744506375,"559":-0.023063189224748735,"560":-0.017903720166839228,"561":-0.023908549511087673,"562":-0.030986617973318285,"563":-0.029001442843955158,"564":0.0658122975099583,"565":0.009183793649310887,"566":-0.050822007822567884,"567":-0.012878542431896905,"568":-0.010920849824429837,"569":0.024939231210020306,"570":-0.02249435684497968,"571":0.007388939617898466,"572":0.06938424938166798,"573":-0.0051209201563759705,"574":0.01747188031295481,"575":-0.04396545254874485,"576":-0.00262141502207143,"577":-0.007873783604008826,"578":0.05291741582211146,"579":0.06683024348606918,"580":0.004235436332578299,"581":-0.08882961886453583,"582":-0.05353658576384651,"583":-0.0668465400412732,"584":-0.07355926477349922,"585":-0.049037124364344306,"586":-0.05609451833824572,"587":-0.005888608940457461,"588":0.08195023356504992,"589":-0.013083837460733622,"590":0.04195828098499006,"591":-0.019749250010214863,"592":-0.007815012170140481,"593":0.056921668029283834,"594":0.03624345998236523,"595":0.017084808115616364,"596":0.021460035645020414,"597":-0.004046954041468199,"598":0.024762406435295637,"599":0.08627976469193609,"600":-0.018688973972805188,"601":0.01812680966072366,"602":-0.032089208165513514,"603":0.003563963768906667,"604":0.050615618249488493,"605":-0.044249814157026675,"606":-0.05175547157187418,"607":0.03837606917694231,"608":0.06526431286314142,"609":-0.06459269842130166,"610":0.022850608440750524,"611":0.0037986528784466084,"612":-0.0032338017897203843,"613":-0.012177615674193764,"614":0.028733331682033757,"615":0.0058919128037483335,"616":-0.05823524695141544,"617":-0.034460363514308937,"618":0.03325206000753863,"619":-0.010962490300209527,"620":-0.013661726019713391,"621":-0.016350059146739298,"622":-0.023055927687192418,"623":0.05551245219477066,"624":-0.03846118138204798,"625":0.01249672783371763,"626":-0.01639448268428841,"627":-0.022823975316451195,"628":0.036118998090329035,"629":0.04572694986448995,"630":0.044230954853100184,"631":-0.07296266899783627,"632":-0.06458070548190233,"633":-0.010088716033403068,"634":0.0022529288891072327,"635":0.0067615823549596055,"636":0.010532646227213135,"637":-0.01975609160142799,"638":-0.0005536746293220632,"639":0.00188086825041306,"640":0.07241750593443029,"641":0.010455699988405884,"642":0.039224239183650506,"643":0.0224506456510662,"644":-0.0133375527075802,"645":0.06783989225756304,"646":0.010677741137042016,"647":0.014272328905279857,"648":-0.001686572174504009,"649":0.011283493683463913,"650":0.058698386662441676,"651":0.0034627633314920623,"652":-0.07308842997249203,"653":0.0021330197734819646,"654":0.044676803863335335,"655":0.011872956530933319,"656":0.02295205653404118,"657":-0.047482861118825534,"658":0.04649544789736225,"659":0.05333967788927264,"660":0.022647067148565937,"661":-0.00847913555275687,"662":0.05309101509162719,"663":-0.055654497448747633,"664":0.06494258677914148,"665":-0.024392107303990204,"666":0.0004415495441254264,"667":-0.023507071068904952,"668":0.02456998018593184,"669":0.0066649995554550305,"670":0.04730186001853306,"671":-0.09275106844090111,"672":0.03259650355819904,"673":0.007811685966991251,"674":0.028215547728302887,"675":-0.0031289973557785482,"676":0.009782728200571762,"677":-0.0496758010731173,"678":-0.018593911727708145,"679":0.002071364242009751,"680":0.08630952545843286,"681":0.008520783787336901,"682":0.01291900964556693,"683":0.05196631847140885,"684":0.023506584276430598,"685":-0.007000481487255061,"686":-0.03576956356665055,"687":0.024496916025864648,"688":-0.014975474480552833,"689":-0.07743019868721639,"690":0.043763086921104054,"691":-0.016094714757790757,"692":0.010304036606402923,"693":-0.016863653860233863,"694":0.005839538107717545,"695":0.06132183519724533,"696":-0.031927522598174364,"697":-0.0151126622024924,"698":0.007983581823362328,"699":-0.025912877317297165,"700":0.012252927936035784,"701":-0.009422657551163819,"702":0.03519773971930711,"703":-0.03431743786204263,"704":-0.00796998153133549,"705":-0.0357274130280868,"706":-0.007081691288981787,"707":-0.00992100103240772,"708":-0.019302358767208518,"709":-0.03120398639416705,"710":0.014230711259060003,"711":0.06405843159895358,"712":0.00889319281717445,"713":0.018532630866187068,"714":0.04480243565787792,"715":0.01230615981291316,"716":0.008014159596285845,"717":-0.0375263274615053,"718":0.02085451102012674,"719":-0.037199901068891435,"720":0.05549015519314012,"721":-0.002786466895750675,"722":0.051937312745889294,"723":0.030483316461017488,"724":0.015880986465124466,"725":-0.032639157356906,"726":-0.012094148449513453,"727":0.039032167689087974,"728":0.010710645743013584,"729":-0.03634153794298021,"730":0.02449220654003815,"731":-0.09021702700961341,"732":-0.027770502734961722,"733":-0.0047876878838453395,"734":-0.05624645863744704,"735":0.020173748377668093,"736":0.056521186089834925,"737":-0.004919677498729601,"738":0.020642631813932943,"739":0.014678386463182268,"740":-0.05957656191173751}},{"sx":1,"sy":1,"depth":741,"w":{"0":-0.002431045440825093,"1":0.015589009773675971,"2":0.009958156145553843,"3":-0.012116627291880821,"4":0.032451514702410214,"5":-0.05148715685502985,"6":-0.00023454425721736283,"7":-0.012789596640459899,"8":-0.048428872047765865,"9":-0.005980921705432818,"10":0.11375719189688377,"11":0.06847181730071142,"12":-0.0004665189819125488,"13":-0.020276746781678578,"14":-0.00038659102507295585,"15":-0.03287232662357866,"16":-0.009730206800931892,"17":-0.02179953876040264,"18":0.012638575611423843,"19":-0.026967394902059617,"20":0.005647241382765925,"21":0.0034083633624720617,"22":0.013160483456371516,"23":0.05236901475217014,"24":0.025511604881967506,"25":0.01243239548859102,"26":-0.07668753129601937,"27":0.004778341822171121,"28":0.03417043926938445,"29":-0.02419119923268331,"30":0.020501408675497403,"31":0.05619258821071436,"32":0.05098283106524768,"33":-0.0005660077195572891,"34":-0.011387523928839932,"35":0.029414169531458107,"36":0.005833083940520149,"37":0.026621445067192193,"38":-0.025558960781275494,"39":-0.014660483564402466,"40":-0.02650054366813897,"41":0.010684853692684251,"42":-0.043752451480209065,"43":-0.006899913808878813,"44":0.011723868691473389,"45":0.0772417581741677,"46":-0.0005291977255779162,"47":-0.03329357969700538,"48":0.04281613218794417,"49":-0.021538602644672798,"50":0.053464804612149266,"51":0.054818694229471235,"52":-0.04655757010191103,"53":-0.023319007368424134,"54":0.03858989882044293,"55":0.003018150202502044,"56":-0.031900489247101003,"57":-0.013860546626333431,"58":-0.020580669402053213,"59":-0.004226276559886907,"60":-0.005048224172901351,"61":-0.047750224420782104,"62":0.04501575372927186,"63":0.03382899654466057,"64":-0.08118335825200391,"65":-0.03241099002014199,"66":-0.043048296432187515,"67":-0.005965234308469969,"68":-0.02415931337248546,"69":0.0015285632450704842,"70":-0.038612116151521124,"71":-0.024314166981914898,"72":-0.053162661622389404,"73":-0.043697873908341164,"74":-0.0008347693891097495,"75":-0.05545745621171111,"76":-0.051280238808726786,"77":-0.02992495395321029,"78":0.061332058817032555,"79":0.04380781978306118,"80":0.05428443434782386,"81":-0.028317635266562804,"82":-0.043729709814620384,"83":0.011146661485489012,"84":-0.010129401789504255,"85":0.036518608613435664,"86":0.025776969488496764,"87":-0.02511041485640125,"88":0.08847390056764716,"89":-0.005382367955270989,"90":0.014175831550676183,"91":-0.07877998366707031,"92":0.07326785479982381,"93":-0.04715786539206918,"94":0.027028963019127335,"95":0.05632210692096817,"96":-0.053439367215729804,"97":-0.022374134328132365,"98":0.03148261469550283,"99":-0.051289253354168174,"100":0.013313693010462996,"101":-0.013418945012159351,"102":0.03873645862795296,"103":-0.1088413949760138,"104":0.01115521843190939,"105":-0.012854386417073843,"106":-0.011596529194044912,"107":0.005690281389513827,"108":0.0029175719681552668,"109":0.0572472113180424,"110":0.007491818285769891,"111":-0.04263163391802497,"112":-0.015967917566849555,"113":0.0387403836506766,"114":0.017828898928023043,"115":0.03775871954361791,"116":-0.08292354419886175,"117":0.03982287446585011,"118":0.006826695166399181,"119":0.03899241459990876,"120":-0.01759708730262197,"121":0.039160510128025273,"122":-0.01584889927294874,"123":-0.03294011031801798,"124":0.011171236631802446,"125":0.03617292509913962,"126":0.022261388313086012,"127":-0.010652471287127423,"128":-0.006485608570534796,"129":-0.008008408390103295,"130":-0.04237494450239221,"131":-0.03423096654664393,"132":0.030212102466671435,"133":0.0600358989212121,"134":0.025398932215850677,"135":0.03595166041365516,"136":0.04976001219439507,"137":-0.004283939116211238,"138":0.0581309566877436,"139":-0.03740951419174205,"140":-0.007626555289793802,"141":-0.0022799063229316965,"142":-0.07081601570167284,"143":0.044092428576464913,"144":-0.04960337935980181,"145":-0.054449759104291735,"146":0.006088246423975215,"147":0.0335159538174478,"148":-0.06867982252379673,"149":-0.006353543477977594,"150":-0.03858259238028516,"151":0.013508670387355972,"152":-0.041595190636570585,"153":-0.040928673237650356,"154":0.040750771395201044,"155":0.07022334007148869,"156":-0.01546304911272304,"157":0.01024152499242187,"158":0.00800806064656,"159":0.05981809485890686,"160":0.029531026963330192,"161":-0.0204973323364392,"162":-0.08348433885205118,"163":-0.006963897336682975,"164":-0.017449366931075846,"165":-0.01356322364447499,"166":0.03439596220109795,"167":0.01914977428933724,"168":-0.011054021127418006,"169":-0.04329796648099457,"170":-0.028707213038581987,"171":-0.020357163648171275,"172":0.03793492725526072,"173":0.02799956578417242,"174":-0.006374900623600405,"175":0.0057025307850874065,"176":0.08544656803181643,"177":-0.002790297463642269,"178":0.03841115087976049,"179":0.0295172172822147,"180":-0.08577193528779135,"181":-0.01635785670035156,"182":-0.053984518286921565,"183":0.030279072849357287,"184":0.017294779915631258,"185":0.033870338575211295,"186":0.01094013343453732,"187":0.09285030928832051,"188":0.043537189036758114,"189":0.016403426759703115,"190":-0.0027266014064329745,"191":0.022154709843288347,"192":-0.010499850794835485,"193":-0.032188769874437,"194":-0.01973112588914923,"195":-0.02911383080388105,"196":-0.03279751661904938,"197":0.0774180927791391,"198":0.009177111149695619,"199":-0.01365188111394787,"200":-0.010031294842173655,"201":0.01119430788776168,"202":-0.05030635167900352,"203":0.034355505606056436,"204":0.008016693579740755,"205":-0.011013584685008303,"206":0.012005359158411711,"207":0.03425340066425205,"208":0.004094809909963233,"209":0.022177492143448538,"210":0.011584433219301249,"211":-0.0653992338834418,"212":-0.030648003422667706,"213":0.05671703103663417,"214":0.017216319069192115,"215":0.047885946379678204,"216":0.0046536967986016,"217":0.016673646856879092,"218":0.001423795924458687,"219":-0.04565178699085427,"220":-0.023003068081095507,"221":0.06292745035742592,"222":-0.019994663750754312,"223":0.02048512943386112,"224":0.048429815641480425,"225":0.04425502735410091,"226":0.03514107500572093,"227":-0.05577836932044859,"228":-0.0017922278536822835,"229":-0.004100751210047693,"230":-0.0336834816285068,"231":-0.038954167790810124,"232":-0.005381883262396289,"233":0.06667867683217417,"234":0.09437135017870148,"235":-0.041872776190417765,"236":-0.004534622589013343,"237":0.03049744271283043,"238":-0.016810820784040656,"239":-0.0008426366634977635,"240":0.00247648519439625,"241":-0.007327615952508734,"242":-0.04605660946078908,"243":0.01989520270672754,"244":0.032406962263243376,"245":0.01991976225739094,"246":0.04777251291007008,"247":0.015784773377262678,"248":0.006969323862761987,"249":-0.045993484351990875,"250":-0.013381983881814608,"251":0.04114998473878291,"252":-0.05807449581811557,"253":-0.03343804867790606,"254":-0.07027103732272484,"255":-0.017479619957036455,"256":-0.017095363582474397,"257":-0.04206002718703715,"258":-0.10170618489734826,"259":-0.041443679008995496,"260":-0.04635498777758083,"261":0.016049208317301854,"262":-0.008987195742398759,"263":-0.050445668216915755,"264":0.04164057608253173,"265":0.05910621284645338,"266":-0.04965085669500102,"267":-0.040734058880616555,"268":0.028599946925332066,"269":0.0144085723066945,"270":0.005180669091182946,"271":0.059185156491418436,"272":-0.03478835841123116,"273":0.0247781248978905,"274":0.023034038358767037,"275":0.06409105461803154,"276":-0.014112683611631335,"277":0.04145220071472836,"278":-0.031671951401920063,"279":-0.024821755420279958,"280":0.003505523624092035,"281":-0.04237529179035605,"282":0.05406969884356005,"283":-0.05868570657238376,"284":-0.023979607698229634,"285":-0.05277075976595015,"286":0.0704371348839204,"287":-0.0013357693637270267,"288":0.005747685171576043,"289":-0.04539390026354255,"290":0.00012547993492002652,"291":0.0343483416929776,"292":0.09690595886274339,"293":0.02654680790319644,"294":0.01016102566512932,"295":0.012316020568374048,"296":-0.03642561428212396,"297":-0.0872434170237425,"298":-0.02106341338535729,"299":-0.01221859190708547,"300":-0.02091622225554045,"301":0.044993725063971965,"302":-0.03008628777395978,"303":0.012602505281398642,"304":0.03729381206964828,"305":0.0023788427396186367,"306":0.026762186349346195,"307":0.0008854282309039056,"308":0.021376041964935342,"309":0.0030337972096056475,"310":0.0017449740752558578,"311":0.050913065073780864,"312":0.03464626785684949,"313":-0.030666615118455916,"314":-0.007552882579965172,"315":0.03882243148026322,"316":-0.05772405685704923,"317":-0.03305399503473505,"318":0.02563571237959598,"319":0.009427633107502276,"320":-0.03230244025264122,"321":0.012235551124621668,"322":0.06738643284407815,"323":-0.019465962829460327,"324":0.004711199594652039,"325":-0.003591365904342928,"326":-0.015526141899975218,"327":-0.043304499144855804,"328":0.009811145421057882,"329":-0.0111632999081984,"330":-0.003983540078390235,"331":-0.01220160853999698,"332":0.04090344574480538,"333":-0.010404855806767569,"334":0.05949865282213796,"335":-0.019873401856268257,"336":0.01174745345469049,"337":-0.0092758042414524,"338":0.04667527495709583,"339":0.004365362184787828,"340":0.040552606766468796,"341":0.01547717104300867,"342":0.03007079020947629,"343":-0.011201586624303699,"344":0.05498241851075972,"345":-0.03919420773476588,"346":-0.007482939941318543,"347":-0.04498718128856692,"348":0.02743926676460304,"349":-0.03121631739449349,"350":0.06880775630918334,"351":-0.05699265771846204,"352":0.030185987694569465,"353":0.07704601071863917,"354":-0.017808421166058814,"355":-0.03677850587309169,"356":0.017993479281188295,"357":-0.017992114833721776,"358":-0.007643322391926657,"359":0.04938258564608538,"360":0.03390647987694402,"361":-0.01026159925857251,"362":0.01310034956751106,"363":-0.046315251224136295,"364":-0.005325741595180054,"365":-0.0026130057282128553,"366":0.033504842988736065,"367":0.0407315789884613,"368":-0.032594446609410604,"369":-0.08541506104671491,"370":-0.04589133837415786,"371":0.0025794490322269153,"372":0.01296321156802535,"373":-0.026827236170516272,"374":0.05330968780999163,"375":0.04542766384926959,"376":0.04652909030454233,"377":0.004954570216131081,"378":-0.03283934437995594,"379":-0.03467320976524233,"380":-0.01494483326118471,"381":0.012019230614016732,"382":-0.07172734702189408,"383":-0.02740342483511681,"384":-0.07159348049169877,"385":0.05388334055291486,"386":0.03976827220300405,"387":0.008938099807456709,"388":-0.022337921595207647,"389":0.018452817482412422,"390":0.020199389156774092,"391":0.04379549590988531,"392":0.0059767130971305395,"393":-0.0456493198253807,"394":0.0389192501633848,"395":-0.01040704154999566,"396":-0.007699669162999309,"397":-0.007944318982939383,"398":-0.03260273642186215,"399":-0.03895441249242554,"400":-0.01658152231849939,"401":-0.0720227315573231,"402":0.004467735406086163,"403":0.0007279474929690811,"404":-0.05284377341604941,"405":-0.012361485732490443,"406":0.011257912778933853,"407":0.03343092719820324,"408":-0.03168271555605564,"409":0.03434815500603011,"410":0.011828529373385924,"411":0.0917713118078276,"412":-0.05405482665325313,"413":-0.014217857518766005,"414":0.00022891039703397322,"415":0.05390971203935448,"416":-0.033552998513818655,"417":0.004640851974859506,"418":-0.02939433544708946,"419":-0.03319904017262396,"420":0.04330486035259319,"421":0.04649681535906001,"422":0.0006793613908229817,"423":0.01845401426443699,"424":-0.015241652529840853,"425":-0.01172121553876894,"426":0.006573321055565554,"427":0.012850971800865243,"428":-0.03008876178837578,"429":0.015229517319233849,"430":-0.020259068485492776,"431":0.05638982209496647,"432":0.0005780315544136133,"433":-0.019568377305973644,"434":-0.02406475366930066,"435":-0.01739718347556627,"436":-0.04587613979082119,"437":-0.00570204426950007,"438":-0.03193567537970972,"439":-0.02108858427945519,"440":0.05101532883487877,