//<![CDATA[ 
var ref =15
var refinement = ref//Math.pow(10,ref)
console.log("refinement level is at " + refinement)

function fibonacci(num) {
    var a = 1, b = 0, temp;

    while (num >= 0) {
        temp = a;
        a = a + b;
        b = temp;
        num--;
    }

    return b;
}

var refib = fibonacci(refinement)
console.log("refib is " + refib)

// a few things don't have var in front of them - they update already existing variables the game needs
lanesSide = 6;
patchesAhead = 19;
patchesBehind = 9;
var temporal_window = 0;

trainIterations = Math.pow(refib, 2) // 1000 * Math.floor(Math.random() * 128) + 2;
// var width = 17
// var depth = 1
// the number of other autonomous vehicles controlled by your network
otherAgents = 0//Math.min(0, 10 - 100 * Math.floor(Math.random())); // max of 10


var num_inputs = (lanesSide * 2 + 1) * (patchesAhead + patchesBehind);
var num_actions = 5;
var network_size = num_inputs * temporal_window + num_actions * temporal_window + num_inputs;

var layer_defs = [];
layer_defs.push({
    type: 'input',
    out_sx: 1,
    out_sy: 1,
    out_depth: network_size
});

layer_defs.push({
        type: 'fc',
        num_neurons: 17,
        activation: 'relu'
    }
);layer_defs.push({
        type: 'fc',
        num_neurons: 17,
        activation: 'tanh'
    }
);
// layer_defs.push({
//         type: 'fc',
//         num_neurons: 17,
//         activation: 'sigmoid'
//     }
// );
// layer_defs.push({
//         type: 'fc',
//         num_neurons: 17,
//         activation: 'tanh'
//     }
// );
layer_defs.push({
        type: 'fc',
        num_neurons: 2,
        activation: 'tanh'
    }
);

layer_defs.push({
    type: 'regression',
    num_neurons: num_actions
});
// var refinement=self.refinement
var tdtrainer_options = {
    learning_rate: 1 / (refib),
    momentum: 0,
    batch_size: refinement,
    l2_decay: 1 / (refib)
};

var opt = {};
opt.temporal_window = temporal_window;
opt.experience_size = 3000;
opt.start_learn_threshold = 500;
opt.gamma = 0.7;
opt.learning_steps_total = 10000;
opt.learning_steps_burnin = 1000;
opt.epsilon_min = 0.0;
opt.epsilon_test_time = 0.0;
opt.layer_defs = layer_defs;
opt.tdtrainer_options = tdtrainer_options;


brain = new deepqlearn.Brain(num_inputs, num_actions, opt);
learn = function (state, lastReward) {
    brain.backward(lastReward);
    var action = brain.forward(state);

    draw_net();
    draw_stats();

    return action;
}


//tools http://github.com/jnorthrup/deeptraffic
console.log(
    {
        "trainIter": trainIterations,
        trainOpts: tdtrainer_options,
        defs: layer_defs
    }
)


var temporalSize = (num_inputs + num_actions)

// useage: splitTmporal(1,[1,1,1,1,1,1...])
function widenTemporalWithZeros(oldfilters) {
    //appears to initially cause less discord.
    for (var oldfilter of oldfilters) {
        oldfilter.depth = network_size// addThisManyNewOnes * temporalSize

        for (var j = num_inputs; j < network_size; j++) {
            oldfilter.w[j] = 0
        }
    }
    return oldfilters
};

// useage: splitTmporal(1,[1,1,1,1,1,1...])
function splitTemporal(oldfilters) {
    for (var oldfilter of oldfilters) {
        oldfilter.depth = network_size// addThisManyNewOnes * temporalSize

        for (var i = 0; i < temporal_window; i++) {
            var mark = num_inputs + i * temporalSize;
            for (var j = 0; j < num_inputs; j++) {
                oldfilter.w[(j + mark)] = oldfilter.w[j]
            }
            for (var j = 0; j < num_actions; j++) {
                oldfilter.w[j + mark + num_inputs] = 0
            }

        }
    }
    return oldfilters
};

/*usage: filter: bridge(21)*/
function widen(newSize, filterSize, old) {

    var ret = []

    for (var i = 0; i < filterSize; i++) {
        var l = {"sx": 1, "sy": 1, "depth": newSize, "w": {}}
        ret.push(l)
        for (var j = 0; j < newSize; j++) {
            if (old.size > i && j in old[i].w) {
                l.w [j] = old[i].w[j]
            }
            else {
                l.w [j] = .1
            }
        }

    }
    return ret;
};
/*usage: filter: bridge(21)*/
function bridge(n) {
    var ret = []

    for (var i = 0; i < n; i++) {
        var l = {"sx": 1, "sy": 1, "depth": n, "w": {}}
        ret.push(l)
        for (var j = 0; j < n; j++) {

            l.w [j] = (i == j ? 1 : 0)
        }

    }
    return ret;
};

function bias(n) {
    var ret = {"sx": 1, "sy": 1, "depth": n, "w": {}}

    for (var i = 0; i < n; i++)
        ret.w[i] = 1

    return ret;
}

if (typeof document != "undefined") document.getElementById("net_canvas").setAttribute("width", 5150);

var tb;
if (brain) {
    var net = brain.value_net
    console.log(brain.value_net)
    tb = net.layers.slice(-2)[0]
    var w = tb
    console.log("do these biases need trimmming? ", //JSON.parse
        (JSON.stringify(w)))
}
// /tools


//]]>
/*###########*/
if (brain) {
brain.value_net.fromJSON({"layers":[{"out_depth":364,"out_sx":1,"out_sy":1,"layer_type":"input"},{"out_depth":17,"out_sx":1,"out_sy":1,"layer_type":"fc","num_inputs":364,"l1_decay_mul":0,"l2_decay_mul":1,"filters":[{"sx":1,"sy":1,"depth":364,"w":{"0":-0.06329389308105461,"1":-0.10042300109263196,"2":0.05178367476076345,"3":-0.03882916185753313,"4":0.004173143921664522,"5":0.11549336510903553,"6":0.03461263016848881,"7":0.06875470285987298,"8":-0.00237765555729298,"9":-0.013871406529933447,"10":-0.011841401682885836,"11":0.047408744448656816,"12":-0.042724869847559174,"13":-0.04115481036603009,"14":-0.060865795975723405,"15":0.013027740981420295,"16":-0.019020148946038942,"17":0.016461254027688235,"18":0.13185000123026552,"19":0.10421004636947076,"20":0.0921033391938576,"21":0.035841588446335344,"22":-0.031965039105554593,"23":-0.05789618088659239,"24":0.010948664343520214,"25":-0.060983304741923684,"26":-0.04837035601699034,"27":-0.01694359784678768,"28":0.06486160160735958,"29":0.03611572839237967,"30":0.044819161052433845,"31":0.1000153516229894,"32":0.035545691465156785,"33":0.1138473360573246,"34":-0.0033377140400744684,"35":-0.02352786258795473,"36":0.005235764359022034,"37":-0.04552890813295957,"38":-0.03347595577195901,"39":0.002392112176122645,"40":0.011324404043811489,"41":0.040178491756462195,"42":0.018105321526294682,"43":0.038273409724619754,"44":0.12578395023240654,"45":0.05839972023046641,"46":0.08632259142322816,"47":0.003069330687900594,"48":-0.012071298744977572,"49":-0.00841241855304305,"50":-0.067660755009089,"51":-0.009326096562878616,"52":0.0612163571343502,"53":0.02436058284193727,"54":-0.02283524648443515,"55":0.023447377860518714,"56":-0.01563165472990055,"57":0.04176167079583052,"58":0.004329954066737177,"59":0.051178218944108025,"60":-0.003508572962942855,"61":-0.04311951327720349,"62":-0.04525573972070895,"63":-0.08974352854081676,"64":-0.012656388336465178,"65":0.06885823781445025,"66":0.03903352328903888,"67":0.06575144894414076,"68":0.056548988475515455,"69":-0.06552212638406567,"70":0.059546244446411115,"71":-0.17778496431774996,"72":0.0649577014009787,"73":-0.012181577464644197,"74":0.004243207370626639,"75":-0.06219292968775897,"76":-0.02624021722033579,"77":0.019674921288456743,"78":0.08830915178026526,"79":-0.023508025883592906,"80":0.022864819351240524,"81":0.04741577233066309,"82":-0.05814374224413594,"83":0.006974190127159129,"84":-0.13739523994173272,"85":0.03541820176896972,"86":-0.009170989355147327,"87":-0.0504617736185117,"88":-0.0973042241169056,"89":-0.04424158017871774,"90":0.000038383918760342384,"91":0.036564222977146295,"92":-0.027183063646963164,"93":0.019653824721497428,"94":0.13068832482562162,"95":-0.051342497138609174,"96":-0.043725270334116606,"97":-0.2357225161351926,"98":0.04495272775227665,"99":-0.048265058258155184,"100":-0.06865176491191993,"101":-0.027093329833828766,"102":-0.07798013864507412,"103":-0.03372454907758122,"104":0.02976292394320944,"105":-0.038808754760704105,"106":0.028634556347483398,"107":0.07448517167581079,"108":-0.002300990639906821,"109":0.01515237344195143,"110":-0.17399079520225563,"111":0.06074610957720984,"112":-0.0295807149059216,"113":-0.10128722970171808,"114":-0.03527808884497029,"115":-0.06402822938925715,"116":-0.0297685583236801,"117":-0.03995725848370941,"118":-0.019152956157439092,"119":-0.02446035110194557,"120":-0.043962710549208195,"121":0.0733787037049849,"122":0.11049422671919,"123":0.014803472866036237,"124":0.028091507162089108,"125":-0.09525407833393162,"126":-0.1283334978622054,"127":-0.02979770832103942,"128":-0.06195138313119997,"129":-0.017933704383424606,"130":-0.04216620661107897,"131":0.042864105457745764,"132":-0.0504928158511108,"133":-0.05367624015679112,"134":0.08259936720313835,"135":0.04793060544860544,"136":0.03781856026455994,"137":-0.09396664074744328,"138":-0.15119931149466323,"139":-0.02730378735475303,"140":0.0214218992357501,"141":-0.04362437511594125,"142":-0.03946875877530657,"143":-0.04951983327784914,"144":-0.06206994498554549,"145":-0.061920464175069974,"146":-0.10175940184561123,"147":0.0306801132989985,"148":-0.007553518751255422,"149":-0.1036585659116886,"150":-0.15181711207832724,"151":-0.08413128925424183,"152":-0.013093665223637007,"153":0.00699288325363393,"154":0.008327839023721872,"155":-0.031236000899883265,"156":-0.05488814931804417,"157":-0.08172456463127897,"158":-0.06190827162449054,"159":-0.09075844737532623,"160":-0.022204169453089128,"161":0.16532352459347102,"162":-0.20931034863756903,"163":-0.01678314337569412,"164":-0.05291425236680743,"165":0.01831707843896754,"166":-0.0026202300537990003,"167":-0.00037875680838276356,"168":-0.0410106997523219,"169":0.03144445549540831,"170":-0.16143557204950926,"171":-0.06118292037422176,"172":-0.032490438365697136,"173":-0.05223974281158165,"174":-0.03230720842218297,"175":-0.16371074487643217,"176":-0.03827579380034778,"177":-0.04654465200711112,"178":0.03966171545202794,"179":0.03251802898725572,"180":-0.04459287921033469,"181":-0.0583153793078732,"182":0.013173997335048999,"183":-0.1863013158669856,"184":-0.06573033382131024,"185":-0.1330577029122523,"186":0.019642727881568026,"187":-0.10834961901022891,"188":-0.2197016431146048,"189":-0.07355239114293845,"190":-0.0033725101326885698,"191":0.004248022022889311,"192":0.031237682504198783,"193":-0.03150218966213105,"194":-0.03304505453823066,"195":0.018800783813700695,"196":-0.08696744392741985,"197":0.02203744009317468,"198":-0.17389120180312276,"199":0.016390284825997626,"200":-0.0009335825895322204,"201":-0.10726723484501756,"202":-0.07042883834032707,"203":-0.10239925643855612,"204":-0.03342022680455959,"205":-0.0025637908958953824,"206":-0.030467824592682703,"207":-0.02013653074387076,"208":-0.009703054009930085,"209":-0.08092580199791265,"210":0.08001955140025661,"211":-0.1495663411756054,"212":0.029725189775609336,"213":-0.13752580110859003,"214":0.04719085781189519,"215":-0.2154041657373823,"216":-0.12323461054888864,"217":-0.036539082706042246,"218":0.016074498425556426,"219":-0.0012053170478809603,"220":-0.002911219024975101,"221":-0.017618199836996674,"222":-0.03937182121165918,"223":-0.007986264708643429,"224":-0.0951249662822374,"225":0.02572180165343643,"226":-0.13735459411195697,"227":0.04258947802846157,"228":-0.1677364097803627,"229":-0.10800479933575775,"230":0.010999571752121925,"231":-0.04139389472270951,"232":-0.00492191641948121,"233":-0.00400367614460869,"234":-0.017670123409201,"235":-0.02783479279382559,"236":0.046748486035020756,"237":-0.011983825339925477,"238":0.06491744109023585,"239":-0.12182609006361109,"240":0.07980344995556839,"241":-0.12219367686886362,"242":-0.07623494916925176,"243":0.037468207864446816,"244":-0.06052797207491891,"245":0.0022080338931685295,"246":-0.020732545869052595,"247":-0.01738815048513103,"248":-0.024811383003105716,"249":0.04954936082608344,"250":0.030842891982629447,"251":0.07212945899026103,"252":-0.11898437302209111,"253":-0.032176937838221994,"254":-0.14930888115146557,"255":-0.014798617159332828,"256":0.1034272742745379,"257":-0.017327824020424747,"258":-0.011479351691067202,"259":-0.04494362212232262,"260":0.040084878319723696,"261":-0.001199092973248482,"262":-0.03881565611715914,"263":0.04153526359379189,"264":0.07472708878208391,"265":-0.1707691128662964,"266":-0.032176937838221994,"267":-0.11807714734135888,"268":-0.0007174978803385836,"269":0.05078612797953275,"270":0.006629710828147734,"271":-0.008638541280426713,"272":-0.05471577913153273,"273":0.01102790139260795,"274":0.01498563292837531,"275":0.03833953832627192,"276":-0.026681935531456726,"277":0.06626154663717704,"278":-0.30445668407213083,"279":-0.032176937838221994,"280":-0.17926459461417094,"281":-0.04745689469981802,"282":0.049197616577861265,"283":0.05182352773634912,"284":-0.0018222266309841743,"285":-0.06585983244417944,"286":-0.00759859809690756,"287":0.051667754232113436,"288":-0.044706640460728884,"289":-0.05579477870321986,"290":-0.0026505574071725314,"291":-0.2309720168703629,"292":-0.032176937838221994,"293":-0.24622526677236392,"294":-0.012639885043234496,"295":-0.014907648233610618,"296":0.07803148775667425,"297":0.013076534554736929,"298":-0.04831358887180329,"299":0.02742701725693157,"300":0.12095439006891315,"301":-0.09373772827273597,"302":-0.07322740026447347,"303":0.044960710395727556,"304":-0.11985475331776944,"305":0.09079602355450973,"306":-0.07333065456550139,"307":-0.0028467541864634917,"308":-0.08437045165428791,"309":0.04122791726072891,"310":0.02612980051826558,"311":-0.034799952952855734,"312":-0.056550203014246014,"313":0.09123647385254925,"314":-0.033374302349285505,"315":-0.055450216970263186,"316":0.03316895530513949,"317":-0.09079552525161802,"318":0.08911750123305437,"319":-0.07871291008131097,"320":-0.013071627692812629,"321":-0.028143368193351184,"322":0.053453373431232964,"323":0.01853168855644554,"324":-0.05256766755597293,"325":-0.0638832544328128,"326":0.028812237812451826,"327":-0.11301437863081701,"328":-0.13295497639033155,"329":0.027697720642013434,"330":0.11423253803601255,"331":0.07292965837646148,"332":-0.10294056114592608,"333":0.042418389034260914,"334":-0.04446755544652195,"335":0.021357230630104886,"336":0.000302200626568773,"337":-0.02355951928026523,"338":-0.03324242249026734,"339":0.06047219976251382,"340":-0.01674460246571253,"341":-0.05921299988856986,"342":0.022804909831099077,"343":0.1238270317014128,"344":-0.06472883396979186,"345":-0.021019134608189778,"346":0.007059894868534078,"347":-0.051073141497178474,"348":-0.0010211366482239725,"349":-0.026776008469122887,"350":-0.07126780407850844,"351":-0.06553220402809283,"352":0.0177000910916926,"353":-0.01042949678424703,"354":0.01741171921372825,"355":0.0011143930013818855,"356":0.06326932299412372,"357":-0.15070692726423976,"358":-0.1085693658799737,"359":-0.04027581111986291,"360":-0.057636326584834766,"361":0.007099395072914884,"362":-0.04905476672848586,"363":-0.04039546487192185}},{"sx":1,"sy":1,"depth":364,"w":{"0":-0.00003946162533284387,"1":-0.008632586784688045,"2":0.023798084903755352,"3":-0.10031430726084052,"4":-0.04810613007496664,"5":0.00510049650715332,"6":-0.1855812146029876,"7":-0.335724483192995,"8":0.014010125253614239,"9":0.05321415025672342,"10":-0.028934975037840826,"11":-0.10136308277773783,"12":-0.023307201926449084,"13":0.0011093547955537434,"14":-0.025406752582397045,"15":-0.06214485310267332,"16":-0.09536449952030912,"17":-0.013363244947442524,"18":-0.08759396566211858,"19":-0.08562136599360007,"20":-0.27700275656174866,"21":0.03239547242329987,"22":0.007118001085079634,"23":-0.03430566134478193,"24":-0.03235071759007223,"25":-0.008875034630491016,"26":-0.0008869928216896591,"27":-0.03970183461716738,"28":-0.017595474360859713,"29":-0.07808599133458263,"30":-0.043224153464283994,"31":0.008332390159066312,"32":-0.07373909780443287,"33":-0.2530053235474426,"34":0.07570517693271145,"35":-0.0029590780140598483,"36":-0.11201790801801759,"37":-0.023548958671387864,"38":-0.06178092172147966,"39":-0.0012728236395995285,"40":-0.04145961955022703,"41":0.01127446753408012,"42":-0.04517584333203802,"43":0.041450658255985484,"44":0.029903955030946373,"45":-0.05506615967950791,"46":-0.27498820758897063,"47":0.053463998262544346,"48":0.03816440067031571,"49":-0.04428991041147529,"50":-0.024093868885667797,"51":0.01502777572434099,"52":0.0002667734472030122,"53":-0.04198451149855555,"54":0.06579274478298246,"55":-0.009181584028038104,"56":-0.05768987917651294,"57":-0.07318202356205765,"58":-0.13375845862329647,"59":-0.19261099690126368,"60":-0.05061947082237416,"61":0.005842513722464016,"62":-0.03807220147161878,"63":-0.045198493769478654,"64":-0.05943325710070346,"65":-0.0026755221754056996,"66":-0.027763456343734318,"67":0.08819956861747584,"68":0.006534436880193674,"69":0.08039806720491244,"70":-0.00992751444825796,"71":-0.11206715054726563,"72":-0.23276177900125408,"73":-0.043653916079801944,"74":-0.03358787749002818,"75":-0.04131296107459381,"76":-0.08752796193919966,"77":-0.01193971685401153,"78":-0.0022169879258056033,"79":-0.011823633599924766,"80":0.07273787860733905,"81":0.07861191244414817,"82":-0.023251227227871495,"83":-0.05071156307737097,"84":-0.09148485536006537,"85":-0.19973192797409137,"86":-0.02294779046574243,"87":-0.0015465136038307148,"88":0.05660444558506976,"89":-0.09045479181914935,"90":-0.060220844991026375,"91":0.0005924394395013481,"92":-0.01339873327665333,"93":0.03186275777388868,"94":0.010815094322447314,"95":0.07612424481511379,"96":0.11573798108857188,"97":-0.0065657022712734756,"98":-0.17327606794611372,"99":0.08237685169206184,"100":-0.07900005690708609,"101":-0.030537683969758794,"102":-0.04369930954954489,"103":-0.049300925816643644,"104":-0.0005104068948644689,"105":-0.02386034990319323,"106":-0.021311455830005085,"107":-0.05851681957020857,"108":0.07963374573061698,"109":0.10913204757645485,"110":-0.06230455572507653,"111":-0.19162129207094256,"112":0.2413925366310106,"113":-0.04763780508405165,"114":0.033055586429727356,"115":-0.008536963930424196,"116":0.08993518417415047,"117":0.003306936883974239,"118":-0.028222807974186675,"119":0.018500854191283608,"120":0.06632970635456607,"121":0.05184127673937401,"122":0.04772855402690095,"123":-0.2672993833856633,"124":-0.6081957017609478,"125":0.27027141787741565,"126":-0.0665611564809089,"127":-0.05296615438844071,"128":0.07647158715074644,"129":0.06483547517218702,"130":0.0015648553332074913,"131":-0.04139626267027468,"132":-0.00808196906652133,"133":-0.005944550707681822,"134":-0.035904867976043225,"135":0.03741885571152349,"136":-0.19342315633375143,"137":-0.13155295761920743,"138":0.35757484740053236,"139":-0.05381695040030491,"140":0.022882451155062093,"141":0.044709082388934986,"142":0.054173132880838734,"143":-0.004945962334299836,"144":-0.037871646035492035,"145":-0.01646787518856976,"146":0.012814602674732018,"147":-0.061809766762316934,"148":-0.04466088578148729,"149":-0.3490062034429919,"150":-0.2280044193656937,"151":0.36486017045640096,"152":0.0634394324996033,"153":0.03418643096520302,"154":-0.014908624673923836,"155":0.01388802825839265,"156":-0.006570157708357754,"157":-0.033469473553202636,"158":0.032392910732985856,"159":-0.008306289392638147,"160":-0.0865102551100261,"161":-0.03497058091850986,"162":-0.1456125385807108,"163":-0.3292250128221188,"164":0.4044953989500706,"165":-0.0005885026641151149,"166":0.008512084667539187,"167":0.03568305109831875,"168":-0.028781868630463742,"169":-0.008338616021538792,"170":-0.028662423718263563,"171":0.019359363243042646,"172":-0.08750037439101911,"173":-0.08920288147044032,"174":0.005317016883378402,"175":-0.16306976595586656,"176":0.17622040151297327,"177":0.44689556622250975,"178":0.07137925812745612,"179":0.02970746081632712,"180":0.06491843745266082,"181":-0.02693195336922979,"182":-0.0033155078530892196,"183":-0.02044892891038691,"184":0.06341230188774837,"185":-0.08582771434792685,"186":0.06675336005179851,"187":-0.10790208178510871,"188":-0.24080445632678465,"189":0.07556068723430695,"190":0.5273583338117226,"191":0.06538386917255996,"192":0.00486541329211929,"193":0.015105055523137668,"194":0.010654178872915527,"195":-0.001024822705643732,"196":-0.028314839513396785,"197":0.04353441024267308,"198":-0.04133833485699812,"199":-0.008429089655108458,"200":0.04244150282586917,"201":-0.1809698233955633,"202":0.060409536928080265,"203":0.4575220219504984,"204":-0.009104420486199237,"205":-0.0007164900580810074,"206":-0.014862231662977067,"207":-0.03865144232986995,"208":0.0017416015832348998,"209":-0.024487104865187327,"210":0.06769112180098369,"211":-0.004018351537757169,"212":-0.0022210198519590314,"213":-0.007049306225614821,"214":-0.34764946246924583,"215":0.17152977927872817,"216":0.5208545238909378,"217":0.09937673265519277,"218":0.01227861529714374,"219":-0.061352496919650175,"220":-0.07990466172729764,"221":0.002984864628347494,"222":-0.031105004380881884,"223":0.12039697735175704,"224":-0.013044987751474208,"225":-0.12579059609120719,"226":0.13018345866603254,"227":-0.3450615154603194,"228":0.37661510423397265,"229":0.5643250368371319,"230":0.007962324626952923,"231":0.07495480862274857,"232":-0.008456292815989658,"233":-0.06465368840999876,"234":0.003881269988226837,"235":-0.036428961717627946,"236":0.0009254785568998664,"237":-0.06473003558348397,"238":0.020998685288427098,"239":0.002645533413208593,"240":-0.31101067122940407,"241":0.31192309623960646,"242":0.33376648348118143,"243":0.018389169337822146,"244":0.005084845503252817,"245":0.05591959503875629,"246":-0.034135367978819345,"247":0.0043064632055880795,"248":-0.03211706937334266,"249":0.006200536721286648,"250":-0.0016903527618197826,"251":-0.017580703864801414,"252":-0.05422790296344909,"253":-0.0417015418076801,"254":0.333328596613778,"255":0.21500778585350733,"256":-0.01071868522752778,"257":-0.040356436302272765,"258":0.06744659784249789,"259":0.04742850685601192,"260":0.007723872783510383,"261":-0.027493359562512556,"262":-0.01851569103632746,"263":-0.025943454030139375,"264":-0.05319967484157571,"265":-0.06680751969168183,"266":-0.0417015418076801,"267":0.3006988516438604,"268":0.13944579730752898,"269":0.02923556848659255,"270":-0.08904295015152369,"271":0.06793658938855009,"272":0.05656028774291194,"273":0.006673048157133954,"274":-0.026025337837553668,"275":-0.06756062430301259,"276":-0.041447045634571716,"277":0.05533847303506847,"278":-0.04575715878083283,"279":-0.0417015418076801,"280":0.2713037643176666,"281":0.04202831404329049,"282":0.0057250058899613165,"283":-0.07550799245873689,"284":-0.012654965869247244,"285":0.05786773965087779,"286":-0.0000017816040943004708,"287":-0.0074211330466435405,"288":0.06726848635357002,"289":-0.031531941619203606,"290":-0.0796964719529509,"291":0.005597066643779601,"292":-0.0417015418076801,"293":0.6307780157786488,"294":-0.006651863178670065,"295":-0.02672875510974897,"296":-0.023978989954672066,"297":-0.03533567218028281,"298":0.02129011295946744,"299":0.0015204771334834041,"300":-0.012531781445841108,"301":0.05595451277636181,"302":0.002173103598364748,"303":-0.05799973742506826,"304":-0.01829980156552345,"305":-0.2627335077964895,"306":0.1912778864430099,"307":-0.03466334989551036,"308":0.035073345043544736,"309":0.00906219217135668,"310":0.06085011575292549,"311":-0.034529168677023825,"312":-0.006932327160830086,"313":-0.017251799571734124,"314":0.03338700085295376,"315":-0.009672177897325397,"316":-0.05312340433535671,"317":-0.02384497291181938,"318":-0.27615772063421784,"319":0.14934372548713523,"320":-0.02491451946045388,"321":0.042906326727362415,"322":-0.06897884342546184,"323":0.00795821684372637,"324":0.0009138403281536711,"325":-0.0011209667529191757,"326":-0.013730895583047407,"327":0.0930257550778429,"328":-0.08136006154474719,"329":0.030971785006630448,"330":-0.11012895602181551,"331":-0.2975291432060728,"332":0.13046406361855895,"333":-0.036008797007623904,"334":0.0019468743887029434,"335":-0.0464286752780506,"336":-0.009053622440397754,"337":-0.003017355837060339,"338":0.0019699925443186672,"339":-0.03157763123118499,"340":0.0045465129003952635,"341":-0.03231633021712298,"342":0.0068763324741309756,"343":0.0036232611164858063,"344":-0.09532103194846556,"345":-0.09745518045545253,"346":-0.021208439436372472,"347":-0.020425806559133723,"348":-0.006321372283128039,"349":0.035020771903877916,"350":0.03049591827919057,"351":0.000823835517301729,"352":-0.03132260581233127,"353":-0.050644479108085845,"354":-0.1407213873026881,"355":-0.09282123082670686,"356":-0.04295850863429596,"357":-0.14580193199640462,"358":0.048195004694369006,"359":-0.04350255425081959,"360":-0.04240925994787809,"361":0.02424197038367579,"362":-0.0544959784209533,"363":0.019569802738796525}},{"sx":1,"sy":1,"depth":364,"w":{"0":0.1468428949879488,"1":-0.058540140339760294,"2":-0.016843256691831864,"3":-0.01841798354143341,"4":-0.06008080333045667,"5":-0.03360799043880703,"6":-0.19703572111475456,"7":-0.08992630299634105,"8":0.030723734895947437,"9":-0.04120591981613265,"10":0.016047319493519525,"11":0.04045355670662408,"12":0.04946137733253748,"13":0.1173374258392195,"14":0.009931677344714977,"15":-0.0619465586394013,"16":-0.03575715859784724,"17":-0.18160340250616774,"18":0.008870517815623782,"19":-0.12291013549917032,"20":-0.15266296582875394,"21":0.02867718762025561,"22":-0.009251925198423598,"23":0.004611022837161726,"24":-0.009990045551924929,"25":0.09514421341934515,"26":0.07645423752021005,"27":0.01697818302570506,"28":-0.048387747480887616,"29":0.0063200836173020174,"30":-0.08204251797930047,"31":0.052699868064582225,"32":-0.0834027249021649,"33":-0.11765132969533436,"34":0.0016691712623204858,"35":0.09186410220589233,"36":-0.009353230607627196,"37":-0.0006453573307276374,"38":0.0390461181406755,"39":0.05126926307923022,"40":0.04292684340028043,"41":-0.07388852498406498,"42":0.005585804381662473,"43":-0.07014309451281776,"44":-0.014761980491672785,"45":-0.031248885231608008,"46":-0.16962844438519784,"47":0.02377643498809314,"48":0.04496770384329605,"49":-0.028721453991027657,"50":0.021027022805798525,"51":0.006306562658881575,"52":0.023029926170442225,"53":0.06368029702309283,"54":-0.04623026243091072,"55":0.025275445912621257,"56":-0.09866127380621156,"57":-0.07473485948443269,"58":-0.24205046694246923,"59":-0.2723520391917943,"60":-0.0021069213218296344,"61":0.11529103719795641,"62":0.0412701691246438,"63":0.02023190010164497,"64":0.03019216307868632,"65":0.05777324360900079,"66":0.0007808997772920763,"67":-0.07736625709180313,"68":0.04425007282404733,"69":-0.05406594830231162,"70":-0.12891302487131162,"71":-0.16029075580720956,"72":-0.2583689657196467,"73":0.044722278625850084,"74":0.058027340144221604,"75":0.024507214438544707,"76":0.06561965039771075,"77":0.03707530475202139,"78":0.018922622361269237,"79":0.018029925818283374,"80":-0.09512643099182498,"81":0.0009754699970109763,"82":-0.07939054322040191,"83":-0.11991169738960974,"84":-0.14329496527251565,"85":-0.23724001264308747,"86":0.09052267080542747,"87":0.05446274845934821,"88":-0.0026353122297803513,"89":0.048319402061561975,"90":0.12168076005077438,"91":-0.007289990188557647,"92":0.03038034590952477,"93":-0.008433171020946203,"94":-0.007794489136988118,"95":-0.08829499486613201,"96":-0.13337746247992366,"97":-0.15036342103993963,"98":-0.12510147285768647,"99":0.0026161606182484665,"100":-0.021433097745040163,"101":0.03327420885988723,"102":0.04671659277466101,"103":0.09277921473198852,"104":-0.00719982641633592,"105":0.016029899420139677,"106":-0.0037644309790328323,"107":0.07361498313177607,"108":-0.0660149397114905,"109":-0.062416659168443925,"110":-0.2762061737084586,"111":-0.07140609802667917,"112":-0.027085131993942406,"113":0.01539904195793414,"114":0.05068508409989277,"115":0.03857331171587795,"116":0.06620404499664635,"117":0.03260602105222726,"118":0.0332556945012807,"119":0.0723237315420631,"120":0.0075372615186623864,"121":-0.008495900578056274,"122":-0.0051878700312085815,"123":-0.19552874561144537,"124":-0.04729125405247867,"125":-0.12124516384742723,"126":0.08466863715408593,"127":0.07226564174071089,"128":-0.004870905227841725,"129":0.05713262592617366,"130":0.058373798581618806,"131":0.019107872679946552,"132":0.04852647475992428,"133":-0.02088217444031742,"134":-0.031176689266288783,"135":-0.11777807313333287,"136":-0.20928362688574517,"137":-0.14458548834770513,"138":-0.17919595512755085,"139":0.03861785418720025,"140":0.00016939364102850724,"141":0.007931461713955852,"142":-0.003652022138906211,"143":0.04314127247965845,"144":-0.010714715874097178,"145":-0.00926710153426101,"146":0.03659757707367283,"147":-0.027099438134931562,"148":-0.12157302556291297,"149":-0.233722270469097,"150":-0.23524218930484422,"151":-0.18114704207261195,"152":0.09813066941852212,"153":-0.03633620993065884,"154":0.03725600307459387,"155":0.019454806804862303,"156":0.03993685565104019,"157":-0.021187701618063316,"158":-0.006469919352628359,"159":-0.047442670976586984,"160":-0.05055367459211474,"161":-0.18331794693150325,"162":-0.045493659700981376,"163":-0.16395913809244178,"164":-0.14605479268175012,"165":0.019071808884299005,"166":-0.07342757089168432,"167":0.04483414866280186,"168":0.03399179860575766,"169":-0.016876346681094213,"170":-0.007276475686337671,"171":-0.04375635452973624,"172":0.0021334439000347885,"173":-0.05642370425880989,"174":-0.23182367211107865,"175":-0.036250533314587254,"176":-0.21673008692094287,"177":-0.1819385547090395,"178":0.024287110313428388,"179":-0.08902529405086333,"180":0.04790163494889832,"181":0.029421294353946824,"182":-0.021680509831323205,"183":-0.0563613208031291,"184":-0.024648413619955754,"185":-0.014873397827963476,"186":-0.03851367577173021,"187":-0.14267685487684367,"188":0.052163365120003635,"189":-0.16462794483584534,"190":-0.17201500597242886,"191":0.01809057269402547,"192":-0.03901000353977777,"193":0.04360581846612579,"194":-0.005973123118250114,"195":-0.02017382324899967,"196":-0.03209839711496024,"197":-0.03139097826553396,"198":-0.038956786319658196,"199":-0.07494241180870519,"200":0.02672961826436366,"201":0.09708411183104823,"202":-0.08084325316676279,"203":-0.048405104534176985,"204":0.0192092352582287,"205":0.034192506773527774,"206":0.002745902539666769,"207":0.02974557419472175,"208":-0.009652746546896,"209":0.050445429548493105,"210":-0.02646820635341909,"211":0.012508923816785892,"212":-0.055857076411732105,"213":-0.06224216253324633,"214":0.08614291262220262,"215":-0.0742885990657755,"216":-0.08511458271765929,"217":0.06763642171676192,"218":0.003579279865868213,"219":0.05481534238593371,"220":0.05227808368793667,"221":-0.04311562432295081,"222":0.05313029542207584,"223":-0.053458440554728204,"224":0.015449239231731705,"225":-0.07411826403238164,"226":0.07607686986777153,"227":0.11739345375031972,"228":0.03169460894074504,"229":-0.012814632331735543,"230":-0.0501954144242023,"231":-0.07067297062566773,"232":0.030461354356120508,"233":0.039466294660366975,"234":-0.009187808864563348,"235":0.0919980412035819,"236":-0.045639230873131445,"237":0.0011591151230212434,"238":0.0002245962627708401,"239":0.09717643564832869,"240":0.1263230342091497,"241":-0.024871228276443575,"242":0.049887803398653,"243":-0.030314049506361025,"244":-0.013573155018077349,"245":0.004143805546051098,"246":0.06722652355530703,"247":0.025004189502816937,"248":0.057416644510341175,"249":-0.01760725928364268,"250":0.009193205920646406,"251":0.031721422762848304,"252":0.015624901081650853,"253":-0.05632419157109109,"254":0.012952997743279963,"255":0.06481687582252943,"256":-0.06996568360810286,"257":-0.05846261926825085,"258":0.0022024017686768844,"259":0.025053920972501656,"260":0.007076812886801434,"261":0.02446255303560911,"262":-0.026328838152851794,"263":-0.024634542349514583,"264":0.015143118925331428,"265":0.19472178464196657,"266":-0.05632419157109109,"267":0.04910978734115859,"268":0.10546466807474737,"269":-0.05761470562586586,"270":0.05671160568593862,"271":0.007757065928868595,"272":0.008030710410738662,"273":0.09102100651698294,"274":0.018900345552883353,"275":0.02152986769433944,"276":-0.04873225632389492,"277":0.06047231248330071,"278":0.11993504759346829,"279":-0.05632419157109109,"280":-0.019700469767575075,"281":0.050136204971277576,"282":0.08231234841300483,"283":0.10990218393125502,"284":0.07463558331496371,"285":0.008232245153631072,"286":0.0470078636890455,"287":0.026529913665816175,"288":-0.018421745600591066,"289":-0.001633942939000353,"290":-0.04761084503213472,"291":0.11316454064743156,"292":-0.05632419157109109,"293":0.006283005720225872,"294":0.025769530340296783,"295":-0.024711997144290808,"296":0.07382988980772263,"297":0.015027921252637664,"298":0.029394396616601374,"299":0.09397057402452223,"300":0.03189921400180853,"301":0.016652182122943972,"302":-0.044865526308738655,"303":0.035457171886244476,"304":0.1694232098726957,"305":0.16557731017229368,"306":0.07545799726948296,"307":-0.02261825639525416,"308":0.023096037788366375,"309":0.09790302214210406,"310":0.05070509532673488,"311":0.023476318131620967,"312":0.10482994891348,"313":0.0025906113724053987,"314":0.01639768874365573,"315":-0.036006590036896366,"316":0.03543990059434473,"317":0.07945661569314007,"318":0.15649801253959264,"319":0.026039215390147884,"320":-0.04068909541628865,"321":0.0025703895347334053,"322":0.013838014375382514,"323":0.01786426637933873,"324":0.014625880067037895,"325":0.057941489325289586,"326":0.023059767230176997,"327":-0.000011745962201678294,"328":-0.08779634884127618,"329":-0.01212789015220497,"330":0.026405092140778293,"331":0.13254547872393185,"332":-0.011461013546142006,"333":-0.011728834389531248,"334":-0.09512841852561442,"335":0.0016786251040971844,"336":-0.08322914183905974,"337":-0.018656069932996483,"338":0.02649730523387226,"339":0.05431861592530123,"340":0.03353708423058392,"341":-0.10098633823857475,"342":-0.036189019782382696,"343":-0.015875213525008716,"344":0.0011639286987434063,"345":-0.06998250999631991,"346":-0.018746701954034984,"347":-0.026177668487898462,"348":0.03299703053375799,"349":0.008346671573321304,"350":-0.029177450810800608,"351":-0.03305315593253309,"352":0.10708717465939482,"353":0.026567295184241283,"354":-0.08739748533904641,"355":-0.051600988138881865,"356":-0.045483725565737695,"357":-0.06128482069004642,"358":-0.11163203934484826,"359":0.07424939574055955,"360":-0.0029756308449466647,"361":-0.010068947407924878,"362":-0.005935638862147059,"363":-0.045615090794192986}},{"sx":1,"sy":1,"depth":364,"w":{"0":-0.027867566873066015,"1":-0.057241495233121324,"2":-0.1558345887666762,"3":-0.056607827430594615,"4":0.002490678245888738,"5":-0.05407395432348507,"6":0.36114971297752074,"7":-0.08321056575225078,"8":-0.13952300613205781,"9":-0.05587853112858266,"10":-0.004478513862659032,"11":-0.1685939801174405,"12":-0.09109464262210631,"13":-0.06661813406997763,"14":0.0037882931609589145,"15":-0.14737578398697682,"16":-0.04957004396811895,"17":-0.06991150917228299,"18":-0.07128809524922312,"19":0.2185422573710541,"20":-0.09688203079314137,"21":-0.1222737767291523,"22":0.09740380638736496,"23":-0.094664516320625,"24":-0.08046437464520037,"25":-0.10859187947074028,"26":-0.06259061535810072,"27":-0.02565718711229103,"28":-0.11405163731551983,"29":-0.023983300274572947,"30":-0.00011303325418298022,"31":-0.014194246213354607,"32":0.2048116302368676,"33":-0.1260709623702408,"34":-0.05039156567302574,"35":0.08322072327125588,"36":0.0037089245605041927,"37":0.009044549640892042,"38":-0.06468622394430087,"39":-0.012137189516047801,"40":0.048280003773637434,"41":-0.0963830677156013,"42":0.0570858760392364,"43":-0.1994470255649872,"44":-0.13522298009652614,"45":0.223072896000561,"46":-0.17531919180931735,"47":-0.05922510232076263,"48":0.09141573214533362,"49":0.045842843804685285,"50":0.04315799804189672,"51":-0.10401257624148408,"52":-0.04540960551757097,"53":-0.04764841876651471,"54":-0.08046396401851146,"55":0.037324153035648275,"56":-0.1362525211963124,"57":-0.006605107540446755,"58":0.4842312011203225,"59":-0.2261213873774422,"60":-0.05284424831472575,"61":-0.08607288235779023,"62":-0.0659279027953341,"63":0.05392751326466166,"64":-0.09460851782505347,"65":-0.06483230559507165,"66":-0.04285309150895323,"67":-0.043460149404444495,"68":0.11259861405211162,"69":-0.10551479296399874,"70":0.03305325090003693,"71":0.5081016407328327,"72":-0.11355778672927307,"73":-0.1324255103915377,"74":-0.03211377982213712,"75":0.06733122014740786,"76":-0.02784946918151395,"77":-0.1253242558969903,"78":-0.10889546121702384,"79":-0.01221779592234406,"80":-0.009423432679065305,"81":0.019116589899953587,"82":-0.03867135992612513,"83":-0.012175946180868976,"84":0.46428644603537295,"85":-0.16138271238988988,"86":0.01789749411946029,"87":-0.013195088885922284,"88":0.02891118738661041,"89":-0.05065463822893675,"90":-0.08108554397411954,"91":-0.1476745419199569,"92":-0.041533954456849126,"93":-0.01840649671920736,"94":0.004577189887189045,"95":-0.013138029406573291,"96":-0.025201056804303044,"97":0.43968391469453494,"98":-0.1409281379038838,"99":0.005430255326891547,"100":-0.032300644929286894,"101":-0.047611394183455315,"102":0.06308923696529715,"103":-0.09678566107955072,"104":-0.015561531291012676,"105":-0.0447130795344396,"106":-0.04750444428693776,"107":0.07525595783795873,"108":-0.15878842407851387,"109":-0.40288869542927547,"110":0.5753898462466827,"111":-0.18675769466838701,"112":-0.1370009212040745,"113":0.11795997706856283,"114":0.005380453942559101,"115":-0.03189923390434804,"116":-0.12429807233951612,"117":-0.11378048840938704,"118":-0.08181635695971701,"119":0.041905858155165523,"120":0.06835400841703085,"121":-0.10194383470783078,"122":-0.23052654340969256,"123":0.5262467484198479,"124":-0.17618176655661574,"125":-0.02840616565200471,"126":-0.04712645391039877,"127":0.009963292809179366,"128":0.12241890686312998,"129":-0.12257014726454951,"130":-0.03229443970303396,"131":-0.07300348185217133,"132":0.0891876612532083,"133":-0.009018144039247031,"134":-0.0888595623927255,"135":-0.061303851708206396,"136":0.4440240956882358,"137":-0.168657966313818,"138":-0.23723383529084888,"139":-0.07184031941520848,"140":-0.04916466497726598,"141":0.18520003898872392,"142":-0.21011906869361888,"143":0.05818126914556822,"144":0.002871334630867862,"145":0.014441775617546745,"146":0.06605625094210427,"147":-0.023150157129205637,"148":0.14690230787539432,"149":0.6870378226967242,"150":0.08416324559691246,"151":-0.11993114128290996,"152":-0.08283113416632316,"153":-0.0035155913759951367,"154":0.06924484236308513,"155":-0.09488470891978204,"156":-0.08935717256685752,"157":-0.03460036530112669,"158":-0.01177259788928459,"159":0.034119945185641015,"160":0.021206241867529757,"161":-0.657292541244912,"162":0.8758442809171078,"163":-0.14694572487432536,"164":-0.08623181198005013,"165":-0.05366076439837735,"166":0.015275700544256905,"167":-0.012374613947644426,"168":-0.04915482857696322,"169":-0.026091991198506744,"170":-0.0651260724849238,"171":0.015257617405226066,"172":0.02320504953825909,"173":-0.11500457828480752,"174":-0.5124282924762587,"175":0.6053250187373189,"176":-0.25522164470291814,"177":-0.18688949845870856,"178":-0.08271472006240899,"179":-0.00016066546018796783,"180":-0.07205561327078595,"181":-0.1137197276717516,"182":-0.01434186012208253,"183":-0.10477342067307754,"184":-0.03620886639405831,"185":0.14599336768419627,"186":-0.04348270847770039,"187":-0.567760673674824,"188":0.6646611921353134,"189":-0.20609593434140788,"190":-0.034786287716337676,"191":-0.004336004617255563,"192":0.02678832452674243,"193":0.012855237613385894,"194":-0.0498911836596404,"195":-0.08708813272814075,"196":-0.13924369548893564,"197":-0.023736521124188996,"198":0.046169077146694874,"199":0.008751188995537295,"200":-0.6868590767794797,"201":0.7116465897513928,"202":-0.23189141715340647,"203":-0.13322500577410487,"204":0.07514808513087415,"205":-0.010034062222997407,"206":-0.04710558161554383,"207":-0.09047685828570284,"208":-0.06581062744207765,"209":-0.050127490227574754,"210":-0.029051636889337016,"211":0.03324529762861017,"212":0.03925936382867997,"213":-0.09319044082254502,"214":0.2709264023660289,"215":-0.10445762972349819,"216":-0.20314217030820422,"217":0.13185544480542935,"218":-0.024502002643282943,"219":0.008722538356848237,"220":-0.05427655747442547,"221":-0.07680638709391402,"222":-0.09893179956735597,"223":-0.04192538457329978,"224":-0.02614678979306124,"225":0.07858650754539355,"226":-0.3606901440933839,"227":0.39274786930500627,"228":-0.2114886449234645,"229":-0.05157497020111287,"230":0.10206376848599522,"231":0.04631632064789421,"232":-0.030581928977846607,"233":-0.13826859341970674,"234":-0.03206536510311233,"235":-0.0897477499232657,"236":-0.021522199756204313,"237":-0.03375755644797738,"238":-0.06566208654149815,"239":-0.49293553027152043,"240":0.20162255033386225,"241":-0.260685897022472,"242":-0.14165653042807952,"243":0.049991524120406715,"244":0.08443610451668977,"245":-0.06817407463751422,"246":-0.18506914817681558,"247":-0.009091141139606998,"248":-0.08680546707163114,"249":-0.06188056967085724,"250":-0.003513563999396401,"251":-0.0645560226460459,"252":-0.6994966144491972,"253":0.2708467603845929,"254":-0.22904741580359486,"255":-0.06637995526153878,"256":0.024398494192629062,"257":-0.038802847957685606,"258":0.004904243688565924,"259":-0.16458472536218458,"260":0.017014230781945222,"261":-0.052169960670009466,"262":-0.030723307822606075,"263":0.047273632672704353,"264":0.026686401038398474,"265":-0.08838974336323215,"266":0.2708467603845929,"267":0.1522339661973459,"268":0.10079600118689436,"269":-0.09535932256088298,"270":-0.05447994550029475,"271":0.01211993147481513,"272":-0.1441257324941945,"273":0.017158291111490743,"274":-0.11890468820996052,"275":0.021435580803402257,"276":0.14916879822318843,"277":0.09035685859089815,"278":-0.11316899220515007,"279":0.2708467603845929,"280":0.23518573968815024,"281":0.10419587048724938,"282":0.034607155630001475,"283":-0.027186036513159293,"284":0.0494362531902787,"285":-0.15451837053801712,"286":0.035735511958839096,"287":-0.004555725680883766,"288":0.033609088195016595,"289":0.004096715152932309,"290":0.08294256112519491,"291":-0.07642074914046357,"292":0.2708467603845929,"293":0.2438300819905541,"294":0.037769069438956686,"295":0.13102589713712617,"296":0.007027344391316513,"297":0.015117618388608822,"298":-0.11373561070192291,"299":-0.06935950826851754,"300":-0.10004626826396062,"301":0.01411452053500639,"302":-0.020915359139547837,"303":0.07697906189262958,"304":0.157619021300865,"305":-0.0767748308960041,"306":0.23999819605025377,"307":0.062896311792444,"308":0.042407128104999366,"309":0.020560728791910277,"310":-0.020710029120013445,"311":-0.12740328538984438,"312":-0.036330598673796684,"313":-0.15455889546051685,"314":0.011011122904882294,"315":0.0007489940447193177,"316":-0.05563192036311007,"317":0.028668479343986402,"318":-0.026259341524074855,"319":0.06097381442344026,"320":-0.028298092295865176,"321":0.014225582487457183,"322":-0.033138115754861315,"323":0.10361938537616483,"324":-0.14717924059576754,"325":-0.037425225255148686,"326":0.09347308981602469,"327":0.08016864377155566,"328":0.053260227267053754,"329":-0.03458333477360317,"330":-0.004405445169219666,"331":-0.01831189576090092,"332":0.04385310515609027,"333":-0.055961068665465054,"334":0.03241400094411282,"335":0.01471555145261919,"336":-0.06410897142430809,"337":-0.06462297294467992,"338":-0.060237951402529376,"339":0.028923925933887866,"340":0.01699507716294711,"341":-0.014814300197059828,"342":0.02168807926043045,"343":-0.03240682725325175,"344":0.5009139197019941,"345":0.03477103751412387,"346":0.0471174909981524,"347":0.01767144553168412,"348":-0.037291507831998416,"349":-0.06766710446672791,"350":-0.05559582160230413,"351":-0.06231596684605914,"352":0.006410976770480318,"353":0.05893362170443927,"354":-0.06011014332357371,"355":-0.09681442629751781,"356":-0.0030180173969758606,"357":0.5028539887477468,"358":-0.004995872258439076,"359":-0.08225458095386362,"360":0.008025206021558968,"361":0.07022245250577733,"362":-0.01680371912514997,"363":-0.11877571452366274}},{"sx":1,"sy":1,"depth":364,"w":{"0":-0.006133410542474636,"1":-0.08171403579502115,"2":0.0330335833726303,"3":0.041471686025130135,"4":-0.16543896495834,"5":-0.06790108275107082,"6":-0.14294554109348437,"7":0.07072245722410367,"8":-0.0016704495991590425,"9":-0.0518595271765937,"10":-0.13166288140124593,"11":0.0029429078378250886,"12":-0.11596719271916058,"13":-0.005148130507673561,"14":-0.01852934228983971,"15":-0.05244660322114919,"16":-0.038712228082422126,"17":-0.08693305684207345,"18":-0.0283558133019447,"19":-0.030483092297118472,"20":0.062251126256288765,"21":0.00027700782921251616,"22":-0.029365015146661164,"23":-0.014599066166479529,"24":0.07313252881124305,"25":-0.09872019112518134,"26":-0.0011812532469199874,"27":-0.041170933508660856,"28":-0.09504008621226631,"29":0.06218538652505769,"30":0.04863526673160825,"31":-0.11098991253344814,"32":-0.06468641096782414,"33":0.0799270476082201,"34":-0.04050950645012526,"35":0.011018004397195422,"36":-0.011901583365690168,"37":0.07605463957626483,"38":-0.10975501137227177,"39":0.0005955784665636181,"40":0.022695951195561177,"41":-0.049876463604471497,"42":0.02538777297120564,"43":-0.018175441057579657,"44":-0.10793602295497834,"45":-0.08830905487495155,"46":-0.002144954005343923,"47":-0.07128855775293134,"48":-0.05133131184333229,"49":-0.06292067054814415,"50":-0.0984866388649051,"51":-0.04507489828157738,"52":-0.005124983954341063,"53":0.07408969330815286,"54":-0.026798899520181052,"55":-0.030629885755680382,"56":-0.05473767391203789,"57":-0.1579456780278264,"58":-0.10859187732145623,"59":0.17915686791619778,"60":-0.036496552180742846,"61":-0.06625953977923033,"62":0.021299593751774922,"63":-0.07891524094811425,"64":-0.03863533998799044,"65":0.006885194301477421,"66":0.09147051658012242,"67":0.010365734645704526,"68":0.037861922728195094,"69":0.026065820816881267,"70":0.006711053378763134,"71":-0.06008180014887077,"72":-0.026814447367894092,"73":-0.07459855511089339,"74":-0.0032697732401255103,"75":0.02049718199672943,"76":0.021321490355026593,"77":0.029929948608964873,"78":0.007729611984276854,"79":0.07756956834384966,"80":0.025051632348731315,"81":-0.00990480454530799,"82":-0.10990262050611004,"83":-0.12546100267892007,"84":-0.06573498880071312,"85":0.07477453199322859,"86":-0.08044510935625522,"87":0.11866558567365879,"88":-0.04201986391871034,"89":0.02951840189872745,"90":-0.08859833305169897,"91":0.006864111991715616,"92":-0.022670137451442543,"93":0.08842213982457864,"94":0.036796951068532084,"95":0.01792493567881438,"96":0.006802262820667985,"97":-0.04474616662117537,"98":0.0773194446519342,"99":0.023450590681782357,"100":0.12868855501899684,"101":-0.055773538943675094,"102":0.05052989059995211,"103":-0.11006182313488808,"104":0.008843278005612102,"105":-0.09391565440011104,"106":0.007681873580228215,"107":-0.028158550706836274,"108":0.061131381715573176,"109":-0.11108358914027423,"110":-0.11340987983751696,"111":0.34272923580429326,"112":-0.052607646749423385,"113":0.01762193328117745,"114":-0.00596177831960819,"115":0.09263643058353957,"116":-0.12427036863854775,"117":-0.0006840048385378431,"118":-0.007224326388505186,"119":-0.1562907888355521,"120":-0.02567426739153141,"121":0.09645130994529437,"122":-0.17450193049209917,"123":-0.2902146918858108,"124":0.2798781149869535,"125":0.05685488091954389,"126":0.09685935098720157,"127":-0.012804026299761604,"128":0.12053452898692117,"129":-0.113017518802699,"130":-0.004266033689570526,"131":-0.059518727725619364,"132":0.017629903435305894,"133":-0.10449800131716408,"134":0.019623973902880044,"135":-0.20412753435981956,"136":-0.005151772376646078,"137":0.6130428362865767,"138":-0.015695022935854525,"139":0.0070800474803697075,"140":0.07085851063697628,"141":-0.051240150473309855,"142":0.08699554774584514,"143":-0.0016735786132514865,"144":-0.10720456621989671,"145":-0.07115129776211504,"146":-0.050844642955141885,"147":0.02270644570420319,"148":0.051165434464550096,"149":0.26409920303223094,"150":0.6037576927187948,"151":0.005968718062555139,"152":0.06285444085526283,"153":0.07649510731592613,"154":-0.024384930916341373,"155":-0.057983214409162175,"156":0.007405704030301319,"157":0.04778859966053052,"158":-0.06869624075254799,"159":-0.06891700184499198,"160":0.007611762151298165,"161":-0.1017039121211093,"162":0.40669387086990644,"163":0.6920479058062801,"164":-0.04593973977841557,"165":0.05818824109602941,"166":0.023185784293242414,"167":-0.009598154781816212,"168":-0.01646565092694745,"169":0.012898762037809266,"170":0.0219078197394766,"171":0.017649151874122103,"172":-0.045608477570920646,"173":0.012700938975412558,"174":-0.053648560284335726,"175":0.3649352324160545,"176":0.9577259349090268,"177":0.07557444171668855,"178":-0.000013278435882529104,"179":-0.009072975792428757,"180":0.021549847401263016,"181":0.0281067869191809,"182":0.010493774141772329,"183":-0.005718329938301992,"184":0.030119136761770533,"185":0.049050410367360936,"186":0.0958907129396085,"187":-0.22667107808891676,"188":0.31207640889283766,"189":1.1136142176092947,"190":0.043293554847322974,"191":-0.04541162392908772,"192":0.0006904694987318196,"193":0.024257966653570245,"194":-0.03890579597099382,"195":0.006259855883289004,"196":0.04887766135974173,"197":0.025408344108012654,"198":0.05695899770047783,"199":0.025430378481348586,"200":-0.3713474139920182,"201":0.4455090830969678,"202":1.0615014029214414,"203":-0.01839236601808051,"204":-0.09159518240314093,"205":-0.029535609955662463,"206":0.03448666599047044,"207":-0.02339719070381424,"208":-0.002290983910376523,"209":0.044575101062663075,"210":0.06074185172250351,"211":0.08037324632716367,"212":-0.08840976845711845,"213":-0.114729355873151,"214":0.26615747464608125,"215":0.7184553055846497,"216":-0.006313838606433834,"217":0.004176675996586905,"218":-0.17216702203038425,"219":-0.01995901619137628,"220":-0.08422905294936021,"221":-0.0009094361660328556,"222":0.0009340463144382029,"223":0.028783352950655514,"224":-0.007527741359687342,"225":-0.1985464184993619,"226":-0.08247797648787573,"227":-0.30914864471729286,"228":0.9128093680602963,"229":-0.06774983976722633,"230":-0.09374630891836501,"231":-0.08243529161954496,"232":-0.14418711178571006,"233":-0.109820288610811,"234":0.0004480114531506566,"235":0.08823177139822717,"236":-0.0036910453997185946,"237":-0.1083641414827966,"238":-0.016319883492538732,"239":-0.24170541017846825,"240":-0.5868293928983123,"241":1.5011065344273755,"242":0.125793841316692,"243":-0.015641022642192113,"244":-0.06366301652704257,"245":-0.024761630109155934,"246":-0.10657713931331056,"247":0.005596033347377072,"248":0.08092254004167605,"249":0.003647460317650551,"250":-0.003310688657149636,"251":-0.01461428255781163,"252":-0.17064315110672962,"253":0.2012598477737113,"254":0.7903212476188591,"255":0.06108383692371494,"256":0.012641704069936444,"257":0.00009214490886149402,"258":0.05237076592789717,"259":-0.06865340261676407,"260":0.01211539248990916,"261":0.11324541685593706,"262":-0.0775646448230657,"263":0.08205977572120252,"264":-0.02205463138153268,"265":-0.018751759648473487,"266":0.2012598477737113,"267":0.6430919964443631,"268":0.04993268039989099,"269":-0.04736210418581804,"270":0.04634330550665945,"271":-0.025929437016620233,"272":-0.031202995362720254,"273":0.004409870914643693,"274":0.06462977321889647,"275":0.0001078404197941223,"276":0.061385367289874176,"277":-0.02074325812896074,"278":-0.0653534105219556,"279":0.2012598477737113,"280":0.7457277809699716,"281":0.05983996371266049,"282":-0.05637024415043996,"283":-0.00137192208576019,"284":0.0234871680565194,"285":-0.04601157693660919,"286":0.004868024016692348,"287":0.054028525501417804,"288":0.00490373870256462,"289":0.005094468555999216,"290":0.08198057596634867,"291":-0.05234531591328941,"292":0.2012598477737113,"293":1.228153646925915,"294":0.04816845453660067,"295":-0.050492508445141006,"296":0.022270315302857547,"297":0.0469852750728871,"298":-0.12658463681163923,"299":0.0038643965155704396,"300":0.032643805031707954,"301":0.013093608246378246,"302":-0.017725144339974262,"303":-0.031051021312101884,"304":-0.019763082669784732,"305":-1.154046471066343,"306":0.2964016479750358,"307":-0.0805454851900677,"308":0.041213493626631854,"309":-0.020453768443256744,"310":0.04478652485452838,"311":-0.16743341809829318,"312":0.001092302854857416,"313":-0.018113488229131648,"314":0.018231843168110513,"315":-0.047093688626459934,"316":0.09889492826018746,"317":0.03933425672335685,"318":-1.1185663102543488,"319":0.2081741236347184,"320":0.027188860874765877,"321":0.21290458661807415,"322":-0.054608886053175126,"323":0.01029923066027121,"324":-0.0644312419277666,"325":0.0028899922062458104,"326":-0.007363254956740189,"327":0.0797272992291566,"328":-0.03963144470050909,"329":0.10905312489881472,"330":-0.11370120386724525,"331":-1.0189992379723056,"332":0.17899707219019054,"333":-0.013342196488296949,"334":-0.013163955091939435,"335":0.012984917567572493,"336":0.012029189466366571,"337":-0.038156435884498546,"338":0.01131839767581236,"339":0.025610913472030223,"340":-0.06862529364214016,"341":0.029234584629460283,"342":-0.010387126363302935,"343":0.006228533689230456,"344":0.058034908680813624,"345":-0.30307235362129903,"346":0.019622827709613207,"347":0.07061748203859854,"348":0.013933350073835414,"349":-0.013298506623974658,"350":-0.013109375536045676,"351":0.010340297278337227,"352":0.17713179354498154,"353":0.028877716016304542,"354":-0.12021884705134735,"355":-0.09968604658897809,"356":0.03203679950524438,"357":0.14413459469260803,"358":0.014017447501031233,"359":-0.11066995870605721,"360":0.07566235552323614,"361":-0.02862776021860153,"362":-0.003784789080029922,"363":0.04201593413860922}},{"sx":1,"sy":1,"depth":364,"w":{"0":0.022024808618639282,"1":0.0018961924031644624,"2":0.04425421936639878,"3":0.019021946569755605,"4":0.025677196151271543,"5":-0.0858453041472126,"6":-0.008411686926204885,"7":0.10376027688830244,"8":0.09422870919572286,"9":0.01781247380937865,"10":0.09705288433866792,"11":0.16764499866166735,"12":-0.010289201276510406,"13":0.03583764129831434,"14":0.006872359488602485,"15":0.014689947124481389,"16":-0.061930286241865,"17":0.06833112579000912,"18":-0.0982582910788256,"19":0.006974943600835546,"20":0.012512008805566684,"21":0.06628181018384102,"22":0.051652743874022015,"23":0.02685380864923015,"24":0.08042730720672284,"25":-0.009289762018547228,"26":0.020207229756587935,"27":0.030410554367145112,"28":0.01627409078171482,"29":-0.020925706835350562,"30":0.02245843123608552,"31":-0.08454159320356094,"32":0.002600207035591347,"33":0.026890923910464024,"34":0.020726311861195078,"35":0.01657241761466692,"36":-0.0307308628397197,"37":0.06932509606789264,"38":-0.029732409131573392,"39":0.009111631636605451,"40":0.01756383402656406,"41":0.04571798362229195,"42":-0.004423253423436538,"43":0.038009203785692856,"44":-0.06718655607526162,"45":0.08852422117992535,"46":-0.012442557597261967,"47":0.03464873941235432,"48":-0.08176273967847084,"49":-0.12472307238805458,"50":-0.0042051795209408025,"51":-0.028945809805442018,"52":0.020817660652101114,"53":0.015295379781222094,"54":0.03459103344951667,"55":-0.021914722952660164,"56":-0.017197197582394262,"57":0.037760740214805584,"58":0.12791480110074557,"59":0.019178039781181974,"60":0.06325309352174673,"61":-0.01857944049684018,"62":-0.021683438731444595,"63":-0.02111997509356356,"64":-0.04398951347528592,"65":0.024016874954920425,"66":-0.006604222991307569,"67":0.06809427756102882,"68":0.012192674676869837,"69":-0.057091970670259555,"70":0.08074614592417655,"71":0.025921317117539307,"72":0.04848841988081833,"73":0.04054774376613914,"74":-0.031495099547376365,"75":-0.019270237579536536,"76":0.029723438928854363,"77":0.035000935584187876,"78":0.01751310018594465,"79":-0.013224038208904363,"80":0.06787590215015295,"81":0.0053873778726420294,"82":-0.0012906830999894947,"83":-0.002381088520214274,"84":-0.00020648850996982503,"85":-0.021098733228893093,"86":-0.02697475321051144,"87":-0.031848472077921075,"88":-0.04308291960273352,"89":0.09270604704462194,"90":0.04291202804300607,"91":0.020738936334772428,"92":-0.03265687018893529,"93":0.010911770502015193,"94":0.05722380284712712,"95":-0.059594291798089546,"96":0.026887699942255063,"97":-0.0367926073392166,"98":0.0016160034971989237,"99":0.011923091756113271,"100":-0.04191582833662752,"101":0.0033438052099345776,"102":0.0724061482620066,"103":-0.02419495039204641,"104":0.007110735287546245,"105":-0.006489742167232901,"106":-0.0034466629204573085,"107":0.010718390335055901,"108":0.011764262027661253,"109":-0.012901752172901912,"110":0.016365344494419544,"111":-0.062201965727699045,"112":0.04523790474975719,"113":-0.034794752310654015,"114":-0.07397808242060774,"115":0.11731266583560204,"116":-0.020892415162516026,"117":0.003990646464581454,"118":-0.017695795221766814,"119":-0.0372813405767338,"120":0.0470867908311252,"121":0.033962346945871025,"122":-0.053932476157811146,"123":0.12105157413313551,"124":-0.0734792641456477,"125":0.03466736023094081,"126":0.050757988788220514,"127":-0.0627559208855442,"128":0.1277195165075555,"129":-0.07719123588020056,"130":0.008622626297796003,"131":-0.007652295741999074,"132":-0.07443888286212957,"133":0.05932773016121354,"134":-0.024305807255587675,"135":0.021136428302124664,"136":0.05910829751959254,"137":-0.11897858781512591,"138":0.05314236850911183,"139":-0.03622708984925711,"140":-0.004537583728593791,"141":0.07820345895261284,"142":-0.09111180514756936,"143":-0.01989014042178103,"144":0.0035740357249481897,"145":-0.053215942100456104,"146":0.022594053773073636,"147":0.013419295527698345,"148":-0.06643244008161348,"149":0.032715054400896705,"150":-0.1890147070247165,"151":0.05039634690147851,"152":0.08605236165964048,"153":0.06021121904442679,"154":0.09230202032810693,"155":-0.03952281954235707,"156":-0.024622328762402567,"157":0.0030113447023806202,"158":-0.005441450791315716,"159":0.03281130384187429,"160":-0.08435616979731181,"161":-0.03251919458056577,"162":0.10341676912780949,"163":-0.13776599998920191,"164":0.006935608815588517,"165":0.0608174536135065,"166":0.0692034899195735,"167":0.03367084849419118,"168":-0.07105686925608391,"169":-0.044581896542173864,"170":0.002800013910665248,"171":-0.007253257353642112,"172":0.015167211274696939,"173":-0.033001109510508,"174":-0.06749870601257137,"175":0.08839409437800429,"176":-0.09910550857933582,"177":-0.036419587476026014,"178":-0.03273632560589966,"179":-0.005730309367465136,"180":0.020646089324331426,"181":-0.03165480046611247,"182":-0.04671261072287244,"183":0.007633320899131373,"184":-0.03849499381141698,"185":-0.002165620948835415,"186":-0.020973851917437093,"187":-0.1011736626197495,"188":0.07188377563684953,"189":0.021699520120886717,"190":-0.015458892605943788,"191":0.05678453346597506,"192":0.006492439511510053,"193":-0.030073958802643238,"194":-0.0334544782109383,"195":-0.017964591934833747,"196":0.010768901453240508,"197":-0.03651307144933406,"198":-0.0435631714118175,"199":-0.0787330544224216,"200":-0.05864366717859052,"201":0.07679327220246307,"202":-0.029453373602655278,"203":-0.03472393552233128,"204":-0.10588929233805539,"205":-0.03771043894350199,"206":-0.02363680805876833,"207":0.007901257885509745,"208":-0.025154984510233524,"209":0.010921522949835687,"210":-0.03756265262039524,"211":-0.04587280102973279,"212":-0.04577342708763444,"213":-0.04097833190019535,"214":-0.04094306969274914,"215":-0.04901546152051709,"216":-0.0324584206830284,"217":-0.03512352693085643,"218":-0.03192738631003439,"219":0.00034427157323018304,"220":0.0012633019421553803,"221":-0.014205118583899416,"222":0.028410437473090036,"223":0.0035179883714072215,"224":-0.08004308115694626,"225":-0.056694714966500644,"226":-0.04381040874326505,"227":0.006519078421247593,"228":-0.07725988946836108,"229":-0.062268703232370624,"230":0.021765057321228413,"231":-0.019349024633808432,"232":-0.010665002067649431,"233":-0.006606284757446581,"234":-0.007352124313286434,"235":0.023024884055711507,"236":0.021986130830635647,"237":-0.06664044126542287,"238":-0.07263688410034017,"239":-0.12045904662088025,"240":0.044098630582197235,"241":-0.08376140088188883,"242":-0.06148274714416116,"243":-0.0019158999631096133,"244":-0.04336683843256739,"245":0.009932617905270235,"246":-0.016700175368488213,"247":-0.0028205509758740246,"248":0.04427500131681458,"249":0.022989627204942867,"250":-0.05339096949695813,"251":-0.029920971975573547,"252":-0.043670141573057736,"253":-0.12354511540882082,"254":-0.06365417276891538,"255":-0.07910335227337383,"256":0.04625452872743629,"257":-0.029298836529790356,"258":0.06719402676516871,"259":-0.030264628166435107,"260":0.009230256560384491,"261":0.02991296991597449,"262":0.01980189132683775,"263":-0.043462323968456035,"264":-0.0824708704992927,"265":-0.03164329578917254,"266":-0.12354511540882082,"267":-0.11082440007979796,"268":-0.02669728015503997,"269":0.0556073952168936,"270":-0.004807326692180368,"271":0.08727088434568664,"272":-0.00921410709214823,"273":0.01123529358750741,"274":0.01052299059268742,"275":-0.021524450082373192,"276":-0.03574784082674485,"277":-0.023344392428068614,"278":-0.07687266786877016,"279":-0.12354511540882082,"280":-0.15321520278902062,"281":-0.0597410168539019,"282":0.07007915312104745,"283":-0.00611037554723078,"284":0.03989841008989554,"285":-0.004513547313273708,"286":-0.019275460729262037,"287":-0.007487590354627405,"288":0.026947798400128384,"289":-0.01765296006085638,"290":0.026279084823252422,"291":-0.13493045312183435,"292":-0.12354511540882082,"293":-0.20364133140927237,"294":-0.0469217510972321,"295":0.03404287595444255,"296":0.005210116673677873,"297":0.0699675774500666,"298":0.0336289732034091,"299":-0.0027759948566296972,"300":-0.011240813420833889,"301":0.03282320861622645,"302":0.013532834345685295,"303":0.023524483777694487,"304":-0.11090580033076507,"305":-0.10356318726203147,"306":-0.05661400451224103,"307":0.007270945173795474,"308":0.07716075193367128,"309":-0.014600993133207986,"310":-0.016670921596920837,"311":0.03467132319339591,"312":-0.025904222661088636,"313":-0.009435589144244519,"314":0.018478934882488224,"315":-0.04492660430632828,"316":0.07926294062883188,"317":-0.160024232351463,"318":-0.1711721953251425,"319":0.026040258342630965,"320":0.00491255214945548,"321":0.024200996244224407,"322":-0.03661097651904767,"323":-0.02123984565403123,"324":-0.025330120323906757,"325":-0.03686234881271144,"326":-0.037885672764852794,"327":0.0010649506351395979,"328":-0.019092797065654237,"329":0.036063294068135444,"330":-0.07219890167824211,"331":-0.29566489863888007,"332":-0.08843292717528027,"333":0.002843907039787023,"334":0.0976884440798652,"335":0.00911065651475401,"336":0.050556380508084725,"337":-0.0240674628137379,"338":-0.01323525000671884,"339":-0.017346512026739404,"340":0.012104545253556932,"341":-0.055669853440694576,"342":0.04195482568156902,"343":-0.10894799476743619,"344":-0.7570367994275132,"345":-0.22962791113675,"346":0.01631779302427605,"347":0.05543718797284715,"348":-0.03949049744731826,"349":-0.0020423612450289614,"350":-0.05500764221762235,"351":-0.035172794110406164,"352":-0.07470256869141545,"353":-0.008658312544385455,"354":-0.05705882793195843,"355":0.02020624139801147,"356":-0.1076226316270854,"357":-0.9070879527950786,"358":-0.229539414136255,"359":0.023791634809196598,"360":0.03403600699022868,"361":-0.033808115199909644,"362":0.03115789741100183,"363":-0.08587055510732018}},{"sx":1,"sy":1,"depth":364,"w":{"0":-0.0037655798318174155,"1":-0.046767061015596634,"2":-0.12119490637831955,"3":-0.2212830462547137,"4":-0.012874436885265204,"5":0.053881723600121785,"6":-0.0763581945344039,"7":-0.07948871575134227,"8":-0.11378455691848888,"9":0.0121283731147125,"10":-0.056823118141696806,"11":-0.026371026235224505,"12":0.017852265493138092,"13":-0.01263204664521451,"14":-0.0633791773217091,"15":-0.1121543339010044,"16":-0.052246718001979005,"17":-0.1044293562856932,"18":-0.015618594778965511,"19":-0.0729459566222072,"20":-0.17429803257950577,"21":0.007909874500972513,"22":-0.0022291043979990365,"23":-0.042047282517727644,"24":-0.04519928353978036,"25":-0.0019194489456439386,"26":-0.0742204691996225,"27":-0.07032876697187125,"28":0.008933680803375298,"29":-0.051973519877638326,"30":-0.06446193950081439,"31":-0.0002830996703660908,"32":-0.056313692259368796,"33":-0.1955520018380014,"34":-0.0025972947588918617,"35":-0.031248589678712434,"36":-0.076167595936388,"37":-0.02300128445085971,"38":0.03835282602108671,"39":-0.10005698383192226,"40":-0.05299026122179371,"41":0.04524138841467107,"42":-0.07709886437266779,"43":0.04667435632412149,"44":0.1551577459634107,"45":-0.028809914162150365,"46":-0.07496073146750588,"47":-0.005648733173154509,"48":-0.015631305974231596,"49":-0.07449854168325833,"50":-0.025424787002588774,"51":0.035963884801469954,"52":-0.08815466805405889,"53":-0.02744628644003011,"54":-0.06957637046461371,"55":-0.06391066318126219,"56":0.0339657921463743,"57":0.17501691099261157,"58":-0.052329891417394796,"59":-0.028620027809630688,"60":0.03548328011155614,"61":-0.08909568443086627,"62":-0.023356979119414298,"63":-0.0012254106315063497,"64":0.05844351629860539,"65":-0.10017758183370207,"66":-0.07230012205496873,"67":-0.049234054514704466,"68":-0.05652556473504872,"69":0.1378573267669158,"70":0.18475425009601854,"71":-0.11262992348812526,"72":0.09102016239528181,"73":-0.010872690772055158,"74":-0.03591446280730291,"75":-0.13648059232269558,"76":-0.06289786380750924,"77":0.026732908146269822,"78":-0.057894126985503086,"79":-0.025576560866493306,"80":-0.09518057262615211,"81":-0.015270835014658243,"82":0.017952243693978992,"83":0.20634879101926734,"84":-0.03421643971655595,"85":0.03994451060221515,"86":-0.04324302456467417,"87":-0.05563328143488772,"88":-0.10690404006277215,"89":-0.08288968734447023,"90":0.023750309815791126,"91":-0.041613439960253434,"92":-0.03956465759364373,"93":-0.09007805238194941,"94":0.011824487160906047,"95":0.0917443729920451,"96":0.07760818680095571,"97":-0.08406973947298003,"98":-0.06733263482876946,"99":0.008278190062460446,"100":-0.09040302333282843,"101":-0.14866737605844804,"102":-0.12160992292526382,"103":0.04588508016594946,"104":-0.018085008372049415,"105":-0.031488961518872205,"106":-0.05926016106687761,"107":0.06640631934855243,"108":0.0844856503132535,"109":0.171833798734029,"110":-0.13129417866468976,"111":0.026333937888946547,"112":-0.034375858776863555,"113":-0.14306388463104244,"114":-0.21129907668312453,"115":-0.09890836521802655,"116":0.03271966577862718,"117":-0.03372545599219726,"118":-0.006597573744401193,"119":-0.07077226076864965,"120":0.08834577872275097,"121":0.1168609255993115,"122":0.19623647803311095,"123":0.035203081260807616,"124":-0.10576414163929378,"125":-0.09064086792415288,"126":-0.16037891849087696,"127":-0.1512482909740824,"128":-0.09726944573742619,"129":0.010673403248207166,"130":-0.08919370998564682,"131":-0.010662524437873633,"132":-0.09072402473813955,"133":0.0005361671916172182,"134":0.2502272008856937,"135":0.1713617330708319,"136":-0.08378179317078807,"137":-0.15916255431931053,"138":0.054285966016013286,"139":-0.13469623210897108,"140":-0.13165159192631257,"141":-0.03995268821823918,"142":-0.036533090665709624,"143":-0.08022532930029128,"144":0.03884120815793014,"145":-0.016943167060479394,"146":0.08171955669739425,"147":0.16839864836979843,"148":0.03312135064632591,"149":-0.25940784514615917,"150":-0.1364930337990729,"151":0.010095197783141165,"152":-0.09458694794366375,"153":-0.1115800282739884,"154":0.031988316203496694,"155":-0.05863757145492188,"156":-0.06387252723710289,"157":0.056645767623811,"158":0.017247520725531994,"159":-0.007216984114189779,"160":0.1931826605146221,"161":0.4206929176346239,"162":-0.21680677077610766,"163":-0.014080225111794372,"164":0.003481883036395717,"165":-0.0363709323906534,"166":-0.028281998294315276,"167":0.02709013896924978,"168":-0.03244950216034481,"169":-0.022207119697084752,"170":-0.06047497242602842,"171":-0.09411751418610118,"172":-0.02767723810871878,"173":0.1485201969386805,"174":0.18309475697668837,"175":-0.21608373843491513,"176":0.01673165217723542,"177":0.032284778354554816,"178":-0.06067684933134139,"179":0.05955154229547625,"180":0.05205672290807656,"181":0.001352007439420536,"182":-0.025953894593391844,"183":-0.05765146000311724,"184":-0.10179428959757533,"185":-0.07677840045632428,"186":0.15491687615873612,"187":0.04980492803427636,"188":-0.19841753215654487,"189":-0.09067391323366669,"190":-0.11393382744666351,"191":-0.0570616573437937,"192":0.04803767176986944,"193":0.08213644620876126,"194":0.053111441897442095,"195":-0.04970710422616737,"196":-0.13224511773501257,"197":-0.09814175564849974,"198":-0.10580195466634101,"199":0.1165097133685837,"200":0.12375583244214651,"201":-0.18487859998859554,"202":-0.0723685833546925,"203":-0.03917350988211872,"204":0.07832900672619593,"205":0.08009867852584109,"206":0.09723463348328704,"207":0.043968414704663936,"208":-0.06010603526042072,"209":-0.15845587549273668,"210":-0.09443278056930456,"211":-0.07634488421642369,"212":0.120304339324879,"213":-0.2869556676620779,"214":-0.1677934581142459,"215":-0.15832658818864573,"216":-0.008929482485657387,"217":0.027230363986905308,"218":0.035827108268341436,"219":0.05581261636327436,"220":0.04164258764402002,"221":-0.03480968969438054,"222":-0.017399394123671346,"223":-0.05412227573113226,"224":-0.030944587550421655,"225":0.19428950615445797,"226":-0.17665559201830158,"227":-0.061114970169503194,"228":-0.17442212481839262,"229":0.003585074850223482,"230":0.15156124801367682,"231":-0.08384437096934848,"232":0.0017774999901898163,"233":0.023094866033396787,"234":-0.03863514398952059,"235":-0.03622425198997353,"236":-0.01400322727800057,"237":-0.07310430540051675,"238":-0.01437809628361321,"239":-0.259010451838123,"240":-0.008281466572361505,"241":-0.1015566899973342,"242":0.02862619762228003,"243":0.1309319858484514,"244":-0.09570855492170104,"245":-0.07018105437149286,"246":-0.026775586973626638,"247":-0.021933357758639534,"248":-0.010590562488277727,"249":0.018621245765275244,"250":-0.068623998201416,"251":-0.011088393968197042,"252":-0.16635321264154845,"253":-0.046504198164876664,"254":0.03184194896475914,"255":0.0005344978221340492,"256":0.09436692289427075,"257":-0.04350283917707068,"258":-0.07893460663174005,"259":-0.02641460472682258,"260":-0.04825090825407314,"261":0.012803620450589108,"262":0.0034701622610269784,"263":-0.06994236585164833,"264":-0.011390866656898624,"265":-0.18781370045036552,"266":-0.046504198164876664,"267":-0.11297901281947353,"268":-0.0011911926491990593,"269":0.15654637660274648,"270":-0.07071417047788452,"271":-0.03651331339176719,"272":-0.049766417723472886,"273":-0.08646996757499904,"274":-0.04528775510871753,"275":-0.03984809399774386,"276":-0.0982488555405158,"277":-0.11526250983135164,"278":-0.2993240520268081,"279":-0.046504198164876664,"280":-0.03494915918292885,"281":0.026454444614942656,"282":0.0840310153550424,"283":-0.024166284467928508,"284":-0.020884302982083477,"285":-0.022636400598811227,"286":-0.012172658067270812,"287":-0.06093938029623827,"288":-0.05523089306396513,"289":-0.0012766261633099694,"290":-0.010529165397956375,"291":-0.42000261773063746,"292":-0.046504198164876664,"293":-0.08334190143035332,"294":0.06299367879317536,"295":0.08943071617001103,"296":0.002429582142491708,"297":0.08012549325304588,"298":0.03238998674663142,"299":0.008859230735557673,"300":0.021883306345303596,"301":-0.05754618126291069,"302":-0.00430465787943104,"303":0.021754292107811872,"304":-0.2650853796204271,"305":0.1607187100579604,"306":0.043672325618744026,"307":0.008734203961340847,"308":-0.015924182899007752,"309":-0.023968549779561022,"310":0.04527703808950049,"311":0.04650628789662606,"312":0.006722652969595657,"313":-0.008317343517732157,"314":-0.03333493412805262,"315":0.049239146567376414,"316":-0.06091860120476316,"317":-0.32091345125053633,"318":0.16033873615754682,"319":0.10812198391060535,"320":-0.004494083743493063,"321":0.00006854880076451662,"322":0.005994625119763609,"323":0.037489632969040676,"324":0.02243527038351627,"325":-0.051819550784122,"326":-0.002985114425914731,"327":-0.04585570411583712,"328":0.024797253330293888,"329":0.01823071561219596,"330":-0.10283693116496835,"331":0.16308200605953593,"332":0.06030985658358248,"333":0.013818075851583952,"334":-0.05972901407246966,"335":0.002027608312945497,"336":0.07316405831295315,"337":0.019938015108190186,"338":-0.06511590511287985,"339":0.11569662448600256,"340":0.007922186883841718,"341":0.030474523356031787,"342":0.08249514812799115,"343":0.14721904758810025,"344":-0.13205626252107303,"345":0.08903553780619856,"346":-0.007065121778452115,"347":-0.015603323603748963,"348":-0.003472263614567535,"349":-0.01567005987602567,"350":0.030232697717898507,"351":-0.10853083393131784,"352":0.11194265217358325,"353":-0.02216771357059552,"354":-0.03130883164162364,"355":-0.02062324990323131,"356":0.05030235316691129,"357":-0.2576152160286367,"358":0.00566264349545338,"359":0.011974264968108111,"360":-0.018281012101497844,"361":0.010816903263473586,"362":-0.07215296795969302,"363":0.049382028594651455}},{"sx":1,"sy":1,"depth":364,"w":{"0":-0.03651107585769708,"1":-0.06559307664502213,"2":0.1008716246678061,"3":0.061840452444782444,"4":-0.017408609919230968,"5":-0.0741619857906015,"6":-0.1860205434778834,"7":-0.15297494631359793,"8":-0.0553441078861387,"9":0.11933729486405126,"10":0.036219760797789845,"11":0.022629516956548953,"12":-0.06867422784923045,"13":-0.01777411719632605,"14":-0.0063801984167647305,"15":-0.07745800430369675,"16":0.03624820942275758,"17":0.05675164510215187,"18":-0.04873682656907268,"19":-0.06430891696953427,"20":-0.06502910890056178,"21":0.04868395468545181,"22":0.08287485063829615,"23":0.03969593564712807,"24":0.004704967045278738,"25":-0.02407886517512302,"26":-0.03517834925175955,"27":-0.08575923309582004,"28":-0.0462833924058121,"29":-0.04805005075200913,"30":0.04538343013792959,"31":-0.007113726966703952,"32":-0.2268744723298256,"33":-0.023165815912821693,"34":0.039693165082313846,"35":-0.0011692851624398011,"36":0.015545772967868111,"37":0.07863293773868468,"38":-0.08673160069954364,"39":-0.05199880301750969,"40":0.009640468700856827,"41":-0.08462092262424144,"42":-0.026174933823893888,"43":-0.04514137287954959,"44":-0.019178038408841525,"45":-0.2686664604134759,"46":-0.07353261044031391,"47":-0.045782912929109694,"48":-0.020297385835075905,"49":-0.047364414677100085,"50":0.03374235512110911,"51":-0.10165562943562212,"52":-0.04939146981989351,"53":-0.03581528456270369,"54":-0.03997493760216544,"55":0.053302613489568086,"56":-0.031609349978273485,"57":-0.03827658650748191,"58":-0.4488021063938136,"59":-0.11701878739777494,"60":-0.10729151640839514,"61":-0.021142064376736172,"62":0.012886976760278246,"63":0.032888167191457804,"64":-0.016564584837505832,"65":-0.030051541846558682,"66":-0.019007128208532273,"67":0.06479003214655359,"68":0.09971594144331133,"69":0.11696730789634073,"70":-0.09788293402806358,"71":-0.3926605569759944,"72":-0.20498536133077902,"73":-0.03536126721794055,"74":-0.04787558288179197,"75":-0.0013749060975729748,"76":0.045960678667420166,"77":-0.08483346022480047,"78":-0.053760612909737736,"79":-0.009516821365428463,"80":-0.027247171836722723,"81":0.08418173295720593,"82":0.13364790122255177,"83":-0.04913128382269791,"84":-0.29772311910090654,"85":-0.20336889269633063,"86":-0.0986947109601069,"87":0.009851331048894777,"88":0.03844749088916261,"89":-0.005923029211172022,"90":-0.02039272853216361,"91":-0.02895564718175448,"92":0.027374932795956493,"93":0.04191353589792508,"94":-0.012846221069974578,"95":0.025948589142950645,"96":0.030128760080856548,"97":-0.2221457944265427,"98":-0.07358264373706083,"99":-0.0055991232827353795,"100":0.030136152443019745,"101":0.017977437472408292,"102":0.016845345051584793,"103":-0.011740942080703167,"104":-0.04992040492923097,"105":0.037665732666435366,"106":0.05380384303702437,"107":-0.02249781603075216,"108":0.0935523698621974,"109":-0.0475003179207241,"110":-0.528871604198292,"111":-0.3124898867364883,"112":-0.05208218953092594,"113":-0.05005097765055056,"114":-0.0010906706420687245,"115":0.025801701717581102,"116":-0.005123037441901762,"117":-0.029720622715916984,"118":0.006942606668912951,"119":0.006995609840497586,"120":-0.020071213364599307,"121":-0.02520288438852583,"122":0.050805826408244485,"123":-0.6791826201068752,"124":-0.39473544185653714,"125":-0.1667548932171609,"126":0.052015695729499656,"127":0.04518473492834595,"128":-0.008437763223795695,"129":-0.025403987657989166,"130":-0.03451960934353131,"131":-0.061180878781910995,"132":0.02627116021948714,"133":-0.04081780800620902,"134":-0.07532649075385112,"135":0.16261929609958004,"136":-0.5426424405542118,"137":-0.19714745220534863,"138":0.026764230386599523,"139":0.004928952723649129,"140":-0.020706976529354538,"141":0.04926380974541251,"142":-0.007761057307707203,"143":-0.06166619561006885,"144":-0.05070285973372759,"145":0.02229432695275374,"146":0.08866842186805343,"147":-0.01567083827960321,"148":0.015272325854711173,"149":-0.3388499577561025,"150":-0.1363528106910544,"151":-0.0052468405862006314,"152":-0.02293012606462911,"153":0.03878276783715067,"154":0.02686703072652751,"155":-0.04151867561790815,"156":0.01794087185024648,"157":-0.11597674327085428,"158":-0.002165830990426334,"159":0.06468151227844053,"160":-0.024419468289327773,"161":-0.24573309003627614,"162":0.07211290781319217,"163":-0.3353868331968383,"164":0.0010823622264783887,"165":0.0067840570222938235,"166":0.027713806235859607,"167":0.0018227354242908672,"168":-0.011020094337360906,"169":-0.06215697885461216,"170":-0.02698474903654959,"171":0.013615449667583428,"172":-0.024294143142119983,"173":0.007082615893785881,"174":-0.26720477188535363,"175":0.41959883384338914,"176":-0.27536862842944815,"177":-0.036742790859371245,"178":-0.006858564383594119,"179":-0.05426853070440053,"180":0.034576210486725066,"181":-0.00039696527568974555,"182":-0.10075436556748123,"183":0.03656882278169631,"184":0.006924010603254166,"185":0.04023282912574792,"186":-0.07660919120596456,"187":-0.294680528629993,"188":0.596435298200719,"189":-0.21573328009648013,"190":-0.02963275736440625,"191":-0.09598870921379139,"192":-0.06976816037322672,"193":0.009719246571111327,"194":-0.032161766567232804,"195":-0.07031785710464566,"196":-0.018887273612207725,"197":-0.02160890076939354,"198":-0.05925438238232332,"199":0.09887186860242787,"200":-0.3883882588441335,"201":0.5418336948031623,"202":-0.2026428269814801,"203":0.05974102607282222,"204":-0.01996666849092303,"205":-0.06995632068083102,"206":0.0006508568761819882,"207":-0.00490547351790871,"208":-0.1007284992967848,"209":0.040822994869446724,"210":-0.02617318129931471,"211":0.0863492111395862,"212":-0.012546785559815973,"213":-0.02179130780913791,"214":0.3772932062089278,"215":0.2077932740574733,"216":0.11125465161642317,"217":0.01969307907728892,"218":0.01569449396742044,"219":0.05243940644431149,"220":-0.01658420626092393,"221":-0.0565880928954412,"222":0.013407951381356456,"223":-0.03327989925162272,"224":0.12690241710479316,"225":-0.04340315569084316,"226":0.05014828939835194,"227":0.41171946882348537,"228":0.18906813373933204,"229":0.10286646921203592,"230":-0.0015676886049154084,"231":0.04313810535808394,"232":0.062299138326563794,"233":-0.00883014819017216,"234":-0.04160703983359485,"235":-0.021156867219299404,"236":-0.054086723087623106,"237":0.02767139149750874,"238":0.03926456557675756,"239":-0.15205086063376202,"240":0.41063873894525826,"241":-0.028073867013681073,"242":-0.017494017366203395,"243":0.04828348684083268,"244":0.06506389856831594,"245":-0.0004680575493228254,"246":-0.011892954194370343,"247":-0.062404127343303285,"248":0.06352009188547837,"249":0.033290036050109544,"250":0.05464874954984304,"251":-0.06887950336352647,"252":-0.16021299426357158,"253":-0.02262199374392199,"254":-0.05583276430725286,"255":0.03421628003295661,"256":-0.030324292119507056,"257":0.058455176289094,"258":-0.011227996868260069,"259":-0.08413529902732975,"260":-0.0905188467679486,"261":0.00041518450443894567,"262":0.06544252400564049,"263":0.0034592343595271184,"264":0.047809680394292495,"265":-0.15395828290114316,"266":-0.02262199374392199,"267":0.1830221509606589,"268":-0.0034540728710820015,"269":-0.03474319381456276,"270":0.08436696570587751,"271":-0.019975036734664282,"272":-0.10487017621929591,"273":-0.05437157625455352,"274":0.02740852943948847,"275":0.014708532996246726,"276":0.01871930059705306,"277":0.09210158682957649,"278":-0.10406425735175436,"279":-0.02262199374392199,"280":0.4175548676862973,"281":0.133036411092297,"282":0.013717163770872332,"283":0.030101951032071497,"284":-0.007972642618845794,"285":-0.08942901103303301,"286":-0.09772387921184554,"287":0.10996638901838592,"288":0.025475497993534428,"289":0.003223495223766227,"290":0.04465200832565909,"291":-0.010909522439495752,"292":-0.02262199374392199,"293":0.2913643405952222,"294":0.09728698615720645,"295":0.00949638798239872,"296":-0.019172278947308483,"297":0.0015018820523188554,"298":-0.12204981496723745,"299":-0.08163763168147348,"300":0.01744501279749467,"301":-0.002378880605093766,"302":-0.06825801691467273,"303":-0.005617286398073363,"304":-0.031387433118597124,"305":0.5287159060007962,"306":0.2564277017484866,"307":0.02392671606009544,"308":0.04178170366075927,"309":0.012442516680118611,"310":-0.06456073035294611,"311":-0.06228062795780057,"312":-0.09636529124982074,"313":0.020268812780119907,"314":0.004066790721194468,"315":-0.001494756266269473,"316":-0.05860887816249587,"317":-0.0781716012153578,"318":0.5260269080885633,"319":0.09408787108575287,"320":0.03664273877797012,"321":-0.023785353975100107,"322":0.021864903682781104,"323":-0.09958575885737181,"324":-0.06480024539960405,"325":-0.10967304359532487,"326":0.0022533026541899804,"327":0.08500419406858048,"328":0.013224492666161195,"329":-0.005294187154992741,"330":-0.08169343757136431,"331":0.5248023720994326,"332":-0.16919476601023373,"333":-0.008203925014282892,"334":0.01747095546780954,"335":-0.06228145500275802,"336":-0.07493857641045074,"337":-0.07672603246069239,"338":-0.08507804605047153,"339":0.002950652575848768,"340":0.07484339421690513,"341":-0.06224324818445792,"342":-0.09051691121153234,"343":-0.013556395023162948,"344":0.4181999677765742,"345":-0.042997925486070045,"346":-0.001911762612406785,"347":0.005737683469878745,"348":-0.11118488774442153,"349":0.0028142176516604387,"350":-0.030032135760485336,"351":-0.07093005331600842,"352":0.0188528571244161,"353":0.12327382543327328,"354":-0.1354486536673222,"355":-0.019089666582531487,"356":0.13673908323689657,"357":0.4462033940801309,"358":0.04018599884241109,"359":0.09998601000105249,"360":0.05638854934837673,"361":0.004303450283818392,"362":0.1098181884222689,"363":-0.024158586849368953}},{"sx":1,"sy":1,"depth":364,"w":{"0":-0.16260367807626777,"1":-0.06843890522102082,"2":0.010237233181692812,"3":0.030569234127108862,"4":-0.04573347545262438,"5":0.07483001307775712,"6":-0.14860935135544168,"7":-0.06187821950784702,"8":-0.17875453611551215,"9":-0.04426385689771555,"10":0.03698136780528375,"11":0.04583443159276066,"12":0.02287563675518707,"13":-0.12248985106904486,"14":-0.02741724764208001,"15":0.07530936729144141,"16":0.016421395300495925,"17":0.035481990310045036,"18":0.05620363866318724,"19":-0.079072280711884,"20":-0.09645979798093988,"21":-0.04793350236097865,"22":-0.04344263485264433,"23":0.032143623159346955,"24":0.05835169933772574,"25":0.017383443178458406,"26":0.038243681592320375,"27":0.05534584879163397,"28":-0.004991207128136101,"29":-0.0037776149459813678,"30":-0.03432012358276801,"31":0.000984982342545055,"32":0.02519488068561081,"33":-0.03004612063949362,"34":0.028914188919697388,"35":0.023985014645122222,"36":0.08096342816848642,"37":0.040836602589717205,"38":0.008849058267977512,"39":0.0038452433985597394,"40":0.010556714640196703,"41":-0.04573693538565941,"42":-0.09710237349586136,"43":0.0024881199104839795,"44":0.08862535951848767,"45":0.001844326150722407,"46":-0.029450120327090493,"47":-0.1060774048174601,"48":-0.03682742708308754,"49":-0.011179843101413045,"50":0.06224541874168785,"51":-0.002580515234447701,"52":0.016088684419491527,"53":-0.03589703673615515,"54":-0.1308285362592622,"55":-0.10104374569134728,"56":0.06993063102995051,"57":0.03182514586527817,"58":-0.05261415662033195,"59":-0.11350323901111012,"60":-0.09578146764128599,"61":-0.027985037835049915,"62":-0.0619136532647067,"63":0.0016479087473579175,"64":-0.0022449539613107784,"65":-0.026684699137363273,"66":0.0019048324726757754,"67":-0.1113557404105324,"68":-0.02197511195104727,"69":0.0004274961698177716,"70":0.04958787353968888,"71":-0.07466388259211151,"72":-0.12557401837608562,"73":-0.037953548421365765,"74":-0.12077952209681594,"75":-0.029385538680759445,"76":0.0797163585889774,"77":0.00411693684745517,"78":-0.04904420359973651,"79":-0.07266577325824748,"80":-0.028260817133931866,"81":0.051191859829502535,"82":0.04615473536071096,"83":0.15530161394767922,"84":0.01307046509700877,"85":-0.020234235192162952,"86":-0.08288902225433648,"87":-0.14862656326338264,"88":-0.023775661689568826,"89":0.01976263402188006,"90":0.008925082424166196,"91":0.018093456333379537,"92":-0.00939158409233613,"93":-0.08184719721846954,"94":0.06995874911203741,"95":0.1035430130221599,"96":0.2390685329342589,"97":-0.03387846031205052,"98":0.11180117553776923,"99":-0.04630085483626943,"100":-0.13862331373608752,"101":0.05148070017411511,"102":-0.03890152004173641,"103":0.010332242023859618,"104":-0.035830417174936596,"105":0.00690373291168794,"106":-0.034090973260636794,"107":0.10393365075670734,"108":0.010528728279263318,"109":0.39093886685670626,"110":-0.21040195711894003,"111":-0.028839299509667446,"112":-0.048275123362611035,"113":-0.09794157556515071,"114":0.11219997128826628,"115":-0.04727323305417803,"116":0.001803435987369467,"117":0.0035313986489504358,"118":-0.03261627488179175,"119":-0.02674770386362289,"120":0.025330027806807053,"121":0.11828289089193018,"122":0.12378700069178747,"123":-0.37846193050562715,"124":-0.009746030932584094,"125":0.016179596269853876,"126":-0.11674133475677323,"127":0.02055655224665694,"128":-0.019257312480939596,"129":0.0069026209869631604,"130":-0.014823459561590487,"131":-0.055898531885586564,"132":-0.04473552001759788,"133":-0.014893837590299112,"134":0.08882535238219715,"135":0.40783595109515414,"136":-0.382567232221148,"137":-0.033515803620650125,"138":0.025877438448026795,"139":0.000747142943122989,"140":-0.030114513687267423,"141":0.03372133967579294,"142":0.0032793502087993883,"143":-0.03921245818032701,"144":0.07019832016625957,"145":0.009101975071698557,"146":-0.02623662568144979,"147":0.0834550048877368,"148":0.211218883113646,"149":-0.2730781158675211,"150":-0.06032430012717864,"151":0.01836361008991707,"152":0.04825000592123866,"153":-0.004613732904262359,"154":0.07696044834554272,"155":0.01143129671839356,"156":-0.01163126185177977,"157":-0.06954551510863416,"158":0.0023693733415303207,"159":-0.008967994505686009,"160":0.19189364531316686,"161":0.5330601127347444,"162":-0.6064461634712669,"163":0.0660638110821445,"164":0.1197532475119886,"165":-0.07240274445456937,"166":-0.03800574384130597,"167":0.09764316054176854,"168":0.016595262739207008,"169":-0.03262232845712648,"170":-0.05841793218962653,"171":-0.03524147531024943,"172":0.03497618134814086,"173":0.2654600484704134,"174":0.8933447112207784,"175":-0.46058354281512254,"176":0.05026955392022596,"177":0.027617886750518204,"178":0.01473017206505529,"179":0.03835723823750738,"180":0.030696206055939222,"181":0.001667823449765252,"182":-0.0031196430676682083,"183":-0.01672536803898957,"184":-0.03333552024355611,"185":0.027875829196110372,"186":0.15367316926924443,"187":0.8544669889668977,"188":-0.4743898292158247,"189":0.016827227818321206,"190":0.05115285191424061,"191":-0.0022385542416979687,"192":-0.015540265539227808,"193":-0.012331218613827908,"194":-0.002302044757603046,"195":0.0023365012627286617,"196":-0.06743232587910702,"197":-0.01423223335064098,"198":-0.08090753285868195,"199":0.15823965721566025,"200":0.8541384864326621,"201":-0.4111753753094844,"202":-0.03853486947076159,"203":0.008807010065996858,"204":-0.050838759094268014,"205":-0.06001110724626672,"206":-0.011695429457742261,"207":0.0037836770362277205,"208":-0.011449222417665196,"209":-0.014432325666530599,"210":0.07131910591446788,"211":-0.10271025486318888,"212":0.15073951678211792,"213":0.5230478130549546,"214":-0.14875749433402402,"215":-0.039741842835091294,"216":0.02906994166268133,"217":-0.017119362107335126,"218":-0.08646684214371722,"219":0.043174861758394,"220":-0.003653582976502416,"221":-0.01720511354711494,"222":-0.01652698112892407,"223":0.07771969015910692,"224":-0.10660206117551532,"225":0.06747377278563516,"226":0.752405902607233,"227":-0.5273977048784076,"228":-0.02819710924170089,"229":-0.010030328858990158,"230":0.0047004565843291,"231":-0.08051155203706493,"232":0.0032790326469293784,"233":0.011250400925699915,"234":-0.05233047562070951,"235":-0.011055852112340989,"236":0.060525386812534415,"237":-0.05573139091996664,"238":0.1085824685255779,"239":1.1438921202664203,"240":-0.6953871868534639,"241":0.09402603839594437,"242":0.05082210246040573,"243":0.014539146011800131,"244":-0.029310372485384845,"245":0.021533126224042836,"246":0.00910932014860041,"247":-0.09270774009980039,"248":-0.005216376370450449,"249":-0.07783425619609785,"250":-0.06309906386225454,"251":0.011527107580646404,"252":0.7686290477371787,"253":0.05896698457588087,"254":0.05177483406870452,"255":0.015359140551203765,"256":-0.09520437633225665,"257":-0.012596968800219998,"258":0.03660792590007392,"259":-0.0017926423332817703,"260":-0.026186740034457347,"261":-0.02691379871316721,"262":0.001268456440718435,"263":0.03564902382684297,"264":0.0018363666030243584,"265":0.52450817209865,"266":0.05896698457588087,"267":0.016172988270609905,"268":-0.07706109700154774,"269":-0.026998979427404247,"270":-0.0024211410318374,"271":-0.0023600476877020534,"272":0.009494059350898846,"273":-0.018979853772256097,"274":0.026918789328856142,"275":-0.02653006145890807,"276":0.06724692388591537,"277":0.04858691541470284,"278":0.7731274463371567,"279":0.05896698457588087,"280":0.08118196290658614,"281":0.01552657467995552,"282":-0.011073203116268774,"283":-0.11327625016914035,"284":0.03679592902559447,"285":-0.0006430463593814964,"286":-0.04065129765857349,"287":-0.013891947667625845,"288":-0.05247146777621403,"289":-0.062067885403503706,"290":0.029181317761170337,"291":1.14541617604274,"292":0.05896698457588087,"293":0.17064322456479694,"294":-0.06113088991156132,"295":0.00293740020458615,"296":-0.12908976901554314,"297":0.04684868889624985,"298":0.0034353216893591287,"299":0.02058234450589368,"300":-0.09282177192837064,"301":-0.07968672012331643,"302":-0.012693006720974823,"303":-0.08275761788534126,"304":0.20313062187751005,"305":-0.9708785546884783,"306":0.015070801310551728,"307":-0.07116884272450649,"308":-0.14233328089723019,"309":-0.11149967257231971,"310":0.08504164101892692,"311":0.011559938019808255,"312":-0.04811643704708226,"313":0.0035941127996803155,"314":-0.1355922440338432,"315":-0.1408021366166583,"316":-0.09497190856056012,"317":0.1757309399626902,"318":-0.9587947155063348,"319":0.08046535652884437,"320":0.008889997560400714,"321":-0.04217677846097764,"322":-0.09547786297279058,"323":0.07035963948164745,"324":0.013975970812343336,"325":0.02092771111501281,"326":0.03389718453353593,"327":0.038226401677364304,"328":-0.09355105995524354,"329":0.04530251283461772,"330":0.12760417174182823,"331":-0.8981713894754939,"332":0.043764827766994356,"333":-0.1423746333969311,"334":-0.002478603477516097,"335":-0.08845201321362109,"336":0.04837870216334482,"337":0.03229474367122889,"338":-0.01143624201668625,"339":-0.113194186925189,"340":-0.09134174002169751,"341":-0.08178589711172334,"342":-0.09478748398789837,"343":-0.2537459782203635,"344":-0.0732733206173004,"345":-0.20153362070751493,"346":-0.043062391665644954,"347":-0.09792897493182019,"348":0.03428445792507167,"349":0.08368928273710322,"350":0.03706487873755297,"351":0.028519734503379142,"352":-0.036970974042759897,"353":-0.13967566810456303,"354":-0.13898067996630895,"355":-0.09947726882043952,"356":0.13655059615284018,"357":-0.09478345359977354,"358":-0.09732728614368462,"359":-0.031659079996873875,"360":0.0005100887010530638,"361":-0.0908589019479215,"362":0.03212365014473366,"363":0.02598372584282519}},{"sx":1,"sy":1,"depth":364,"w":{"0":-0.043730966717541245,"1":0.04320822478489336,"2":0.06048261496032914,"3":0.06485901832130879,"4":0.05152212199441504,"5":-0.28936046306913477,"6":-0.7342959437168789,"7":-0.3084159305868694,"8":-0.09970379806996164,"9":0.04712110538491878,"10":0.06261606315357247,"11":0.09632858115338061,"12":-0.033601671500908196,"13":-0.042653127948438535,"14":0.05759890267398851,"15":0.03583323266479415,"16":0.028978274680832927,"17":0.06749097493575326,"18":-0.20346603444711567,"19":-0.41069490467494213,"20":-0.12120339827990384,"21":-0.10044268752321343,"22":-0.04112224567230314,"23":-0.0959036784212903,"24":0.049113237781713434,"25":-0.035620499489313555,"26":-0.02801814409901446,"27":-0.04416993760352995,"28":-0.029188063358988926,"29":0.04498162186702172,"30":0.06004715592941413,"31":-0.1764224946891615,"32":-0.23308758863493717,"33":-0.19868967945192828,"34":-0.0997675414662439,"35":-0.023964827079798984,"36":0.04328777579282236,"37":0.03377846286415887,"38":-0.02374180708050235,"39":-0.03790320814481863,"40":0.0015207618808125354,"41":0.028129886308212608,"42":0.08365065666096658,"43":-0.020703325950143413,"44":-0.18837097818807538,"45":-0.13541055159349755,"46":-0.11457012639330638,"47":-0.1637396367270165,"48":-0.08593829953123967,"49":0.06752079145731317,"50":0.06118996875496274,"51":-0.014961997680649703,"52":-0.012477094531682786,"53":0.05428048374121118,"54":0.04976983505625626,"55":0.01958279859973497,"56":-0.09258220510642166,"57":-0.2629596775901258,"58":-0.344030353059882,"59":-0.1857066781606098,"60":-0.0729931651473366,"61":-0.15317030186829206,"62":0.03359713198298538,"63":0.06052107853874944,"64":-0.02837540861820193,"65":-0.016032323412686133,"66":0.04179737168493136,"67":0.038250151830802485,"68":0.035895212013997264,"69":-0.10314185216113145,"70":-0.2761428189034958,"71":-0.07358463452162343,"72":-0.26693574073548954,"73":0.0409268550385233,"74":-0.054830402989713055,"75":0.04231402373250535,"76":0.035228265451112684,"77":-0.04154891377606883,"78":-0.005231523328476817,"79":0.0803813451998925,"80":0.014639975106740049,"81":-0.02098319452078573,"82":-0.019637813671163074,"83":-0.08834678170712165,"84":-0.1596018305730228,"85":-0.17098038023878076,"86":-0.027504945306024396,"87":-0.028351347573059713,"88":0.0308925797373112,"89":0.000007497924474899492,"90":-0.05023037474684062,"91":0.02354271807984198,"92":0.037693268593752174,"93":0.0055862415426197335,"94":-0.006502369874393534,"95":-0.030245951910169155,"96":-0.12206608549735076,"97":-0.1095105726555103,"98":-0.18427050828127886,"99":0.03386686657715247,"100":0.04610084123676941,"101":0.00012708691937965603,"102":0.009458101565323783,"103":-0.06226418105852554,"104":0.0004737738278694196,"105":0.06687337845014667,"106":0.032351734732611825,"107":0.07547501681987442,"108":0.03571654453920932,"109":-0.17272795942576633,"110":-0.07948776475353392,"111":-0.290485290109524,"112":-0.11909150124828227,"113":-0.03753658233630972,"114":0.01817618064745675,"115":0.018708900646398248,"116":-0.019128828526672595,"117":0.015389357655025719,"118":0.05591272753982726,"119":-0.00526698140684151,"120":-0.035576997592882666,"121":0.09444064033686589,"122":-0.2547879725398777,"123":0.09424108265083048,"124":-0.17257687832216698,"125":-0.018873530942794998,"126":0.04171329034158135,"127":0.1617489334860017,"128":0.02668898320389665,"129":-0.016138944751565156,"130":-0.012045932081558075,"131":0.07708127394541614,"132":0.001566006810521552,"133":0.05061896551800788,"134":-0.061569014923140104,"135":-0.09001256453799018,"136":0.25697155429601143,"137":0.03689132801902921,"138":0.03834840824040476,"139":-0.10519246509051572,"140":0.06147439325175277,"141":0.0744321467788863,"142":0.037836516385975884,"143":-0.05527715583739683,"144":0.057375617151485175,"145":0.03750712613948237,"146":0.03612503694806739,"147":-0.0306912872688423,"148":0.013904451765625788,"149":0.21436139949700306,"150":0.05472332170292343,"151":0.082616332868116,"152":-0.04572095954677789,"153":0.0996509748997012,"154":0.06062534822554342,"155":0.07781575752489721,"156":-0.0538954427162576,"157":-0.02073627567396062,"158":-0.010663343504991896,"159":-0.03276427762709941,"160":0.07160747373406448,"161":-0.03152572554042943,"162":-0.05460011699919501,"163":0.04395662279339815,"164":0.04968705575408337,"165":0.08766894440644415,"166":0.16204764972351376,"167":0.02294162296986895,"168":0.06358180560165282,"169":-0.09376412750732134,"170":-0.010132494826873818,"171":0.14284335810612767,"172":0.0339858078099605,"173":0.04749421485422242,"174":0.14539126282928005,"175":-0.22889836985483297,"176":-0.0070601862951916285,"177":-0.10096433735827366,"178":0.07681634907840117,"179":-0.010143863425894229,"180":0.05934657954067761,"181":0.01888377211221527,"182":-0.07487205740792052,"183":-0.05600903174646315,"184":0.07982261262994632,"185":0.03069876031466135,"186":0.025354806485361772,"187":0.19099664536430286,"188":-0.1368492303547071,"189":0.05843302361288815,"190":0.014203886923710293,"191":0.08716830281446111,"192":0.0464316718107271,"193":0.030327957842722793,"194":-0.0369150978332424,"195":-0.046082022613695664,"196":-0.055670302423611935,"197":-0.0022317597866719527,"198":0.07780335720371315,"199":0.12127603811129375,"200":0.14921755224528072,"201":-0.14341274165053255,"202":0.013193162270207077,"203":0.0007800912327130583,"204":0.04994899068120408,"205":0.036037216904810175,"206":-0.014320973741634305,"207":-0.03806770409405042,"208":-0.018100522469484705,"209":-0.041193852929524113,"210":0.03291296040243034,"211":0.06401221882683537,"212":0.017541279157483887,"213":0.180424172514361,"214":0.07021572110719515,"215":0.08213157046138031,"216":0.07433131421627082,"217":0.05363234486127305,"218":0.05619731137860954,"219":0.016374666550233286,"220":0.0010132707354051698,"221":-0.025949429037502046,"222":-0.005561045724172135,"223":-0.0022029981701972255,"224":0.030733502206995205,"225":-0.0030004445536012956,"226":0.25828906172945704,"227":0.16063823077374526,"228":0.22371281106985788,"229":0.08372588736857083,"230":0.0032348980450479406,"231":0.022656080085995182,"232":-0.04590454832009066,"233":0.06663623600435302,"234":-0.02425563858886742,"235":-0.021647733927335044,"236":0.03930339411144098,"237":0.07187782959946527,"238":0.08363825729540994,"239":0.09496480545491458,"240":0.19402341662633638,"241":0.056031922005769175,"242":-0.04221510500530767,"243":0.04210789117539123,"244":0.009023029954147388,"245":-0.029591071278768172,"246":0.07548977453102064,"247":-0.04852641515300536,"248":0.040959195514681884,"249":0.05062300024355982,"250":-0.0006325990261662877,"251":0.03404652865674187,"252":0.06720790688629052,"253":-0.1339348650574261,"254":0.05060698050916785,"255":-0.006804857477545207,"256":0.05971229344913135,"257":0.024887723759967017,"258":-0.03493057471245721,"259":0.02099302512951173,"260":-0.05439721380402704,"261":0.00482313167931374,"262":0.030010434411527523,"263":0.038380936540296076,"264":0.06571288664427158,"265":0.13237533850367056,"266":-0.1339348650574261,"267":0.1324998083246783,"268":-0.0033071850188560042,"269":0.09590464362161431,"270":0.024185490975054888,"271":0.0339918726347371,"272":-0.019042253968205403,"273":-0.024803467412681773,"274":-0.0027860233568554123,"275":0.03469278801781731,"276":0.03516172208212854,"277":0.08886356438087838,"278":0.11962197689281265,"279":-0.1339348650574261,"280":0.048624753977523416,"281":-0.04404457117613213,"282":0.13065490070137611,"283":0.056616579026019236,"284":0.1281554090625314,